tree
version=v4
num_class=1
num_tree_per_iteration=1
label_index=0
max_feature_idx=61
objective=regression
feature_names=Column_0 Column_1 Column_2 Column_3 Column_4 Column_5 Column_6 Column_7 Column_8 Column_9 Column_10 Column_11 Column_12 Column_13 Column_14 Column_15 Column_16 Column_17 Column_18 Column_19 Column_20 Column_21 Column_22 Column_23 Column_24 Column_25 Column_26 Column_27 Column_28 Column_29 Column_30 Column_31 Column_32 Column_33 Column_34 Column_35 Column_36 Column_37 Column_38 Column_39 Column_40 Column_41 Column_42 Column_43 Column_44 Column_45 Column_46 Column_47 Column_48 Column_49 Column_50 Column_51 Column_52 Column_53 Column_54 Column_55 Column_56 Column_57 Column_58 Column_59 Column_60 Column_61
feature_infos=[502.84750366210938:502.8475341796875] none none [227379:304000] [0.87534624338150024:1.0315788984298706] [0:14] [257655:392000] none none none none none none none none none none none none none none none none none none [0.0024999999441206455:0.015250001102685928] [0.10125000029802322:0.1497500091791153] [0.053750000894069672:0.078625008463859558] none [479.40774536132812:520.9334716796875] none [279.2674560546875:297.45306396484375] none none none none [0.57679182291030884:0.71604698896408081] [0.39655640721321106:0.73372775316238403] [0:0.0035000001080334187] [0.95517539978027344:0.98310524225234985] [0.017185119912028313:0.046928174793720245] [0.0024999999441206455:0.015250001102685928] [0.99579131603240967:0.99990963935852051] [9.040642180480063e-05:0.0042264685034751892] [0.10125000029802322:0.1497500091791153] [252026:380000] none none [371:472] none [5:9] [362:467] none none none [0:0.039999999105930328] [0:0.015999998897314072] none [0:0.017888544127345085] [-0.0079999994486570358:0.008999999612569809] none none
tree_sizes=1304 1364 1588 1468 1468 1519 1374 3788 3791 3784 3794 3843 3803 3839 3861 3863 3842 3841 3833 3834 3853 3843 3838 3794 3862 3870 3847 3861 3820 3841 3812 3798 3845 3851 3860 3869 3872 3878 3899 3851 3886 3914 3881 3900 3855 3841 3898 3903 3917 3915 3908 3929 3916 3890 3928 3922 3933 3902 3930 3887 3911 3907 3892 3861 3893 3859 3896 3914 3902 3898 3906 3916 3903 3933 3877 3866 3904 3919 3897 3937 3930 3933 3904 3866 3924 3916 3907 3916 3875 3891 3909 3872 3888 3875 3916 3924 3860 3861 3878 3892 3916 3919 3901 3888 3908 3875 3881 3903 3902 3914 3896 3870 3903 3841 3908 3893 3904 3869 3917 3855 3826 3863 3850 3865 3896 3858 3856 3905 3907 3833 3889 3852 3913 3851 3872 3855 3897 3913 3898 3887 3871 3897 3911 3896 3919 3932 3880 3890 3874 3861 3828 3867 3787 3888 3863 3837 3865 3875 3891 3840 3868 3892 3836 3813 3852 3836 3800 3832 3882 3883 3796 3836 3870 3856 3868 3825 3826 3839 3860 3853 3793 3831 3822 3841 3798 3891 3833 3851 3907 3904 3861 3835 3819 3865 3802 3881 3808 3806 3843 3883 3816 3853 3881 3824 3769 3841 3865 3820 3781 3857 3860 3828 3861 3850 3833 3845 3889 3894 3831 3825 3809 3836 3863 3858 3859 3808 3860 3862 3851 3861 3877 3886 3842 3805 3853 3774 3840 3798 3767 3776 3826 3850 3827 3858 3866 3829 3815 3798 3785 3824 3832 3794 3847 3863 3817 3758 3851 3836 3822 3820 3839 3870 3769 3795 3842 3848 3806 3814 3812 3805 3760 3802 3830 3837 3858 3850

Tree=0
num_leaves=13
num_cat=0
split_feature=5 5 5 5 5 5 5 5 5 5 5 5
split_gain=332.662 72.3291 55.1956 12.418 10.9142 10.27 7.96838 2.49174 1.81995 1.37422 0.378346 0.0175783
threshold=4.5000000000000009 2.5000000000000004 6.5000000000000009 3.5000000000000004 8.5000000000000018 1.5000000000000002 5.5000000000000009 7.5000000000000009 1.0000000180025095e-35 9.5000000000000018 10.500000000000002 11.500000000000002
decision_type=2 2 2 2 2 2 2 2 2 2 2 2
left_child=1 5 6 -3 7 8 -2 -4 -1 -6 -11 -12
right_child=2 3 4 -5 9 -7 -8 -9 -10 10 11 -13
leaf_value=0.092527233635469941 0.10189512551947255 0.098145433118155642 0.10564377429123357 0.10002029983150047 0.10938331874339871 0.096270677283436204 0.10376974950946186 0.1075161331303378 0.09439651127916307 0.11123401200585503 0.11303519519367401 0.11548569207201927
leaf_weight=3693 31836 39820 12062 39666 2676 29741 21295 6063 14994 1066 409 179
leaf_count=3693 31836 39820 12062 39666 2676 29741 21295 6063 14994 1066 409 179
internal_value=0.10002 0.0976888 0.103965 0.099081 0.107082 0.0954041 0.102647 0.106271 0.0940258 0.110467 0.112197 0.113867
internal_weight=203500 127914 75586 79486 22455 48428 53131 18125 18687 4330 1654 588
internal_count=203500 127914 75586 79486 22455 48428 53131 18125 18687 4330 1654 588
is_linear=0
shrinkage=1


Tree=1
num_leaves=13
num_cat=0
split_feature=5 5 5 5 5 5 5 5 5 5 5 5
split_gain=284.66 61.8896 47.2425 10.6253 9.35174 8.78857 6.81819 2.13249 1.55803 1.18083 0.326872 0.0162585
threshold=4.5000000000000009 2.5000000000000004 6.5000000000000009 3.5000000000000004 8.5000000000000018 1.5000000000000002 5.5000000000000009 7.5000000000000009 1.0000000180025095e-35 9.5000000000000018 10.500000000000002 11.500000000000002
decision_type=2 2 2 2 2 2 2 2 2 2 2 2
left_child=1 5 6 -3 7 8 -2 -4 -1 -6 -11 -12
right_child=2 3 4 -5 9 -7 -8 -9 -10 10 11 -13
leaf_value=-0.0069331545362612546 0.0017327044481933349 -0.0017357839509444452 0.0052003063998854971 -1.5223977932229714e-06 0.0086601678439177446 -0.0034699509958254957 0.00346676197909639 0.0069324361448022224 -0.0052036170368455923 0.01037387441881699 0.012045443481544868 0.014325983819140235
leaf_weight=3693 31836 39820 12062 39666 2676 29741 21295 6063 14994 1066 409 179
leaf_count=3693 31836 39820 12062 39666 2676 29741 21295 6063 14994 1066 409 179
internal_value=-1.86865e-06 -0.00215816 0.00364715 -0.000870371 0.00653121 -0.00427163 0.0024279 0.00578094 -0.00554664 0.00966467 0.0112683 0.0128196
internal_weight=203500 127914 75586 79486 22455 48428 53131 18125 18687 4330 1654 588
internal_count=203500 127914 75586 79486 22455 48428 53131 18125 18687 4330 1654 588
is_linear=0
shrinkage=0.0750012


Tree=2
num_leaves=15
num_cat=0
split_feature=38 38 5 38 38 38 5 5 38 5 38 5 31 29
split_gain=243.87 52.9606 40.3758 9.08544 8.00186 7.54112 5.81072 1.83515 1.33914 1.0135 0.280771 0.0112883 7.10114e-10 9.87846e-09
threshold=0.0011250000097788873 0.00062500001513399195 6.5000000000000009 0.00087500002700835477 0.0021249999990686779 0.00037500001781154429 5.5000000000000009 7.5000000000000009 1.0000000180025095e-35 9.5000000000000018 0.0026250000810250644 11.500000000000002 283.21569824218756 494.26637268066412
decision_type=2 2 2 2 2 2 2 2 2 2 2 2 2 2
left_child=1 5 6 -3 7 8 -2 -4 -1 -6 -11 -12 13 -5
right_child=2 3 4 12 9 -7 -8 -9 -10 10 11 -13 -14 -15
leaf_value=-0.0064136898812559599 0.0016027622049180402 -0.0016056078868507001 0.0048103968903975974 -3.1732201160537071e-06 0.0080115120239346756 -0.0032097316752514723 0.0032067900502558474 0.0064128116571377869 -0.0048134228987090806 0.0095981379668666333 0.011148220319102191 0.013220823762564067 -1.4070698285487618e-06 -1.3729363553826163e-06
leaf_weight=3717 31627 39707 12133 20 2683 29866 21247 6095 14900 1059 403 183 39572 135
leaf_count=3717 31627 39707 12133 20 2683 29866 21247 6095 14900 1059 403 183 39572 135
internal_value=-1.17297e-06 -0.00199567 0.0033811 -0.000803341 0.00603767 -0.00394897 0.0022475 0.00534732 -0.00513406 0.00893854 0.0104305 0.0118694 -1.40824e-06 -1.66959e-06
internal_weight=203347 127917 75430 79434 22556 48483 52874 18228 18617 4328 1645 586 39727 155
internal_count=203347 127917 75430 79434 22556 48483 52874 18228 18617 4328 1645 586 39727 155
is_linear=0
shrinkage=0.0750012


Tree=3
num_leaves=14
num_cat=0
split_feature=5 5 5 5 5 5 5 5 5 5 5 5 25
split_gain=208.68 45.3165 34.5581 7.77383 6.85633 6.45326 4.97196 1.57056 1.14635 0.870872 0.242554 0.0105017 5.01623e-09
threshold=4.5000000000000009 2.5000000000000004 6.5000000000000009 3.5000000000000004 8.5000000000000018 1.5000000000000002 5.5000000000000009 7.5000000000000009 1.0000000180025095e-35 9.5000000000000018 10.500000000000002 11.500000000000002 0.0041250002104789027
decision_type=2 2 2 2 2 2 2 2 2 2 2 2 2
left_child=1 5 6 -3 7 8 -2 -4 -1 -6 -11 -12 -5
right_child=2 3 4 12 9 -7 -8 -9 -10 10 11 -13 -14
leaf_value=-0.0059330925484024294 0.0014825662469973929 -0.0014851968370369702 0.0044497154348418682 -1.6788234590016635e-07 0.0074114144891097083 -0.0029690266512046371 0.0029663166011179923 0.0059321161536783455 -0.0044524933852887871 0.0088806154016648972 0.010319222765586273 0.012247682966303436 -1.303488667562372e-06
leaf_weight=3717 31627 39707 12133 23 2683 29866 21247 6095 14900 1059 403 183 39704
leaf_count=3717 31627 39707 12133 23 2683 29866 21247 6095 14900 1059 403 183 39704
internal_value=-1.0313e-06 -0.00184602 0.00312772 -0.000743095 0.00558545 -0.00365287 0.00207896 0.00494643 -0.00474915 0.00827066 0.00965356 0.01099 -1.30285e-06
internal_weight=203347 127917 75430 79434 22556 48483 52874 18228 18617 4328 1645 586 39727
internal_count=203347 127917 75430 79434 22556 48483 52874 18228 18617 4328 1645 586 39727
is_linear=0
shrinkage=0.0750012


Tree=4
num_leaves=14
num_cat=0
split_feature=5 5 5 5 5 5 5 5 5 5 5 5 26
split_gain=178.425 38.63 29.5087 6.65773 5.84773 5.49312 4.26887 1.34266 0.972668 0.742515 0.208779 0.0126538 3.57642e-09
threshold=4.5000000000000009 2.5000000000000004 6.5000000000000009 3.5000000000000004 8.5000000000000018 1.5000000000000002 5.5000000000000009 7.5000000000000009 1.0000000180025095e-35 9.5000000000000018 10.500000000000002 11.500000000000002 0.10887500271201135
decision_type=2 2 2 2 2 2 2 2 2 2 2 2 2
left_child=1 5 6 -3 7 8 -2 -4 -1 -6 -11 -12 -5
right_child=2 3 4 12 9 -7 -8 -9 -10 10 11 -13 -14
leaf_value=-0.0054884717102717971 0.0013713864446898501 -0.001373815241978727 0.0041160798300795701 -3.2429659633339847e-07 0.0068562152890771022 -0.0027463710303286767 0.0027438755574566293 0.0054874425572064636 -0.0041186316013732977 0.0082165533355203248 0.009551668176642188 0.011404089804492592 -1.2048284807818034e-06
leaf_weight=3676 31771 39923 12182 29 2667 29773 21304 6073 14913 1052 402 177 39557
leaf_count=3676 31771 39923 12182 29 2667 29773 21304 6073 14913 1052 402 177 39557
internal_value=7.20914e-07 -0.00170719 0.00288839 -0.000690448 0.00516097 -0.00337859 0.00192244 0.00457325 -0.00439049 0.00765147 0.00893456 0.0101825 -1.20421e-06
internal_weight=203499 127871 75628 79509 22553 48362 53075 18255 18589 4298 1631 579 39586
internal_count=203499 127871 75628 79509 22553 48362 53075 18255 18589 4298 1631 579 39586
is_linear=0
shrinkage=0.0750012


Tree=5
num_leaves=14
num_cat=0
split_feature=38 38 38 38 38 38 38 38 38 38 38 38 44
split_gain=152.678 33.0543 25.2569 5.69657 5.01065 4.70071 3.65269 1.14908 0.832639 0.63805 0.180371 0.0115055 2.04998e-09
threshold=0.0011250000097788873 0.00062500001513399195 0.0016250000335276129 0.00087500002700835477 0.0021249999990686779 0.00037500001781154429 0.0013750000507570805 0.0018750000745058062 1.0000000180025095e-35 0.0023750000400468711 0.0026250000810250644 0.0028750001220032577 0.10887500271201135
decision_type=2 2 2 2 2 2 2 2 2 2 2 2 2
left_child=1 5 6 -3 7 8 -2 -4 -1 -6 -11 -12 -5
right_child=2 3 4 12 9 -7 -8 -9 -10 10 11 -13 -14
leaf_value=-0.0050772039870009451 0.0012685402346977103 -0.0012707858628441396 0.0038074573165406906 -1.8134429567080804e-06 0.0063426585662331404 -0.0025404134800795768 0.0025381154390265838 0.0050761121247441619 -0.0038098006095682079 0.0076023266127277136 0.0088414066115029052 0.010565202886060226 -1.1144726351574317e-06
leaf_weight=3676 31771 39923 12182 29 2667 29773 21304 6073 14913 1052 402 177 39557
leaf_count=3676 31771 39923 12182 29 2667 29773 21304 6073 14913 1052 402 177 39557
internal_value=7.12852e-07 -0.00157918 0.00267193 -0.000638669 0.00477441 -0.00312526 0.00177827 0.00423039 -0.00406133 0.00707978 0.0082691 0.00942812 -1.11514e-06
internal_weight=203499 127871 75628 79509 22553 48362 53075 18255 18589 4298 1631 579 39586
internal_count=203499 127871 75628 79509 22553 48362 53075 18255 18589 4298 1631 579 39586
is_linear=0
shrinkage=0.0750012


Tree=6
num_leaves=13
num_cat=0
split_feature=5 5 5 5 5 5 5 5 5 5 5 5
split_gain=131.037 28.2981 21.6593 4.85076 4.3137 4.04103 3.12162 0.982426 0.716863 0.543028 0.146394 0.00270167
threshold=4.5000000000000009 2.5000000000000004 6.5000000000000009 3.5000000000000004 8.5000000000000018 1.5000000000000002 5.5000000000000009 7.5000000000000009 1.0000000180025095e-35 9.5000000000000018 10.500000000000002 11.500000000000002
decision_type=2 2 2 2 2 2 2 2 2 2 2 2
left_child=1 5 6 -3 7 8 -2 -4 -1 -6 -11 -12
right_child=2 3 4 -5 9 -7 -8 -9 -10 10 11 -13
leaf_value=-0.0046968048593776538 0.0011734087762816819 -0.0011754838964858592 0.0035219792751721925 -1.0308686736058307e-06 0.0058676196297073428 -0.0023499033042222021 0.0023477859078532759 0.0046956077929718679 -0.0035241302066915266 0.0070342120770841348 0.008186317645493173 0.0096763642966794031
leaf_weight=3699 31730 39740 12219 39387 2685 29887 21279 6055 14957 1061 416 172
leaf_count=3699 31730 39740 12219 39387 2685 29887 21279 6055 14957 1061 416 172
internal_value=-8.70062e-08 -0.00146554 0.0024741 -0.000590903 0.00441766 -0.00289109 0.00164495 0.00391167 -0.00375747 0.0065463 0.00763674 0.00867635
internal_weight=203287 127670 75617 79127 22608 48543 53009 18274 18656 4334 1649 588
internal_count=203287 127670 75617 79127 22608 48543 53009 18274 18656 4334 1649 588
is_linear=0
shrinkage=0.0750012


Tree=7
num_leaves=37
num_cat=0
split_feature=55 41 25 56 56 41 41 41 25 56 56 25 41 25 41 25 41 25 25 27 27 27 27 41 26 27 27 27 27 25 41 56 27 25 27 26
split_gain=16.28 6.43567 4.80386 1.77181 1.7183 1.20359 1.15603 0.758611 0.547074 0.264962 0.262304 0.23892 0.214318 0.197075 0.181059 0.177765 0.163058 0.160992 0.160757 0.0935671 0.0925933 0.0758848 0.0744175 0.0723629 0.0719354 0.0554354 0.0516529 0.0476329 0.0461856 0.0449778 0.0441533 0.0419112 0.0415363 0.0379688 0.0353743 0.0331352
threshold=1.0000000180025095e-35 0.0078750003594905155 0.0083750002086162584 0.0029999999096617107 0.0029999999096617107 0.0093749999068677443 0.0066250001545995483 0.0066250001545995483 0.010375000070780517 0.0050000001210719356 0.0050000001210719356 0.010500000324100258 0.0086250002495944517 0.0057500002440065154 0.0096250004135072249 0.0093749999068677443 0.0076250000856816777 0.0073750000447034844 0.0073750000447034844 0.066812500357627883 0.066000003367662444 0.067187502980232253 0.0652500055730343 0.0058750002644956121 0.12200000509619714 0.065875004976987853 0.067812502384185805 0.068812504410743727 0.065749999135732665 0.011875000316649677 0.0048750001005828389 0.0069999997504055509 0.068250004202127471 0.0061250000726431617 0.0691874995827675 0.1238750033080578
decision_type=2 2 2 2 2 2 2 2 2 2 2 2 2 2 2 2 2 2 2 2 2 2 2 2 2 2 2 2 2 2 2 2 2 2 2 2
left_child=1 6 3 7 8 12 13 23 15 14 18 21 20 30 35 25 28 22 33 -14 -3 -7 -8 -2 -19 -4 -18 -13 -9 34 -1 -11 -17 -5 -10 -6
right_child=2 5 4 10 9 11 17 16 29 31 -12 27 19 -15 -16 32 26 24 -20 -21 -22 -23 -24 -25 -26 -27 -28 -29 -30 -31 -32 -33 -34 -35 -36 -37
leaf_value=-0.0021831374395428382 -0.00082297544236565093 -0.00051766806673305137 0.00067629161125705179 0.00025694747104171653 0.0016465590866214016 0.00019216728641761386 -0.0011234607902565362 -5.0715375696856056e-05 0.0017663644471267465 0.0031046666503040622 0.0022670786707008695 0.00082949520498399156 -0.00018112174551783661 -0.0013384279505025208 0.0026633174276226076 0.0011953958194274349 0.00036928623444900185 -0.00088881027936510806 0.0014185054861865739 0.00016059428237155747 -0.00022216863307454888 0.00055038558763049247 -0.00084541180415806405 -0.00036660858623270798 -0.00055628301846668508 0.00098926279545576796 0.0006884625556363125 0.0013526025849807384 0.0002221146732139019 0.0028431408400461352 -0.0017153479134757435 0.0043414391799149925 0.0015612703874408941 0.00085798858292799511 0.0023149523885583425 0.002067100417883595
leaf_weight=1465 2981 10250 4882 734 1846 6312 9234 6144 2198 1350 1239 2602 8749 15370 2892 4884 9071 5238 4133 9290 14285 7043 13324 5698 12271 9366 4172 1600 8074 365 6180 202 2824 3118 1033 2868
leaf_count=1465 2981 10250 4882 734 1846 6312 9234 6144 2198 1350 1239 2602 8749 15370 2892 4884 9071 5238 4133 9290 14285 7043 13324 5698 12271 9366 4172 1600 8074 365 6180 202 2824 3118 1033 2868
internal_value=-4.10984e-08 -0.000541112 0.000832514 0.000324324 0.00149659 1.40826e-05 -0.00107031 8.74773e-05 0.00118039 0.00237806 0.00125192 0.000536545 -0.000201401 -0.00149397 0.00219364 0.00103963 0.000280657 -0.00082684 0.00109349 -5.14256e-06 -0.000345675 0.000381174 -0.000959385 -0.000523624 -0.000655918 0.000882216 0.000469992 0.00102963 0.000104233 0.00203796 -0.00180594 0.00327496 0.00133008 0.000743794 0.00194405 0.00190375
internal_weight=203287 123213 80074 45364 34710 60131 63082 36140 25552 9158 9224 17557 42574 23015 7606 21956 27461 40067 7985 18039 24535 13355 22558 8679 17509 14248 13243 4202 14218 3596 7645 1552 7708 3852 3231 4714
internal_count=203287 123213 80074 45364 34710 60131 63082 36140 25552 9158 9224 17557 42574 23015 7606 21956 27461 40067 7985 18039 24535 13355 22558 8679 17509 14248 13243 4202 14218 3596 7645 1552 7708 3852 3231 4714
is_linear=0
shrinkage=0.0750012


Tree=8
num_leaves=37
num_cat=0
split_feature=56 56 27 27 56 27 44 27 44 44 27 44 27 27 44 27 44 27 44 44 27 44 27 44 44 27 44 27 44 44 44 27 44 44 27 27
split_gain=13.8256 3.51634 1.28911 0.733776 0.493666 0.323703 0.578559 0.251691 0.540034 0.234428 0.21054 0.392747 0.205976 0.193053 0.182635 0.303671 0.17262 0.17994 0.166608 0.152578 0.23243 0.175508 0.144986 0.265472 0.140013 0.13604 0.127538 0.217382 0.125664 0.114479 0.11409 0.158372 0.111097 0.104118 0.105311 0.100031
threshold=1.0000000180025095e-35 0.0029999999096617107 0.066374998539686217 0.066874999552965178 0.0050000001210719356 0.068687498569488539 0.12550000101327899 0.064250003546476378 0.12225000187754632 0.12912500649690631 0.06749999895691873 0.12812500447034839 0.067062504589557662 0.069874998182058348 0.12450000271201135 0.0652500055730343 0.12062500417232515 0.063374999910593047 0.13062500208616259 0.12562500685453418 0.068749997764825835 0.12900000065565112 0.064437501132488265 0.12225000187754632 0.12775000184774402 0.065187498927116408 0.12550000101327899 0.065749999135732665 0.1266250088810921 0.13137500733137134 0.11800000444054605 0.062125002965331085 0.12112500518560411 0.12037500366568567 0.063687503337860121 0.067750003188848509
decision_type=2 2 2 2 2 2 2 2 2 2 2 2 2 2 2 2 2 2 2 2 2 2 2 2 2 2 2 2 2 2 2 2 2 2 2 2
left_child=2 3 7 22 12 6 -4 16 25 -7 28 -12 -3 18 15 -10 17 30 -11 -5 24 -22 33 -24 35 32 27 -25 -8 -15 31 -1 -9 34 -2 -21
right_child=1 4 5 19 -6 9 10 8 14 13 11 -13 -14 29 -16 -17 -18 -19 -20 20 21 -23 23 26 -26 -27 -28 -29 -30 -31 -32 -33 -34 -35 -36 -37
leaf_value=-0.0010499846399560859 4.5485064037646377e-05 0.0012568587865660192 0.00012375930830036745 0.0013109027914066337 0.0026056933114303052 0.00058200797737987804 -0.000550691386696132 -7.3166345185180404e-05 -0.0010976881185321041 -6.5260852298375832e-05 -3.1468412504625887e-05 -0.00074990306850764097 0.0018037207810468932 0.00060303362578724169 -0.0011571242673264093 -0.00041809316937110305 -0.0013359387946052601 -0.00050888091080473097 -0.00071872186145247778 0.00049796637166098245 0.0016402398118763176 0.00082930140813303698 0.0008212542909337415 -6.9688438158517092e-05 0.00020064099394560603 0.00022033218237628999 -0.00025196529406398241 0.0005861732580984938 -0.0010421145462849704 -3.6865364166983305e-05 -0.0012674175670636374 -0.00044708708178708734 -0.00062180552282580643 -0.00034296225636570133 0.00063152354227945077 0.0011010304043684936
leaf_weight=6768 8010 8310 9143 2702 2744 2942 5671 4069 6093 4272 8510 8609 7346 1844 6580 9423 4586 6830 4512 4428 1724 11735 5575 4797 5498 3228 2705 6972 6082 10571 4983 3854 4238 2819 2195 2385
leaf_count=6768 8010 8310 9143 2702 2744 2942 5671 4069 6093 4272 8510 8609 7346 1844 6580 9423 4586 6830 4512 4428 1724 11735 5575 4797 5498 3228 2705 6972 6082 10571 4983 3854 4238 2819 2195 2385
internal_value=-1.33247e-07 0.000767463 -0.000499827 0.000495434 0.00167709 -0.000259766 -0.000396152 -0.000745812 -0.000608732 -4.49729e-05 -0.000560789 -0.000392842 0.0015138 -0.000132066 -0.000825859 -0.00068515 -0.000916324 -0.000830356 -0.00040107 0.00077453 0.000718122 0.000933572 0.000255108 0.000381659 0.000482385 -0.000192689 0.000212182 0.000318905 -0.000805228 5.83207e-05 -0.000970915 -0.000831451 -0.000353209 6.02479e-05 0.000171708 0.000709531
internal_weight=202753 79945 122808 61545 18400 62156 38015 60652 33631 24141 28872 17119 15656 21199 22096 15516 27021 22435 8784 28472 25770 13459 33073 20049 12311 11535 14474 11769 11753 12415 15605 10622 8307 13024 10205 6813
internal_count=202753 79945 122808 61545 18400 62156 38015 60652 33631 24141 28872 17119 15656 21199 22096 15516 27021 22435 8784 28472 25770 13459 33073 20049 12311 11535 14474 11769 11753 12415 15605 10622 8307 13024 10205 6813
is_linear=0
shrinkage=0.0750012


Tree=9
num_leaves=37
num_cat=0
split_feature=5 5 5 5 5 5 5 5 5 5 5 55 55 55 55 5 55 41 41 58 58 58 41 41 41 58 41 41 41 41 41 41 41 41 41 41
split_gain=104.983 22.7431 17.5581 3.91603 3.50128 3.22431 2.513 0.795623 0.571946 0.465871 0.12961 0.051946 0.0462546 0.0406989 0.0308098 0.0231049 0.0197291 0.0175467 0.015658 0.014354 0.0121207 0.00978482 0.00970345 0.00719905 0.00592748 0.00577404 0.00536148 0.0026979 0.00267969 0.00244022 0.00206098 0.00185045 0.00176579 0.00172874 0.00165197 0.000912735
threshold=4.5000000000000009 2.5000000000000004 6.5000000000000009 3.5000000000000004 8.5000000000000018 1.5000000000000002 5.5000000000000009 7.5000000000000009 1.0000000180025095e-35 10.500000000000002 9.5000000000000018 1.0000000180025095e-35 1.0000000180025095e-35 1.0000000180025095e-35 1.0000000180025095e-35 12.500000000000002 1.0000000180025095e-35 0.0078750003594905155 0.0078750003594905155 0.0049746807198971519 0.0049746807198971519 0.0049746807198971519 0.0078750003594905155 0.0083750002086162584 0.0083750002086162584 0.0049746807198971519 0.0076250000856816777 0.0086250002495944517 0.0093749999068677443 0.0066250001545995483 0.0066250001545995483 0.0083750002086162584 0.0093749999068677443 0.0066250001545995483 0.0093749999068677443 0.0083750002086162584
decision_type=2 2 2 2 2 2 2 2 2 2 2 2 2 2 2 2 2 2 2 2 2 2 2 2 2 2 2 2 2 2 2 2 2 2 2 2
left_child=1 5 6 13 7 8 12 -4 -1 10 -6 18 22 17 27 -11 -7 29 30 24 23 31 -2 33 -14 26 -15 -8 -20 -3 -5 -16 -19 -13 -24 -21
right_child=2 3 4 11 9 16 14 -9 -10 15 -12 20 19 25 21 -17 -18 32 28 35 -22 -23 34 -25 -26 -27 -28 -29 -30 -31 -32 -33 -34 -35 -36 -37
leaf_value=-0.0042158572887030163 0.0012143648916244695 -0.0008998859045986795 0.0031635060403891538 0.00018269715479388033 0.0052700522524995654 -0.0020736574484501221 0.0022638027416492772 0.0042212923177120274 -0.0031632297409629802 0.0075715532490359611 0.0063234429529016268 3.3368205407544004e-05 0.0010513216332160139 -0.0010848423941946022 0.002128690240024407 0.010047938476951254 -0.0022273842023504292 -0.0010501974985688395 3.3493956805358955e-05 0.00087165560720753321 -0.00023623756539822995 0.0019038822271325976 0.001116525928094775 -0.00014278797958354442 0.00093799713872791011 -0.0013006102911229224 -0.0011953748310891126 0.0021466579727560434 -4.5697375735269883e-05 -0.00097090177196251283 0.00011307008539308792 0.0020170006946071601 -0.0011284761211362037 -4.7844550470659125e-05 0.0010372193958851439 0.0007835916488140674
leaf_weight=3655 6528 5212 12067 3499 2668 22626 5276 6065 14946 540 1047 1924 6439 5338 3961 59 7002 9076 8601 2096 3129 3478 6693 5024 5162 1744 6060 4207 3332 9256 7666 4147 3021 6277 3129 1803
leaf_count=3655 6528 5212 12067 3499 2668 22626 5276 6065 14946 540 1047 1924 6439 5338 3961 59 7002 9076 8601 2096 3129 3478 6693 5024 5162 1744 6060 4207 3332 9256 7666 4147 3021 6277 3129 1803
internal_value=-1.19381e-07 -0.00131281 0.00221865 -0.000530534 0.00397629 -0.00259663 0.00147291 0.00351807 -0.00337081 0.00589788 0.00557255 -1.29728e-06 0.00105236 -0.00105633 0.00210839 0.00787189 -0.00211024 -0.00100238 7.11147e-05 0.000958743 -0.000103564 0.00202243 0.00114088 -7.21196e-05 0.00100119 -0.00116508 -0.00114396 0.00221264 1.13749e-05 -0.000945541 0.00013494 0.00207245 -0.00107006 -2.87855e-05 0.00109164 0.000831665
internal_weight=202753 127388 75365 79159 22446 48229 52919 18132 18601 4314 3715 39452 31850 39707 21069 599 29628 26565 23098 15500 16354 11586 16350 13225 11601 13142 11398 9483 11933 14468 11165 8108 12097 8201 9822 3899
internal_count=202753 127388 75365 79159 22446 48229 52919 18132 18601 4314 3715 39452 31850 39707 21069 599 29628 26565 23098 15500 16354 11586 16350 13225 11601 13142 11398 9483 11933 14468 11165 8108 12097 8201 9822 3899
is_linear=0
shrinkage=0.0750012


Tree=10
num_leaves=37
num_cat=0
split_feature=5 5 5 5 5 5 5 5 5 5 5 55 55 55 55 55 41 41 56 56 56 41 41 41 41 56 41 5 41 41 56 41 41 41 41 41
split_gain=90.0873 19.5499 14.8839 3.35977 2.93609 2.77911 2.15776 0.683546 0.496355 0.372432 0.0979942 0.044318 0.0388405 0.034733 0.026352 0.0167326 0.0148719 0.0134302 0.0117622 0.0107821 0.00881493 0.00817345 0.00609481 0.00505766 0.00501396 0.00375336 0.00251783 0.00247633 0.00233433 0.00210934 0.00187386 0.00174043 0.00166567 0.00156619 0.00150591 0.00139135
threshold=4.5000000000000009 2.5000000000000004 6.5000000000000009 3.5000000000000004 8.5000000000000018 1.5000000000000002 5.5000000000000009 7.5000000000000009 1.0000000180025095e-35 9.5000000000000018 10.500000000000002 1.0000000180025095e-35 1.0000000180025095e-35 1.0000000180025095e-35 1.0000000180025095e-35 1.0000000180025095e-35 0.0078750003594905155 0.0078750003594905155 0.0029999999096617107 0.0029999999096617107 0.0029999999096617107 0.0078750003594905155 0.0083750002086162584 0.0083750002086162584 0.0083750002086162584 0.0029999999096617107 0.0078750003594905155 11.500000000000002 0.0086250002495944517 0.0066250001545995483 0.0050000001210719356 0.0066250001545995483 0.0083750002086162584 0.0086250002495944517 0.0066250001545995483 0.0093749999068677443
decision_type=2 2 2 2 2 2 2 2 2 2 2 2 2 2 2 2 2 2 2 2 2 2 2 2 2 2 2 2 2 2 2 2 2 2 2 2
left_child=1 5 6 13 7 8 12 -4 -1 -6 -11 17 21 16 26 -7 29 31 24 22 32 -2 34 25 -14 -15 -8 -12 -19 -3 -20 -5 -16 -18 -13 -23
right_child=2 3 4 11 9 15 14 -9 -10 10 27 19 18 23 20 -17 33 28 30 -21 -22 35 -24 -25 -26 -27 -28 -29 -30 -31 -32 -33 -34 -35 -36 -37
leaf_value=-0.0038993203891588661 0.0011227384723399966 -0.00083272700577541835 0.0029267974890933215 0.00016881465218256469 0.0048760644143146636 -0.0019184182692271606 0.0021236998039566211 0.0039052929233114797 -0.0029255941976039459 0.0058546878260935763 0.0068125405279874313 3.073579391602321e-05 0.00097217083747838543 -0.0010231405736723228 0.0019704115299637621 -0.0020598698408321554 -0.00095459318112175626 4.9173708186570792e-05 0.00079209773035086601 -0.00022016361774039277 0.001760176115647337 0.001033098481255004 -0.00013161763404916432 -0.0011511236151988736 0.00086787870728809256 -0.0011769463349040039 0.0020071567465629421 0.0080907963113350974 -1.7774164408775032e-05 -0.00089869114737071119 0.00061945824141604528 0.00010467363273089299 0.0018665712497736796 -0.0010184177292449294 -4.4408429387000862e-05 0.0009604443997530878
leaf_weight=3718 6514 5210 12163 3480 2634 22706 3138 6077 14963 1041 418 1959 6430 7913 4015 7020 5469 5057 3313 3155 3533 6665 4978 4096 5166 1210 6433 161 6955 9268 481 7639 4188 6619 6373 3175
leaf_count=3718 6514 5210 12163 3480 2634 22706 3138 6077 14963 1041 418 1959 6430 7913 4015 7020 5469 5057 3313 3155 3533 6665 4978 4096 5166 1210 6433 161 6955 9268 481 7639 4188 6619 6373 3175
internal_value=-1.29664e-06 -0.00121511 0.00205188 -0.000490644 0.00366851 -0.00240301 0.00136623 0.00325348 -0.00312008 0.00544395 0.00635489 -1.53268e-06 0.000974166 -0.00097739 0.00195008 -0.00195206 -0.000927455 6.54083e-05 0.000887907 -9.55693e-05 0.00187117 0.00105513 -6.59858e-05 -0.00107747 0.000925982 -0.00104398 0.00204612 0.00721402 1.04167e-05 -0.000875159 0.000770796 0.000124795 0.00191821 -0.000989823 -2.67353e-05 0.00101
internal_weight=203333 127788 75545 79381 22494 48407 53051 18240 18681 4254 1620 39596 31744 39785 21307 29726 26566 23131 15390 16465 11736 16354 13310 13219 11596 9123 9571 579 12012 14478 3794 11119 8203 12088 8332 9840
internal_count=203333 127788 75545 79381 22494 48407 53051 18240 18681 4254 1620 39596 31744 39785 21307 29726 26566 23131 15390 16465 11736 16354 13310 13219 11596 9123 9571 579 12012 14478 3794 11119 8203 12088 8332 9840
is_linear=0
shrinkage=0.0750012


Tree=11
num_leaves=37
num_cat=0
split_feature=38 38 38 38 38 38 38 38 38 38 38 56 56 56 56 56 41 41 56 56 56 41 41 38 41 25 25 56 41 41 41 25 56 56 25 25
split_gain=77.0912 16.728 12.7385 2.87498 2.51583 2.37813 1.84651 0.584993 0.424897 0.320043 0.0846924 0.037924 0.03323 0.0297311 0.0225438 0.0143301 0.0127276 0.0114923 0.0100559 0.0092274 0.00754098 0.0070437 0.00532131 0.00473008 0.00447869 0.00428959 0.00236675 0.0022492 0.00208136 0.00186673 0.0018037 0.00170104 0.00159675 0.00156172 0.00148953 0.00148569
threshold=0.0011250000097788873 0.00062500001513399195 0.0016250000335276129 0.00087500002700835477 0.0021249999990686779 0.00037500001781154429 0.0013750000507570805 0.0018750000745058062 1.0000000180025095e-35 0.0023750000400468711 0.0026250000810250644 1.0000000180025095e-35 1.0000000180025095e-35 1.0000000180025095e-35 1.0000000180025095e-35 1.0000000180025095e-35 0.0078750003594905155 0.0078750003594905155 0.0029999999096617107 0.0029999999096617107 0.0029999999096617107 0.0086250002495944517 0.0076250000856816777 0.0031250000465661292 0.0076250000856816777 0.0083750002086162584 0.0086250002495944517 0.0029999999096617107 0.0093749999068677443 0.0073750000447034844 0.0066250001545995483 0.0093749999068677443 0.0050000001210719356 0.0029999999096617107 0.0066250001545995483 0.0093749999068677443
decision_type=2 2 2 2 2 2 2 2 2 2 2 2 2 2 2 2 2 2 2 2 2 2 2 2 2 2 2 2 2 2 2 2 2 2 2 2
left_child=1 5 6 13 7 8 12 -4 -1 -6 -11 17 21 16 26 -7 30 34 25 22 35 29 -13 -12 27 -14 -8 -15 -19 -2 -3 -24 -20 -26 -5 -16
right_child=2 3 4 11 9 15 14 -9 -10 10 23 19 18 24 20 -17 -18 28 32 -21 -22 -23 31 -25 33 -27 -28 -29 -30 -31 -32 -33 -34 -35 -36 -37
leaf_value=-0.0036071328612002976 0.0010594512579853348 -0.00077031181295656728 0.0027073474264362124 0.00015616443624955179 0.0045108343573474216 -0.0017745570325848005 0.0019389253996312265 0.0036125581194454974 -0.0027062222362600765 0.0054170368508351481 0.0064734731512426577 -2.3845490221935135e-06 0.0008992961721645843 -0.00092725305255822107 0.0018011191806279389 -0.0019054534116904834 -0.00091562837291307958 2.9210250809333012e-05 0.00073275156251283082 -0.00020366921073469818 0.0016282902594927972 0.00090994758644889653 -7.9799298736630607e-05 0.008487783189192603 -0.0010239736599408598 0.00080283043397351894 0.0018347319678571501 -0.0010738042466655708 -4.0127140469418626e-05 0.00098405302179581573 -0.00083131387820866917 -0.00016037181586544771 0.00057333061292330861 -0.0011513673035936163 9.6826547900870626e-05 0.0016880738716039722
leaf_weight=3718 4226 5210 12163 3480 2634 22706 5269 6077 14963 1041 534 5262 6430 5435 6216 7020 12088 8622 3313 3155 3533 6159 6099 45 6057 5166 4302 845 3390 5969 9268 1949 481 882 7639 1987
leaf_count=3718 4226 5210 12163 3480 2634 22706 5269 6077 14963 1041 534 5262 6430 5435 6216 7020 12088 8622 3313 3155 3533 6159 6099 45 6057 5166 4302 845 3390 5969 9268 1949 481 882 7639 1987
internal_value=-1.1602e-06 -0.00112401 0.00189816 -0.000453869 0.00339374 -0.00222284 0.00126384 0.00300956 -0.00288616 0.00503721 0.00588159 -1.41826e-06 0.000901154 -0.00090413 0.00180394 -0.00180569 -0.000857932 6.05058e-05 0.000821368 -8.84072e-05 0.00173095 0.000976047 -6.10396e-05 0.00667962 -0.000996726 0.000856574 0.00189277 -0.000947554 9.63607e-06 0.00101566 -0.000809552 -9.93724e-05 0.000713082 -0.00104073 0.000115441 0.00177446
internal_weight=203333 127788 75545 79381 22494 48407 53051 18240 18681 4254 1620 39596 31744 39785 21307 29726 26566 23131 15390 16465 11736 16354 13310 579 13219 11596 9571 6280 12012 10195 14478 8048 3794 6939 11119 8203
internal_count=203333 127788 75545 79381 22494 48407 53051 18240 18681 4254 1620 39596 31744 39785 21307 29726 26566 23131 15390 16465 11736 16354 13310 579 13219 11596 9571 6280 12012 10195 14478 8048 3794 6939 11119 8203
is_linear=0
shrinkage=0.0750012


Tree=12
num_leaves=37
num_cat=0
split_feature=5 5 5 5 5 5 5 5 5 5 5 56 56 56 5 56 56 25 41 56 56 56 41 41 25 25 56 41 25 41 41 41 25 56 25 56
split_gain=65.9533 14.2667 10.9842 2.45767 2.20964 2.02933 1.58128 0.499976 0.363855 0.285446 0.0847032 0.0324454 0.0286779 0.025479 0.0192242 0.0191278 0.0121699 0.0110213 0.00979884 0.00888696 0.00789187 0.00632639 0.0061915 0.00456061 0.00394651 0.00380032 0.00275731 0.00213388 0.00195594 0.00182305 0.00150233 0.00144901 0.00137638 0.00134095 0.00132472 0.00126201
threshold=4.5000000000000009 2.5000000000000004 6.5000000000000009 3.5000000000000004 8.5000000000000018 1.5000000000000002 5.5000000000000009 7.5000000000000009 1.0000000180025095e-35 9.5000000000000018 10.500000000000002 1.0000000180025095e-35 1.0000000180025095e-35 1.0000000180025095e-35 12.500000000000002 1.0000000180025095e-35 1.0000000180025095e-35 0.0076250000856816777 0.0078750003594905155 0.0029999999096617107 0.0029999999096617107 0.0029999999096617107 0.0078750003594905155 0.0076250000856816777 0.0083750002086162584 0.0076250000856816777 0.0029999999096617107 0.0086250002495944517 0.0078750003594905155 0.0088749998249113577 0.0083750002086162584 0.0093749999068677443 0.0093749999068677443 0.0050000001210719356 0.0073750000447034844 0.0050000001210719356
decision_type=2 2 2 2 2 2 2 2 2 2 2 2 2 2 2 2 2 2 2 2 2 2 2 2 2 2 2 2 2 2 2 2 2 2 2 2
left_child=1 5 6 13 7 8 12 -4 -1 -6 -11 18 22 17 -12 28 -7 -3 34 25 23 30 -2 -13 26 -14 -15 -19 -8 -20 -17 -25 -27 -21 -5 -22
right_child=2 3 4 11 9 16 15 -9 -10 10 14 20 19 24 -16 21 -18 27 29 33 35 -23 -24 31 -26 32 -28 -29 -30 -31 -32 -33 -34 -35 -36 -37
leaf_value=-0.0033380273302274204 0.0009617419362372686 -0.00074086176727059222 0.0025030321552736443 0.00012413052252703628 0.0041743408648814975 -0.0016412054533724945 0.0018190103670602123 0.0033429010158803345 -0.0025031984577081686 0.0050151619483359364 0.0059987614523255373 -2.2331970497910168e-06 0.0008565909421550293 -0.00087480601566661059 0.0081330737747763327 0.0016878110581936127 -0.0017624531138676338 -0.00080905970885086559 3.6322101661125009e-05 0.00067664844408960761 -0.00017220999491131465 0.0015067286428274219 0.00086382527260179772 -7.4007065889953851e-05 -0.00098663958197027762 0.00078306737397395394 -0.0010075077856265893 -0.00087311539305278633 0.0017172451373429552 -2.2293388025386061e-05 0.0015951572190747063 -0.00014888693741767415 0.00070480472442403872 0.00053151495300131531 6.8204891903867005e-05 -0.00033776154623806726
leaf_weight=3709 6539 12434 12150 7629 2677 22624 3087 6015 14903 1088 515 5278 3843 7981 56 4051 6942 7490 6363 3353 2928 3498 9823 6028 4090 5529 1189 6637 6437 5616 4233 1921 2231 489 3487 286
leaf_count=3709 6539 12434 12150 7629 2677 22624 3087 6015 14903 1088 515 5278 3843 7981 56 4051 6942 7490 6363 3353 2928 3498 9823 6028 4090 5529 1189 6637 6437 5616 4233 1921 2231 489 3487 286
internal_value=2.12029e-06 -0.00103843 0.00175714 -0.000420309 0.00314589 -0.00205647 0.00116863 0.00278172 -0.00267015 0.00466806 0.00545436 -1.41218e-06 0.000833544 -0.000836171 0.0062559 0.00166866 -0.00166988 -0.000793353 5.59109e-05 0.000759616 -8.19298e-05 0.0016017 0.000903153 -5.62863e-05 -0.000921709 0.000792834 -0.000892387 -0.000839361 0.00175088 8.84346e-06 0.00164115 -9.216e-05 0.000760892 0.000658672 0.000106614 -0.00018729
internal_weight=203149 127535 75614 79357 22501 48178 53113 18165 18612 4336 1659 39536 31807 39821 571 21306 29566 26561 23095 15445 16441 11782 16362 13227 13260 11603 9170 14127 9524 11979 8284 7949 7760 3842 11116 3214
internal_count=203149 127535 75614 79357 22501 48178 53113 18165 18612 4336 1659 39536 31807 39821 571 21306 29566 26561 23095 15445 16441 11782 16362 13227 13260 11603 9170 14127 9524 11979 8284 7949 7760 3842 11116 3214
is_linear=0
shrinkage=0.0750012


Tree=13
num_leaves=37
num_cat=0
split_feature=38 5 38 38 5 38 38 5 5 5 38 55 55 55 38 55 55 41 41 56 56 41 56 41 56 41 41 41 41 41 41 41 56 41 41 56
split_gain=56.4389 12.2074 9.40114 2.10301 1.89348 1.73653 1.35318 0.427892 0.311478 0.245347 0.0732562 0.0277671 0.0245258 0.0218126 0.0176325 0.0163637 0.0104228 0.00959875 0.00838489 0.00760012 0.00675657 0.00557455 0.00541184 0.00401038 0.00353116 0.00325225 0.00316084 0.00239494 0.00181603 0.00162537 0.00144552 0.00130791 0.00130226 0.00120308 0.00117577 0.00114261
threshold=0.0011250000097788873 2.5000000000000004 0.0016250000335276129 0.00087500002700835477 8.5000000000000018 0.00037500001781154429 0.0013750000507570805 7.5000000000000009 1.0000000180025095e-35 9.5000000000000018 0.0026250000810250644 1.0000000180025095e-35 1.0000000180025095e-35 1.0000000180025095e-35 0.0031250000465661292 1.0000000180025095e-35 1.0000000180025095e-35 0.0073750000447034844 0.0078750003594905155 0.0029999999096617107 0.0029999999096617107 0.0086250002495944517 0.0029999999096617107 0.0083750002086162584 0.0029999999096617107 0.0076250000856816777 0.0076250000856816777 0.0086250002495944517 0.0086250002495944517 0.0093749999068677443 0.0073750000447034844 0.0093749999068677443 0.0050000001210719356 0.0066250001545995483 0.0093749999068677443 0.0050000001210719356
decision_type=2 2 2 2 2 2 2 2 2 2 2 2 2 2 2 2 2 2 2 2 2 2 2 2 2 2 2 2 2 2 2 2 2 2 2 2
left_child=1 5 6 13 7 8 12 -4 -1 -6 -11 18 21 17 -12 28 -7 -3 33 25 23 30 31 -13 26 -14 -15 -19 -8 -20 -2 -17 -24 -5 -27 -21
right_child=2 3 4 11 9 16 15 -9 -10 10 14 20 19 24 -16 22 -18 27 29 35 -22 -23 32 -25 -26 34 -28 -29 -30 -31 -32 -33 -34 -35 -36 -37
leaf_value=-0.0030879059623096271 0.00090836024045222582 -0.00067692276489245877 0.0023153553634473233 0.00013531047345775177 0.0038616655348664018 -0.0015181320710033147 0.0016598725669542277 0.0030923240609372119 -0.0023154991980246231 0.0046402137050167219 0.0055518559736355277 -2.0187671124510523e-05 0.00079240353656496391 -0.00079229570585171295 0.0075586482536269244 0.001542041768048556 -0.0016303330090111593 -0.00074457302820659862 2.5453190479730789e-05 0.00062595142710581352 -0.00017328406917350108 0.00077663125187355528 0.0014211031538636661 -0.00010556875980392137 -0.00095857408568293711 0.00072437318665947135 -0.00087607701741691118 -0.00080766488590091853 0.0015694219340014392 -3.5979765703137162e-05 0.00084264141697203403 0.0014420159721169486 0.0012524811738303233 8.1938960902074503e-05 0.00065202556355051732 0.00049193136181298835
leaf_weight=3709 4282 10467 12150 3467 2677 22624 5228 6015 14903 1088 515 8291 3843 5481 56 6256 6942 9457 8612 3353 3214 6136 2906 4936 1724 5529 6055 6637 4296 3367 5944 2028 592 7649 2231 489
leaf_count=3709 4282 10467 12150 3467 2677 22624 5228 6015 14903 1088 515 8291 3843 5481 56 6256 6942 9457 8612 3353 3214 6136 2906 4936 1724 5529 6055 6637 4296 3367 5944 2028 592 7649 2231 489
internal_value=1.99686e-06 -0.000960575 0.0016255 -0.000388804 0.00291028 -0.00190228 0.00108105 0.00257318 -0.00246997 0.00431934 0.00504827 -1.30975e-06 0.000771071 -0.000773492 0.0057931 0.00154361 -0.00154466 -0.000733874 5.17198e-05 0.000702704 -7.57966e-05 0.000835444 0.00148168 -5.20692e-05 -0.000852636 0.000733423 -0.000836521 -0.00077076 0.00161966 8.18049e-06 0.000870459 0.00151817 0.00139383 9.86222e-05 0.000703874 0.000609353
internal_weight=203149 127535 75614 79357 22501 48178 53113 18165 18612 4336 1659 39536 31807 39821 571 21306 29566 26561 23095 15445 16441 16362 11782 13227 13260 11603 11536 16094 9524 11979 10226 8284 3498 11116 7760 3842
internal_count=203149 127535 75614 79357 22501 48178 53113 18165 18612 4336 1659 39536 31807 39821 571 21306 29566 26561 23095 15445 16441 16362 11782 13227 13260 11603 11536 16094 9524 11979 10226 8284 3498 11116 7760 3842
is_linear=0
shrinkage=0.0750012


Tree=14
num_leaves=37
num_cat=0
split_feature=38 38 38 38 38 38 38 38 38 38 38 55 55 38 55 25 55 25 25 58 41 55 58 41 58 25 25 25 41 25 58 41 55 25 41 25
split_gain=48.2714 10.4838 8.01236 1.80692 1.62447 1.49333 1.15577 0.364412 0.266876 0.22719 0.0600815 0.0238341 0.0211376 0.0200799 0.0189759 0.0172141 0.0139687 0.00817164 0.00726388 0.00644516 0.00633177 0.00594317 0.00569044 0.00466516 0.00442932 0.00357936 0.00320999 0.00282957 0.00210724 0.00201869 0.00197104 0.0016741 0.00161707 0.001465 0.00121503 0.00120166
threshold=0.0011250000097788873 0.00062500001513399195 0.0016250000335276129 0.00087500002700835477 0.0021249999990686779 0.00037500001781154429 0.0013750000507570805 0.0018750000745058062 1.0000000180025095e-35 0.0026250000810250644 0.0023750000400468711 1.0000000180025095e-35 1.0000000180025095e-35 0.0031250000465661292 1.0000000180025095e-35 0.0078750003594905155 1.0000000180025095e-35 0.0073750000447034844 0.0078750003594905155 0.0049746807198971519 0.0073750000447034844 1.0000000180025095e-35 0.0049746807198971519 0.0086250002495944517 0.0049746807198971519 0.0076250000856816777 0.0083750002086162584 0.0083750002086162584 0.0066250001545995483 0.0091250003315508383 0.0049746807198971519 0.0078750003594905155 1.0000000180025095e-35 0.0086250002495944517 0.0073750000447034844 0.0086250002495944517
decision_type=2 2 2 2 2 2 2 2 2 2 2 2 2 2 2 2 2 2 2 2 2 2 2 2 2 2 2 2 2 2 2 2 2 2 2 2
left_child=1 5 6 14 7 8 12 -4 -1 10 -6 18 23 -11 17 21 31 -3 -5 27 -10 28 25 34 35 -13 30 -14 -7 -19 -16 -8 -17 -20 -2 -18
right_child=2 3 4 11 9 15 16 -9 20 13 -12 22 19 -15 26 32 24 29 33 -21 -22 -23 -24 -25 -26 -27 -28 -29 -30 -31 -32 -33 -34 -35 -36 -37
leaf_value=-0.0028565511433915653 0.00084016563664519016 -0.00062623807336074531 0.0021430097744575376 9.15865388564079e-05 0.0035701921567577928 -0.0013138906086312162 0.0015590825086162522 0.0028598890107767341 -0.0020891910698659089 0.0051492706521918822 0.0042887996231436012 -2.8598828681708584e-07 0.00071280435573617558 0.0070975122923831032 -0.00074801087802322283 -0.0014823581884455899 0.0014396224767805415 -0.00069635925714766028 3.8424087300146912e-05 0.00056346327697177315 -0.0022073332204763665 -0.0014665687837701071 -0.00016042059729810875 0.00071894506547492086 0.0012908215640775841 -7.9798794750310603e-05 -0.00084721608198300884 0.00063442553187995933 -0.0013865662350028625 -0.00076278312013820695 -0.00085991567021205995 0.0014685491918015046 -0.0015737957147717073 -1.4560642939568707e-05 0.00077977082312279122 0.001357675145662205
leaf_weight=3720 4264 10492 12130 11193 2640 5924 3098 6024 8249 542 1044 5267 6401 59 7976 8549 4602 12113 5054 3815 6677 4312 3151 6053 3478 8052 4127 5133 8262 3936 1201 6484 2652 6993 5974 3608
leaf_count=3720 4264 10492 12130 11193 2640 5924 3098 6024 8249 542 1044 5267 6401 59 7976 8549 4602 12113 5054 3815 6677 4312 3151 6053 3478 8052 4127 5133 8262 3936 1201 6484 2652 6993 5974 3608
internal_value=-1.08734e-06 -0.000888242 0.00150477 -0.000358873 0.00269232 -0.00175927 0.00100099 0.00238139 -0.0022855 0.0040066 0.00377768 -8.17461e-07 0.000713452 0.00538014 -0.000715684 -0.00142865 0.00142854 -0.000678674 4.80953e-05 0.000649759 -0.00214254 -0.00138246 -6.98314e-05 0.000773312 0.00137085 -4.83637e-05 -0.000789321 0.000678124 -0.00135655 -0.000712811 -0.000762975 0.00149837 -0.00150449 7.67236e-06 0.0008052 0.0014042
internal_weight=203249 127900 75349 79555 22439 48345 52910 18154 18646 4285 3684 39710 31640 601 39845 29699 21270 26541 23240 15349 14926 18498 16470 16291 11688 13319 13304 11534 14186 16049 9177 9582 11201 12047 10238 8210
internal_count=203249 127900 75349 79555 22439 48345 52910 18154 18646 4285 3684 39710 31640 601 39845 29699 21270 26541 23240 15349 14926 18498 16470 16291 11688 13319 13304 11534 14186 16049 9177 9582 11201 12047 10238 8210
is_linear=0
shrinkage=0.0750012


Tree=15
num_leaves=37
num_cat=0
split_feature=38 38 38 38 38 38 38 38 38 38 38 55 38 55 55 41 55 41 41 56 41 56 55 41 56 41 41 41 41 55 41 41 41 41 56 56
split_gain=41.3083 8.97105 6.85762 1.54617 1.39206 1.27784 0.98906 0.311872 0.228435 0.195676 0.0515313 0.0203949 0.0181289 0.0180874 0.0162451 0.0149096 0.0119498 0.00709873 0.00632385 0.00554212 0.00553464 0.00489694 0.00442777 0.0039927 0.00392295 0.00337669 0.00317092 0.00283254 0.00250735 0.00214747 0.00209048 0.00158461 0.00131527 0.00121701 0.00119424 0.00119221
threshold=0.0011250000097788873 0.00062500001513399195 0.0016250000335276129 0.00087500002700835477 0.0021249999990686779 0.00037500001781154429 0.0013750000507570805 0.0018750000745058062 1.0000000180025095e-35 0.0026250000810250644 0.0023750000400468711 1.0000000180025095e-35 0.0031250000465661292 1.0000000180025095e-35 1.0000000180025095e-35 0.0076250000856816777 1.0000000180025095e-35 0.0078750003594905155 0.0073750000447034844 0.0029999999096617107 0.0076250000856816777 0.0029999999096617107 1.0000000180025095e-35 0.0086250002495944517 0.0029999999096617107 0.0086250002495944517 0.0083750002086162584 0.0076250000856816777 0.0076250000856816777 1.0000000180025095e-35 0.0086250002495944517 0.0093749999068677443 0.0066250001545995483 0.0086250002495944517 0.0029999999096617107 0.0029999999096617107
decision_type=2 2 2 2 2 2 2 2 2 2 2 2 2 2 2 2 2 2 2 2 2 2 2 2 2 2 2 2 2 2 2 2 2 2 2 2
left_child=1 5 6 14 7 8 13 25 -1 10 -6 18 -11 23 17 22 31 32 -5 28 -10 26 -7 -2 -18 -4 -13 34 -15 33 -20 -8 -3 -17 -16 -29
right_child=2 3 4 11 9 15 16 -9 20 12 -12 21 -14 19 27 29 24 -19 30 -21 -22 -23 -24 -25 -26 -27 -28 35 -30 -31 -32 -33 -34 -35 -36 -37
leaf_value=-0.0026425091291500309 0.00074485069664212129 -0.00055911613343370345 0.0020355945017020188 0.00010004851525384305 0.0033027746490110533 -0.0012475175922365162 0.0014082470185470459 0.0026455174168244747 -0.0019390682092886699 0.0047655239806157204 0.0039681993003562385 -1.6228450459900732e-05 0.0065947360000377913 0.00067971124643096401 -0.0006766052472933395 -0.0013288565538327362 0.0012995144696701677 -0.00067086312609550812 4.1816130934638072e-05 0.00052109995320099038 -0.002052148156653119 -0.00014858434864476421 -0.0013494713096779769 0.00066505427008005304 0.0011933385710443277 0.0019318430319535142 -9.1767552922507724e-05 -0.00075069682352655947 0.00060166135096221683 -0.0014494843322798686 -1.3469117168328816e-05 0.0013139464515343835 -0.00060988982191492128 -0.0014014368652297653 -0.00078373778382057285 -0.00085635858496099023
leaf_weight=3720 10238 5231 5836 7701 2640 12517 7280 6024 9331 542 1044 8305 59 3770 5443 5729 8193 12080 8546 3819 5595 3154 3831 6053 3495 6294 5011 6129 7760 3133 6993 2302 9230 4489 839 893
leaf_count=3720 10238 5231 5836 7701 2640 12517 7280 6024 9331 542 1044 8305 59 3770 5443 5729 8193 12080 8546 3819 5595 3154 3831 6053 3495 6294 5011 6129 7760 3133 6993 2302 9230 4489 839 893
internal_value=-9.83485e-07 -0.000821661 0.00139204 -0.000331972 0.00249068 -0.0016274 0.000925973 0.00220286 -0.00211418 0.00370732 0.0034949 -7.56903e-07 0.00498189 0.000659978 -0.000662036 -0.00132157 0.00132148 -0.000627793 4.44895e-05 0.000601059 -0.00198192 -6.45978e-05 -0.00127169 0.00071535 0.00126813 0.00198233 -4.46714e-05 -0.000730169 0.000627378 -0.00138229 1.69387e-05 0.00138608 -0.000591662 -0.00136121 -0.000691338 -0.00076455
internal_weight=203249 127900 75349 79555 22439 48345 52910 18154 18646 4285 3684 39710 601 31640 39845 29699 21270 26541 23240 15349 14926 16470 16348 16291 11688 12130 13316 13304 11530 13351 15539 9582 14461 10218 6282 7022
internal_count=203249 127900 75349 79555 22439 48345 52910 18154 18646 4285 3684 39710 601 31640 39845 29699 21270 26541 23240 15349 14926 16470 16348 16291 11688 12130 13316 13304 11530 13351 15539 9582 14461 10218 6282 7022
is_linear=0
shrinkage=0.0750012


Tree=16
num_leaves=37
num_cat=0
split_feature=5 5 5 5 5 5 5 5 5 5 5 5 25 25 25 25 25 25 25 59 59 59 59 25 59 59 59 59 25 59 59 25 25 25 25 59
split_gain=35.3426 7.65077 5.8735 1.32346 1.1833 1.07981 0.845888 0.269327 0.191687 0.161354 0.044496 0.0151974 0.0130176 0.00911153 0.00892426 0.00710236 0.00482078 0.00449874 0.00296517 0.00263309 0.00351601 0.0024861 0.00355154 0.00246642 0.00228724 0.00314365 0.00205912 0.00335955 0.00205067 0.00172756 0.00266802 0.00144509 0.00134919 0.00124373 0.00113442 0.00104272
threshold=4.5000000000000009 2.5000000000000004 6.5000000000000009 3.5000000000000004 8.5000000000000018 1.5000000000000002 5.5000000000000009 7.5000000000000009 1.0000000180025095e-35 10.500000000000002 9.5000000000000018 12.500000000000002 0.0073750000447034844 0.0078750003594905155 0.0078750003594905155 0.0083750002086162584 0.0073750000447034844 0.0083750002086162584 0.0083750002086162584 -1.0000000180025095e-35 1.0000000180025095e-35 1.0000000180025095e-35 -1.0000000180025095e-35 0.0086250002495944517 1.0000000180025095e-35 -1.0000000180025095e-35 -1.0000000180025095e-35 1.0000000180025095e-35 0.0093749999068677443 -1.0000000180025095e-35 1.0000000180025095e-35 0.0093749999068677443 0.0066250001545995483 0.0066250001545995483 0.0066250001545995483 1.0000000180025095e-35
decision_type=2 2 2 2 2 2 2 2 2 2 2 2 2 2 2 2 2 2 2 2 2 2 2 2 2 2 2 2 2 2 2 2 2 2 2 2
left_child=1 5 6 14 7 8 15 18 -1 10 -6 -11 -7 21 24 26 -10 -8 -4 -15 31 22 -5 -14 25 -3 -2 33 35 -17 -31 -21 -27 -28 -24 -16
right_child=2 3 4 13 9 12 17 -9 16 11 -12 -13 23 19 28 29 -18 -19 -20 20 -22 -23 34 -25 -26 32 27 -29 -30 30 -32 -33 -34 -35 -36 -37
leaf_value=-0.0024437346650028708 0.00058689615993269941 -0.00064304334299285356 0.001891336105382162 -2.3361323729146143e-05 0.0030565294460657669 -0.0011684957507871407 0.0012612564709330535 0.0024467090927920813 -0.0017864502441246901 0.0044005385866738135 0.0036698073453960275 0.0060652040125396796 -0.0012436363786913012 -9.382300451517457e-05 -0.00062678504646549403 0.0005138572956888284 -0.0018889165244683262 0.0011854811763999404 0.0017930002146410199 8.9226897299846424e-06 -9.1141207149251569e-05 -2.3999494025793213e-05 9.945903158995702e-05 -0.0013165965862258363 -0.00064423446844142469 -0.00052495232053536851 0.00073576449958100186 0.00058829418498652355 -0.00069819868911189691 0.0006044019433384852 0.00051598597945432087 -4.5069557460531524e-05 -0.00057327357903131683 0.00066331650345939153 5.1114626448430726e-05 -0.00069464798429918009
leaf_weight=3629 3390 2924 4890 3092 2652 14092 10211 6086 8278 513 1065 61 9696 3572 11766 2779 6657 11051 7294 9939 3419 3172 3975 5872 2886 5813 2015 3394 4473 8678 2716 3872 10234 8626 8766 1819
leaf_count=3629 3390 2924 4890 3092 2652 14092 10211 6086 8278 513 1065 61 9696 3572 11766 2779 6657 11051 7294 9939 3419 3172 3975 5872 2886 5813 2015 3394 4473 8678 2716 3872 10234 8626 8766 1819
internal_value=1.05249e-06 -0.000758061 0.00128881 -0.00030696 0.00230185 -0.00150373 0.00085631 0.00203786 -0.00195246 0.00342332 0.0032355 0.0046128 -0.00122267 -9.52568e-07 -0.000612112 0.000610086 -0.00183255 0.00122207 0.00183299 -3.52475e-05 -2.30876e-05 3.65847e-05 4.87248e-05 -0.00127144 -0.000579412 -0.000569435 0.000642599 0.000655905 -0.000651573 0.000569965 0.00058349 -6.22189e-06 -0.000555886 0.000677271 6.62203e-05 -0.000636047
internal_weight=203367 127946 75421 79722 22561 48224 52860 18270 18564 4291 3717 574 29660 39807 39915 31598 14935 21262 12184 20802 17230 19005 15833 15568 21857 18971 17425 14035 18058 14173 11394 13811 16047 10641 12741 13585
internal_count=203367 127946 75421 79722 22561 48224 52860 18270 18564 4291 3717 574 29660 39807 39915 31598 14935 21262 12184 20802 17230 19005 15833 15568 21857 18971 17425 14035 18058 14173 11394 13811 16047 10641 12741 13585
is_linear=0
shrinkage=0.0750012


Tree=17
num_leaves=37
num_cat=0
split_feature=55 25 25 56 56 25 25 25 25 25 25 25 25 56 25 27 25 25 25 25 56 56 27 25 25 27 27 25 27 25 27 25 27 25 26 27
split_gain=3.26599 1.39091 1.00479 0.321692 0.321429 0.297804 0.184161 0.16858 0.110529 0.0587289 0.0496302 0.0450783 0.0415471 0.0414507 0.0296124 0.0287614 0.0263111 0.0243452 0.0222482 0.0203048 0.0191399 0.0143139 0.0139343 0.0127468 0.0122204 0.0116309 0.0112169 0.00925865 0.00905025 0.00842159 0.00827444 0.00803936 0.00748747 0.0074482 0.00696736 0.0066874
threshold=1.0000000180025095e-35 0.0081250001676380652 0.0083750002086162584 0.0029999999096617107 0.0029999999096617107 0.0066250001545995483 0.0093749999068677443 0.0068750001955777415 0.0098749999888241308 0.0073750000447034844 0.0096250004135072249 0.010625000577419998 0.0053750001825392255 0.0050000001210719356 0.0073750000447034844 0.0678750015795231 0.0076250000856816777 0.011125000659376385 0.0058750002644956121 0.009000000078231098 0.0050000001210719356 0.0050000001210719356 0.064624998718500151 0.0086250002495944517 0.0061250000726431617 0.070187501609325423 0.065749999135732665 0.0088749998249113577 0.067062504589557662 0.0098749999888241308 0.0678750015795231 0.0066250001545995483 0.064937502145767226 0.0071250000037252912 0.12525000423192981 0.068875003606081023
decision_type=2 2 2 2 2 2 2 2 2 2 2 2 2 2 2 2 2 2 2 2 2 2 2 2 2 2 2 2 2 2 2 2 2 2 2 2
left_child=1 5 3 7 8 12 15 18 19 26 20 25 -1 14 31 23 32 30 -2 28 -6 -12 -11 -3 -14 29 -7 -17 -4 -8 -10 -5 -9 -15 -18 -21
right_child=2 6 4 13 10 9 11 16 17 22 21 -13 24 33 -16 27 34 -19 -20 35 -22 -23 -24 -25 -26 -27 -28 -29 -30 -31 -32 -33 -34 -35 -36 -37
leaf_value=-0.00089989623906700791 -0.00037231060702903234 -0.00015321677148110805 0.00030406551738791578 0.00019479975171143816 0.00085498570513682171 -0.0004955934127421238 0.00010859155090965775 -2.1287527163952036e-05 0.00064473128223241762 -0.00036559474388525137 0.0012008335526375799 0.00049456600524662398 -0.0006976288253073942 0.00066861721387899138 0.00061273236549314871 3.7907927834577135e-07 0.00016966535226672425 0.0011055532431790754 -0.00013455296976127304 0.00049000227575181831 0.0012329859426263474 0.001596860155386305 -0.00024069295440039005 -3.9750201127129461e-05 -0.00057608464483974707 0.00035996925882526761 -0.00038887240529375614 0.00014033928921012399 0.00044773762830888666 0.00023534129117121609 0.0008343105428259193 0.00041571082579648839 0.00010906077647494507 0.0010738669549523433 0.0002788359414458886 0.00063851714178144554
leaf_weight=3921 2984 10963 5162 1612 4723 10472 6598 3627 2883 6813 2868 3502 8657 406 4148 7508 6748 1233 8582 6675 922 676 19350 11323 10500 2021 12022 4113 4803 5345 2522 2211 7821 823 6463 2367
leaf_count=3921 2984 10963 5162 1612 4723 10472 6598 3627 2883 6813 2868 3502 8657 406 4148 7508 6748 1233 8582 6675 922 676 19350 11323 10500 2021 12022 4113 4803 5345 2522 2211 7821 823 6463 2367
internal_value=9.93505e-07 -0.000241687 0.000373232 0.000140825 0.000676256 -0.000455021 5.62141e-05 4.02216e-05 0.000539749 -0.000349735 0.00105688 0.000254044 -0.000676919 0.000536787 0.000473889 -4.57064e-05 0.000151024 0.000803286 -0.000195987 0.000447581 0.000917444 0.00127786 -0.000273262 -9.55822e-05 -0.000631126 0.000193616 -0.000438625 4.9942e-05 0.000373445 0.000165369 0.000733668 0.000322823 6.77694e-05 0.00094225 0.000223132 0.00052911
internal_weight=203367 123108 80259 45425 34834 71735 51373 36225 25645 48657 9189 17466 23078 9200 7971 33907 24659 6638 11566 19007 5645 3544 26163 22286 19157 13964 22494 11621 9965 11943 5405 3823 11448 1229 13211 9042
internal_count=203367 123108 80259 45425 34834 71735 51373 36225 25645 48657 9189 17466 23078 9200 7971 33907 24659 6638 11566 19007 5645 3544 26163 22286 19157 13964 22494 11621 9965 11943 5405 3823 11448 1229 13211 9042
is_linear=0
shrinkage=0.0750012


Tree=18
num_leaves=37
num_cat=0
split_feature=58 25 25 58 58 41 41 25 25 25 41 25 25 41 41 41 25 41 44 26 26 25 44 41 26 26 26 25 25 44 26 44 26 25 25 26
split_gain=2.80268 1.1665 0.876668 0.272429 0.260212 0.253828 0.160815 0.13053 0.0933079 0.0488122 0.0420095 0.0376916 0.0369489 0.0339296 0.0304245 0.0303202 0.0206092 0.0200435 0.0125096 0.0124797 0.0118715 0.0116428 0.0113513 0.0096377 0.00902309 0.00868718 0.00822936 0.00819498 0.00797521 0.00770304 0.00754081 0.00752759 0.00625498 0.00594591 0.00594564 0.0056196
threshold=1.0000000180025095e-35 0.0081250001676380652 0.0083750002086162584 0.0049746807198971519 0.0049746807198971519 0.0066250001545995483 0.0095000001601874846 0.0068750001955777415 0.010375000070780517 0.0073750000447034844 0.0096250004135072249 0.0071250000037252912 0.010500000324100258 0.0053750001825392255 0.0088749998249113577 0.0091250003315508383 0.0078750003594905155 0.0057500002440065154 0.12487500160932542 0.12750000506639483 0.12225000187754632 0.011375000234693291 0.12437500059604646 0.0061250000726431617 0.1345000043511391 0.12337500229477884 0.12737499922513965 0.010875000152736904 0.0055000002030283221 0.12550000101327899 0.1238750033080578 0.12637499719858172 0.13100000470876697 0.0073750000447034844 0.011375000234693291 0.12587500363588336
decision_type=2 2 2 2 2 2 2 2 2 2 2 2 2 2 2 2 2 2 2 2 2 2 2 2 2 2 2 2 2 2 2 2 2 2 2 2
left_child=1 5 3 7 8 13 14 17 15 22 30 28 25 -1 19 31 33 -2 -16 -3 -11 -12 -7 -15 27 -8 34 -10 -5 -17 -6 -4 -22 -9 -14 -18
right_child=2 6 4 11 10 9 12 16 24 20 21 -13 26 23 18 29 35 -19 -20 -21 32 -23 -24 -25 -26 -27 -28 -29 -30 -31 -32 -33 -34 -35 -36 -37
leaf_value=-0.0008299740326221935 -0.00035745440400776246 -0.00012798404747613905 0.00030855677994484469 -0.00010275558989495968 0.00072852978957688131 -0.00046327225566436786 9.6312304548666039e-05 2.9501769347619534e-05 0.00071351124973094296 -0.00033018166122858304 0.0011198017930924649 0.00060700423279787155 0.00031076980000646105 -0.00064581956965108049 -2.2261768160737743e-05 0.000476143353834088 0.00016968956891684109 -0.00012093295953046545 0.000121277906832842 -8.6127354562441348e-06 -0.00024157520560782783 0.0015469316687100737 -0.00035612353645597406 -0.00053738204349782338 0.0014881609011361758 0.00023508495035652735 0.00060144835814901433 0.00094830919335420454 0.00032529311459413512 0.00060513199523869264 0.0009124150236569994 0.0004341397813340696 -0.00012441446491514918 0.00012212027421307917 0.00056630192505190428 0.0002900429624818174
leaf_weight=3901 2601 15872 6670 264 2166 10526 4193 7214 1746 8242 3112 5801 2173 8578 6750 5711 5014 8945 6908 7144 14839 436 12011 10446 125 6453 1298 1766 3134 4988 3414 4569 3113 8489 679 3896
leaf_count=3901 2601 15872 6670 264 2166 10526 4193 7214 1746 8242 3112 5801 2173 8578 6750 5711 5014 8945 6908 7144 14839 436 12011 10446 125 6453 1298 1766 3134 4988 3414 4569 3113 8489 679 3896
internal_value=-1.88165e-06 -0.000226496 0.000343549 0.000126446 0.000627269 -0.000422142 4.589e-05 3.37176e-05 0.000504451 -0.000325282 0.00097106 0.000490787 0.000254578 -0.000627955 -3.83206e-05 0.000445988 0.000131313 -0.000174306 5.03507e-05 -9.09389e-05 -0.00025559 0.00117375 -0.000406231 -0.000586386 0.000856331 0.000180478 0.000444358 0.000832398 0.000291966 0.000536456 0.000841533 0.000359728 -0.000221287 7.9587e-05 0.00037222 0.000222408
internal_weight=203187 123126 80061 45358 34703 71656 51470 36159 25575 48731 9128 9199 14796 22925 36674 21938 24613 11546 13658 23016 26194 3548 22537 19024 3637 10646 4150 3512 3398 10699 5580 11239 17952 15703 2852 8910
internal_count=203187 123126 80061 45358 34703 71656 51470 36159 25575 48731 9128 9199 14796 22925 36674 21938 24613 11546 13658 23016 26194 3548 22537 19024 3637 10646 4150 3512 3398 10699 5580 11239 17952 15703 2852 8910
is_linear=0
shrinkage=0.0750012


Tree=19
num_leaves=37
num_cat=0
split_feature=38 38 38 38 38 38 38 38 38 38 56 56 56 56 38 56 56 56 56 38 56 56 27 27 56 56 27 27 56 27 27 27 27 56 26 27
split_gain=28.5654 6.18262 4.73065 1.06754 0.958028 0.878782 0.687522 0.21611 0.156689 0.126539 0.0499745 0.0451201 0.041287 0.0406791 0.0365952 0.0341227 0.0201144 0.0153584 0.0142844 0.0122963 0.0121021 0.0120898 0.007706 0.00718101 0.00713371 0.00703043 0.00653909 0.00456875 0.00448972 0.00397061 0.00336498 0.00332524 0.0026761 0.002423 0.00208473 0.00307114
threshold=0.0011250000097788873 0.00062500001513399195 0.0016250000335276129 0.00087500002700835477 0.0021249999990686779 0.00037500001781154429 0.0013750000507570805 0.0018750000745058062 1.0000000180025095e-35 0.0026250000810250644 1.0000000180025095e-35 1.0000000180025095e-35 1.0000000180025095e-35 0.0029999999096617107 0.0023750000400468711 1.0000000180025095e-35 0.0029999999096617107 1.0000000180025095e-35 0.0029999999096617107 0.0028750001220032577 0.0029999999096617107 0.0029999999096617107 0.066374998539686217 0.066374998539686217 0.0029999999096617107 0.0029999999096617107 0.066374998539686217 0.066374998539686217 1.0000000180025095e-35 0.066874999552965178 0.066874999552965178 0.066874999552965178 0.066374998539686217 0.0050000001210719356 0.12550000101327899 0.06749999895691873
decision_type=2 2 2 2 2 2 2 2 2 2 2 2 2 2 2 2 2 2 2 2 2 2 2 2 2 2 2 2 2 2 2 2 2 2 2 2
left_child=1 5 6 12 7 8 11 13 -1 14 26 27 23 17 25 -8 28 -4 30 -11 29 -17 -7 -3 31 -6 -5 -2 -9 -12 -13 -14 -10 -23 -24 -36
right_child=2 3 4 10 9 22 15 16 32 19 20 18 24 -15 -16 21 -18 -19 -20 -21 -22 33 34 -25 -26 -27 -28 -29 -30 -31 -32 -33 -34 -35 35 -37
leaf_value=-0.0021989897092393336 0.00068190395788118299 -0.00045881672294152009 0.0018218580191901688 0.00011128122327450131 0.0028555761146216996 -0.0010632967611642825 0.0012059768261483703 0.0023913139410243539 -0.0016135273794947627 0.0038000519301284153 -3.2973811102356304e-05 0.00053783377522067599 -0.00060239530764831495 0.0013785851096192103 0.003305390787120892 0.0010637382732913625 0.0019508476190174553 0.0016207008792105734 0.00033120022375167005 0.004818997400919847 -0.00023312844215427197 0.000923291325504961 -0.001236817960744023 -0.00053759717807681893 -0.00080225455071966407 0.0025173389055590635 3.1504754299407225e-05 0.00059976118072315842 0.0021934384582708764 -0.00011564002129455799 0.00045508754590514928 -0.00068763094997239106 -0.0016955210542514854 0.00074268904430172683 -0.0010598205602058263 -0.0011559451081867948
leaf_weight=3658 7152 13637 4723 11125 1762 16301 9579 2061 8688 410 7350 6045 6741 2581 1069 8182 1548 4826 3863 172 3158 2882 1627 12960 1770 848 12033 9153 2387 5888 5532 4693 6259 605 3213 8706
leaf_count=3658 7152 13637 4723 11125 1762 16301 9579 2061 8688 410 7350 6045 6741 2581 1069 8182 1548 4826 3863 172 3158 2882 1627 12960 1770 848 12033 9153 2387 5888 5532 4693 6259 605 3213 8706
internal_value=-1.72966e-06 -0.000684678 0.00115619 -0.000277045 0.00207027 -0.00135224 0.000769924 0.0018317 -0.00175692 0.00308281 -1.09192e-06 0.000548808 -0.000551261 0.00164841 0.00291375 0.00110013 0.00220133 0.00172082 0.000456683 0.00412794 -0.000101271 0.00101292 -0.0010998 -0.000497269 -0.000659857 0.00274917 6.98399e-05 0.000635929 0.00228692 -6.97628e-05 0.000498442 -0.000637577 -0.00164825 0.000892725 -0.00114345 -0.00113035
internal_weight=203187 127807 75380 79355 22387 48452 52993 18126 18605 4261 39554 31745 39801 12130 3679 21248 5996 9549 15440 582 16396 11669 29847 26597 13204 2610 23158 16305 4448 13238 11577 11434 14947 3487 13546 11919
internal_count=203187 127807 75380 79355 22387 48452 52993 18126 18605 4261 39554 31745 39801 12130 3679 21248 5996 9549 15440 582 16396 11669 29847 26597 13204 2610 23158 16305 4448 13238 11577 11434 14947 3487 13546 11919
is_linear=0
shrinkage=0.0750012


Tree=20
num_leaves=37
num_cat=0
split_feature=55 25 41 25 41 41 41 55 41 55 41 41 41 41 41 55 25 41 26 26 41 55 27 26 27 41 27 27 27 26 27 27 55 27 25 26
split_gain=2.03345 0.840757 0.621969 0.171947 0.138032 0.133593 0.112509 0.0444288 0.0347271 0.0346747 0.0281068 0.0267596 0.0245112 0.0196804 0.0194812 0.0186771 0.0149508 0.0118508 0.0105753 0.0105585 0.010113 0.00970798 0.00897377 0.00877582 0.00781901 0.00766247 0.0073715 0.00708464 0.00665167 0.00650972 0.00575912 0.00548581 0.00455259 0.00441053 0.0042364 0.0037042
threshold=1.0000000180025095e-35 0.0077500001061707744 0.0081250001676380652 0.0091250003315508383 0.0096250004135072249 0.006375000113621355 0.0066250001545995483 0.014999999664723875 0.010125000495463611 0.014999999664723875 0.010625000577419998 0.0083750002086162584 0.0071250000037252912 0.0073750000447034844 0.0088749998249113577 0.014999999664723875 0.0052500001620501289 0.0056250002235174188 0.12462500482797624 0.12812500447034839 0.011375000234693291 0.014999999664723875 0.067312501370906844 0.12100000306963922 0.064250003546476378 0.012124999891966583 0.066312499344348921 0.070187501609325423 0.068062499165534987 0.12437500059604646 0.067437499761581435 0.067937500774860396 0.014999999664723875 0.070062503218650832 0.0075000000651925811 0.11850000545382501
decision_type=2 2 2 2 2 2 2 2 2 2 2 2 2 2 2 2 2 2 2 2 2 2 2 2 2 2 2 2 2 2 2 2 2 2 2 2
left_child=1 5 6 11 7 16 17 14 27 13 15 23 29 31 30 19 -1 -2 -14 -6 28 -19 35 -3 -16 32 -15 -5 -10 -7 -4 -8 -12 -25 -11 -13
right_child=2 3 4 8 10 12 9 -9 20 34 25 22 18 26 24 -17 -18 21 -20 -21 -22 -23 -24 33 -26 -27 -28 -29 -30 -31 -32 -33 -34 -35 -36 -37
leaf_value=-0.00071066051828829987 -0.00028107612747916769 -0.0002450035980650674 0.00028982273845434299 8.1595123624369768e-05 0.00054822154861397304 -0.00042823660522001535 3.7817652889263297e-05 0.00077611438390127855 0.00019472339395164404 0.00038832194166383931 0.00081470562451569284 -0.00016102169285417116 -0.00032071314437206436 0.00013967612240865001 0.00029778591288225168 0.0010330597065548474 -0.0005342224913501151 -0.00010250402602320679 -0.00021738625828533861 0.00074301756602637551 0.0005195173705221421 0.00032509906820023645 2.5255715540080615e-05 -0.00014122071077117172 0.00048314476118466198 0.0012102180616202533 0.00024290780069702525 0.00023346495294211832 0.00035230047890592723 -0.00034202942091190937 0.00038475378627741036 0.00015688551336818179 0.0011382815355393359 -1.6004258941769697e-05 0.000641845417305634 -5.4506514456393741e-05
leaf_weight=3405 2236 4587 8962 13361 5742 9298 9080 1737 3424 850 3102 2273 10903 7387 1496 616 13906 7952 11486 2211 1024 307 8719 14125 9848 375 8269 1983 2717 10787 6114 2861 290 1783 696 9547
leaf_count=3405 2236 4587 8962 13361 5742 9298 9080 1737 3424 850 3102 2273 10903 7387 1496 616 13906 7952 11486 2211 1024 307 8719 14125 9848 375 8269 1983 2717 10787 6114 2861 290 1783 696 9547
internal_value=-4.25177e-07 -0.000191548 0.000293723 -1.59683e-06 0.000500448 -0.000393427 8.25146e-05 0.000408698 0.000164969 0.000158338 0.000709694 -9.2972e-05 -0.000321803 0.000138933 0.000384443 0.000634021 -0.000569062 -0.000128018 -0.000267746 0.000602677 0.000301266 -8.64796e-05 -3.24611e-05 -0.000153597 0.000458799 0.000881089 0.000194242 0.000101271 0.000264601 -0.000382005 0.000328401 6.63829e-05 0.000843504 -0.000127193 0.000503638 -7.50307e-05
internal_weight=203459 123328 80131 63543 40493 59785 39638 28157 22509 29143 12336 41034 42474 27597 26420 8569 17311 10495 22389 7953 7165 8259 20539 20495 11344 3767 15656 15344 6141 20085 15076 11941 3392 15908 1546 11820
internal_count=203459 123328 80131 63543 40493 59785 39638 28157 22509 29143 12336 41034 42474 27597 26420 8569 17311 10495 22389 7953 7165 8259 20539 20495 11344 3767 15656 15344 6141 20085 15076 11941 3392 15908 1546 11820
is_linear=0
shrinkage=0.0750012


Tree=21
num_leaves=37
num_cat=0
split_feature=38 38 38 38 38 38 38 38 38 38 56 56 56 41 56 56 38 41 41 41 56 41 41 41 56 56 56 41 41 38 41 56 56 41 41 56
split_gain=23.9555 5.17176 4.00255 0.894902 0.812227 0.732849 0.573786 0.18339 0.131732 0.112223 0.062571 0.0550408 0.0516732 0.045181 0.0443346 0.041303 0.0314093 0.0305407 0.0269729 0.0215598 0.0203391 0.0187498 0.018512 0.0182756 0.0170303 0.0152582 0.0148043 0.0145779 0.0142489 0.0140381 0.0103957 0.00839696 0.00794976 0.00780023 0.00743762 0.0067106
threshold=0.0011250000097788873 0.00062500001513399195 0.0016250000335276129 0.00087500002700835477 0.0021249999990686779 0.00037500001781154429 0.0013750000507570805 0.0018750000745058062 1.0000000180025095e-35 0.0026250000810250644 1.0000000180025095e-35 1.0000000180025095e-35 1.0000000180025095e-35 0.0073750000447034844 1.0000000180025095e-35 1.0000000180025095e-35 0.0023750000400468711 0.0081250001676380652 0.0081250001676380652 0.0073750000447034844 0.0029999999096617107 0.0081250001676380652 0.0083750002086162584 0.0083750002086162584 1.0000000180025095e-35 1.0000000180025095e-35 0.0029999999096617107 0.0076250000856816777 0.0083750002086162584 0.0031250000465661292 0.0081250001676380652 1.0000000180025095e-35 0.0029999999096617107 0.0066250001545995483 0.0086250002495944517 0.0029999999096617107
decision_type=2 2 2 2 2 2 2 2 2 2 2 2 2 2 2 2 2 2 2 2 2 2 2 2 2 2 2 2 2 2 2 2 2 2 2 2
left_child=1 5 6 12 7 8 11 14 -1 16 18 21 17 24 -4 30 32 33 -5 31 -9 -2 -12 -13 -7 34 -16 -14 -17 -11 -8 -10 -6 -3 -15 -25
right_child=2 3 4 10 9 13 15 20 19 29 22 23 27 25 26 28 -18 -19 -20 -21 -22 -23 -24 35 -26 -27 -28 -29 -30 -31 -32 -33 -34 -35 -36 -37
leaf_value=-0.0020074258454755157 0.0006821840771451586 -0.00030514859879871242 0.0016884907866149248 0.00015012154476619604 0.0026228005639496181 -0.00086003898564168701 0.0012206356939277617 0.0020996494836716265 -0.001390493526929044 0.0036282899196528888 -5.1196815853249808e-05 0.00047272066811075226 -0.00054153422949966828 -0.0010032711055926913 0.0014706462456203192 0.00099578516632129344 0.0030275192157684003 -0.00054652341429597322 -1.2476232140398422e-05 -0.0016089038074900792 0.0017651650005049836 0.00052039042245429813 -0.00021592331180172262 0.00035183531088763952 -0.0010570106562199659 -0.0012302186680929516 0.0012398394857725246 -0.00070017057764205936 0.00082721065996538886 0.0051712495424786073 0.0010548314991672178 -0.0016304005254013658 0.0022869188432821539 -0.00041623658731749748 -0.0011308885112985313 0.00018221169250014346
leaf_weight=3703 7723 5283 4752 12949 1795 10735 3789 4492 7283 519 10156 8539 6292 7508 4826 5670 1075 10124 10304 6634 1539 8625 6168 5127 3328 3664 2594 6987 6019 57 5749 1079 876 11245 4471 1780
leaf_count=3703 7723 5283 4752 12949 1795 10735 3789 4492 7283 519 10156 8539 6292 7508 4826 5670 1075 10124 10304 6634 1539 8625 6168 5127 3328 3664 2594 6987 6019 57 5749 1079 876 11245 4471 1780
internal_value=-3.83696e-07 -0.000625812 0.00105856 -0.000253682 0.00189608 -0.00123699 0.000702653 0.001676 -0.00160493 0.0028209 -9.31014e-07 0.000500961 -0.000504171 -0.00100523 0.00150733 0.00100462 0.00266528 -0.000443814 7.80792e-05 -0.0015051 0.00201536 0.000596952 -0.000113471 0.000399253 -0.000906901 -0.00109341 0.00139057 -0.000625165 0.000909252 0.00381101 0.00112112 -0.00142211 0.00251575 -0.0003808 -0.00105122 0.000308235
internal_weight=203459 127913 75546 79508 22525 48405 53021 18203 18699 4322 39577 31794 39931 29706 12172 21227 3746 26652 23253 14996 6031 16348 16324 15446 14063 15643 7420 13279 11689 576 9538 8362 2671 16528 11979 6907
internal_count=203459 127913 75546 79508 22525 48405 53021 18203 18699 4322 39577 31794 39931 29706 12172 21227 3746 26652 23253 14996 6031 16348 16324 15446 14063 15643 7420 13279 11689 576 9538 8362 2671 16528 11979 6907
is_linear=0
shrinkage=0.0750012


Tree=22
num_leaves=37
num_cat=0
split_feature=38 38 5 38 5 38 5 38 5 5 25 25 25 38 25 25 25 25 25 25 25 25 25 25 25 25 25 25 25 5 25 25 25 26 25 26
split_gain=20.4928 4.42116 3.42794 0.770358 0.691536 0.627571 0.488687 0.157851 0.112041 0.0933779 0.0394802 0.0392317 0.039212 0.0328233 0.0310097 0.0211545 0.0189638 0.0130473 0.0108602 0.0100574 0.00844543 0.00744836 0.00723401 0.0069289 0.00511512 0.00494182 0.00486167 0.00480247 0.00367371 0.00332312 0.00254915 0.00254514 0.00214229 0.00201637 0.00188412 0.00174796
threshold=0.0011250000097788873 0.00062500001513399195 6.5000000000000009 0.00087500002700835477 8.5000000000000018 0.00037500001781154429 5.5000000000000009 0.0018750000745058062 1.0000000180025095e-35 9.5000000000000018 0.0081250001676380652 0.0078750003594905155 0.0073750000447034844 0.0028750001220032577 0.0083750002086162584 0.0088749998249113577 0.0077500001061707744 0.0088749998249113577 0.0066250001545995483 0.0066250001545995483 0.0068750001955777415 0.0093749999068677443 0.0073750000447034844 0.0096250004135072249 0.0091250003315508383 0.0066250001545995483 0.0073750000447034844 0.0061250000726431617 0.010375000070780517 10.500000000000002 0.010375000070780517 0.0073750000447034844 0.010500000324100258 0.12362500280141832 0.010500000324100258 0.12400000169873239
decision_type=2 2 2 2 2 2 2 2 2 2 2 2 2 2 2 2 2 2 2 2 2 2 2 2 2 2 2 2 2 2 2 2 2 2 2 2
left_child=1 5 6 12 7 8 14 -4 26 -6 19 18 27 29 20 22 25 33 -7 -5 -2 35 -8 -16 -13 -10 -1 -3 -17 -11 -19 -21 -23 -14 -25 -12
right_child=2 3 4 10 9 11 15 -9 16 13 21 24 17 -15 23 28 -18 30 -20 31 -22 32 -24 34 -26 -27 -28 -29 -30 -31 -32 -33 -34 -35 -36 -37
leaf_value=-0.0017766971056090472 0.00061813636405108412 -0.00030537410731168988 0.0013960134885955659 0.0001503159299365956 0.0023257459387359953 -0.00079268766241051168 0.0010716216587524218 0.0018662725390303548 -0.0012706417579829588 0.0028091266692658861 -1.697927457782958e-05 -0.0010050584350603446 -0.00045599626609119022 0.0041111722735712054 0.00041837204553389791 0.00085825318550612794 -0.0015156868152139231 -0.0005883134795566338 -0.00091160774827155858 6.9362400782245544e-05 0.00049927080868141069 -0.0001295233159651272 0.00094811085432828634 0.00033887677462352624 -0.0011221521315105351 -0.0013877756753857852 -0.0019901235942702544 -0.00039977419062527 0.00072652043738995111 0.0032085131312109931 -0.00071456546638140269 9.4384155308867058e-06 -0.00024043012636970645 -0.0005113763511113001 0.00023487289875624516 -7.4987220471742891e-05
leaf_weight=2266 4675 4207 12220 5895 2651 7742 4214 6060 4810 1065 5131 7772 6770 170 9547 6120 5028 6666 10747 7135 12872 4507 9168 3173 3411 5086 1390 11553 1693 420 1145 9034 1259 9577 1477 6792
leaf_count=2266 4675 4207 12220 5895 2651 7742 4214 6060 4810 1065 5131 7772 6770 170 9547 6120 5028 6666 10747 7135 12872 4507 9168 3173 3411 5086 1390 11553 1693 420 1145 9034 1259 9577 1477 6792
internal_value=1.07086e-06 -0.000577304 0.000980694 -0.000234146 0.00175423 -0.00114385 0.000650577 0.00155223 -0.00148577 0.00260982 -4.38277e-07 -0.000929599 -0.000466868 0.00305904 0.000464291 0.000929459 -0.00139376 -0.000526967 -0.00086197 6.64813e-05 0.000531056 -8.39057e-05 0.000987272 0.000381664 -0.00104111 -0.00133131 -0.00185965 -0.000374648 0.000830043 0.0029293 -0.000607129 3.58907e-05 -0.00015387 -0.000488543 0.000306041 -5.0036e-05
internal_weight=203448 127923 75525 79671 22586 48252 52939 18280 18580 4306 39753 29672 39918 1655 31744 21195 14924 24158 18489 22064 17547 17689 13382 14197 11183 9896 3656 15760 7813 1485 7811 16169 5766 16347 4650 11923
internal_count=203448 127923 75525 79671 22586 48252 52939 18280 18580 4306 39753 29672 39918 1655 31744 21195 14924 24158 18489 22064 17547 17689 13382 14197 11183 9896 3656 15760 7813 1485 7811 16169 5766 16347 4650 11923
is_linear=0
shrinkage=0.0750012


Tree=23
num_leaves=37
num_cat=0
split_feature=55 56 56 26 26 56 26 26 26 26 26 26 37 37 26 31 37 40 40 26 26 26 31 45 43 31 40 31 40 59 43 43 40 40 40 59
split_gain=1.17607 0.291219 0.0410525 0.0216411 0.0137389 0.00979299 0.00801214 0.00453914 0.00438307 0.00368941 0.00243688 0.00221034 0.00205228 0.00164562 0.00159641 0.00155512 0.00130471 0.00137294 0.00135213 0.00129819 0.00127027 0.00123698 0.0011368 0.00106533 0.00112037 0.00157137 0.00103634 0.00110852 0.00101979 0.00176428 0.00156848 0.00100921 0.000993505 0.00117029 0.00114071 0.000986229
threshold=1.0000000180025095e-35 0.0029999999096617107 0.0050000001210719356 0.12687500566244128 0.1278750076889992 0.0069999997504055509 0.1200000010430813 0.13162500411272052 0.12087500095367433 0.12750000506639483 0.13987500220537188 0.13862500339746478 0.47576925158500677 0.45610259473323828 0.11400000378489496 285.97505187988287 0.49531506001949316 0.02909756358712912 0.030641688965260986 0.11962500214576723 0.11525000259280206 0.13462500274181369 285.46391296386724 370500.00000000006 0.00055366143351420771 291.44334411621099 0.033297104761004455 287.54267883300787 0.030500349588692192 1.0000000180025095e-35 0.0013460580958053472 0.00046174589078873401 0.026895759627223018 0.032751731574535377 0.033166948705911643 0.00099999998928979061
decision_type=2 2 2 2 2 2 2 2 2 2 2 2 2 2 2 2 2 2 2 2 2 2 2 2 2 2 2 2 2 2 2 2 2 2 2 2
left_child=3 4 9 6 8 -4 14 16 20 19 21 13 31 -9 -1 -16 17 -5 -19 -3 -2 -6 32 -11 25 -25 -20 -28 -23 -30 -31 -10 -8 -34 -35 -22
right_child=1 2 5 7 10 -7 22 11 12 23 -12 -13 -14 -15 15 -17 -18 18 26 -21 35 28 -24 24 -26 -27 27 -29 29 30 -32 -33 33 34 -36 -37
leaf_value=-0.00026720449419394634 2.7883889219331906e-05 0.00035925668438076605 0.0006990571687299508 -0.00011353029471693191 0.0001919286070688763 0.0011449198706605362 -0.00011948110564283152 0.00036640206580046739 -9.1053424999721963e-05 0.00055856023845442043 0.00050466409145513843 7.4339901682559111e-05 0.00013666584472605346 -7.1940205635776303e-05 -0.00013417241362429516 -0.00020606161732356209 -0.00012091995431451481 0.00011855265502179665 -0.00013014433113632944 0.00042695234819693144 8.5324135184531712e-05 0.0002114433456392425 -0.00015006178615495111 0.00062083334553373617 0.00045562330598004425 0.00010210055876273109 -0.00014074475037784319 0.00022274391848038806 0.00041002522509926465 0.00028722954855797987 -8.8584759818051241e-05 0.00030652142623451234 -0.00024329271859302632 0.00010596856678067343 -0.00016998144131151363 0.00014116910069980623
leaf_weight=2186 1758 2175 2478 1220 16010 321 772 45 37 1164 146 625 29928 11603 1900 17763 28830 368 410 8225 8928 1242 54936 457 3538 37 75 116 487 201 88 533 2061 101 450 2234
leaf_count=2186 1758 2175 2478 1220 16010 321 772 45 37 1164 146 625 29928 11603 1900 17763 28830 368 410 8225 8928 1242 54936 457 3538 37 75 116 487 201 88 533 2061 101 450 2234
internal_value=9.98788e-07 0.000225027 0.000486869 -0.000144145 0.000146802 0.000751544 -0.000167223 -0.0001014 0.000123865 0.000439212 0.000201565 -6.27618e-05 0.000139382 -7.01382e-05 -0.000205991 -0.00019914 -0.000116678 -6.07105e-05 5.95881e-06 0.000412919 8.72094e-05 0.000199014 -0.000152687 0.000491527 0.000471712 0.000582963 -6.32684e-05 8.00482e-05 0.000254803 0.000322952 0.000173101 0.000280319 -0.000195112 -0.000217277 -0.000119053 9.65415e-05
internal_weight=203448 79987 18395 123461 61592 2799 80169 43292 43418 15596 18174 12273 30498 11648 21849 19663 31019 2189 969 10400 12920 18028 58320 5196 4032 494 601 191 2018 776 289 570 3384 2612 551 11162
internal_count=203448 79987 18395 123461 61592 2799 80169 43292 43418 15596 18174 12273 30498 11648 21849 19663 31019 2189 969 10400 12920 18028 58320 5196 4032 494 601 191 2018 776 289 570 3384 2612 551 11162
is_linear=0
shrinkage=0.0750012


Tree=24
num_leaves=37
num_cat=0
split_feature=5 38 5 38 38 38 38 5 38 5 41 41 41 41 5 41 41 41 59 59 59 59 38 59 59 41 41 59 59 59 59 59 59 41 59 59
split_gain=17.3095 3.73509 2.88478 0.647519 0.583906 0.530152 0.413807 0.131561 0.0952402 0.081962 0.0346029 0.0338552 0.0335164 0.0271344 0.0228194 0.018826 0.0170397 0.0161665 0.0124733 0.0180816 0.010856 0.0148164 0.010554 0.00856148 0.012897 0.00795881 0.00775931 0.00755187 0.0120504 0.00730049 0.0102535 0.00708928 0.008919 0.00672423 0.00655739 0.0130697
threshold=4.5000000000000009 0.00062500001513399195 6.5000000000000009 0.00087500002700835477 0.0021249999990686779 0.00037500001781154429 0.0013750000507570805 7.5000000000000009 1.0000000180025095e-35 10.500000000000002 0.0083750002086162584 0.0081250001676380652 0.0073750000447034844 0.0081250001676380652 9.5000000000000018 0.0083750002086162584 0.0093749999068677443 0.0078750003594905155 -1.0000000180025095e-35 1.0000000180025095e-35 -1.0000000180025095e-35 1.0000000180025095e-35 0.0028750001220032577 -1.0000000180025095e-35 1.0000000180025095e-35 0.0086250002495944517 0.0093749999068677443 -1.0000000180025095e-35 1.0000000180025095e-35 -1.0000000180025095e-35 1.0000000180025095e-35 -1.0000000180025095e-35 1.0000000180025095e-35 0.0071250000037252912 1.0000000180025095e-35 -1.0000000180025095e-35
decision_type=2 2 2 2 2 2 2 2 2 2 2 2 2 2 2 2 2 2 2 2 2 2 2 2 2 2 2 2 2 2 2 2 2 2 2 2
left_child=1 5 6 11 7 8 13 16 -1 14 18 20 -7 27 -6 -8 34 -10 -5 33 -3 -22 -11 -15 -25 -14 -9 -2 -29 -12 -31 -13 -33 -20 35 -4
right_child=2 3 4 10 9 12 15 26 17 22 29 31 25 23 -16 -17 -18 -19 19 -21 21 -23 -24 24 -26 -27 -28 28 -30 30 -32 32 -34 -35 -36 -37
leaf_value=-0.0017075333676855582 0.00039080192956810871 -0.00050168844303511535 0.0012189494120299104 -6.6730159283551863e-05 0.0021365730628080557 -0.00077009471955855491 0.00092826042689261141 0.0017837194571994821 -0.0012265570556585941 0.002946187180432768 -0.00020833452183041315 -0.0006510084744783325 -0.00088780899613436122 0.00025054259962642439 0.0025740634551678862 0.00078544278168651653 0.0011453877458308557 -0.0014010394272434075 0.00016749814789681204 -6.4641175364580055e-05 -0.00032847402909870103 -0.00050173725371713935 0.0038105288082136571 0.00042777583164657217 0.00025369715166035153 -0.0010020561691939231 0.0015892705360138247 0.00056840740123478243 0.00039174156488540806 -3.3693422095527663e-05 -0.000205637678409645 -0.00047078313450844389 -0.0006445421375743406 7.0937314863712294e-05 0.0012168677637084027 0.0014599783737157981
leaf_weight=3705 2940 3308 2024 4090 2635 14048 10238 3815 10356 399 2516 1982 9767 3245 1071 11050 3737 4572 6949 4098 18132 3295 184 10240 3150 5849 2265 9171 2895 9767 2435 11165 1988 9763 2047 4315
leaf_count=3705 2940 3308 2024 4090 2635 14048 10238 3815 10356 399 2516 1982 9767 3245 1071 11050 3737 4572 6949 4098 18132 3295 184 10240 3150 5849 2265 9171 2895 9767 2435 11165 1988 9763 2047 4315
internal_value=3.56724e-08 -0.00053176 0.000901035 -0.000215669 0.00161255 -0.00105194 0.000598593 0.00142652 -0.00136556 0.00240028 -9.20769e-07 -0.000429042 -0.000854801 0.000426501 0.00226529 0.000854268 0.00128279 -0.00128031 5.29666e-05 7.6499e-05 -0.000374854 -0.000355195 0.0032399 0.000360358 0.0003869 -0.000930813 0.00171223 0.000499724 0.000526145 -9.20787e-05 -6.80548e-05 -0.000517494 -0.000497209 0.000111115 0.00134352 0.00138373
internal_weight=203206 127785 75421 79488 22492 48297 52929 18203 18633 4289 39618 39870 29664 31641 3706 21288 12123 14928 24900 20810 24735 21427 583 16635 13390 15616 6080 15006 12066 14718 12202 15135 13153 16712 8386 6339
internal_count=203206 127785 75421 79488 22492 48297 52929 18203 18633 4289 39618 39870 29664 31641 3706 21288 12123 14928 24900 20810 24735 21427 583 16635 13390 15616 6080 15006 12066 14718 12202 15135 13153 16712 8386 6339
is_linear=0
shrinkage=0.0750012


Tree=25
num_leaves=37
num_cat=0
split_feature=5 5 38 5 38 38 38 5 5 38 41 41 25 25 38 41 25 25 41 5 25 59 59 59 59 25 59 59 41 59 59 59 59 59 59 41
split_gain=14.8127 3.19605 2.46939 0.554083 0.500242 0.453681 0.354067 0.112587 0.0815205 0.07056 0.030035 0.0300166 0.0289847 0.024085 0.0195693 0.0167785 0.0154858 0.0142488 0.0103209 0.00993607 0.00945674 0.00940235 0.0131837 0.00815767 0.0143037 0.00758487 0.00751689 0.0109145 0.00713782 0.00630314 0.00859346 0.00610471 0.0083665 0.00591192 0.00924552 0.00571574
threshold=4.5000000000000009 2.5000000000000004 0.0016250000335276129 3.5000000000000004 0.0021249999990686779 0.00037500001781154429 0.0013750000507570805 7.5000000000000009 1.0000000180025095e-35 0.0026250000810250644 0.0073750000447034844 0.0077500001061707744 0.0077500001061707744 0.0088749998249113577 0.0023750000400468711 0.0091250003315508383 0.0083750002086162584 0.0071250000037252912 0.0091250003315508383 12.500000000000002 0.0073750000447034844 -1.0000000180025095e-35 1.0000000180025095e-35 1.0000000180025095e-35 -1.0000000180025095e-35 0.006375000113621355 1.0000000180025095e-35 -1.0000000180025095e-35 0.0086250002495944517 -1.0000000180025095e-35 1.0000000180025095e-35 -1.0000000180025095e-35 1.0000000180025095e-35 -1.0000000180025095e-35 1.0000000180025095e-35 0.0091250003315508383
decision_type=2 2 2 2 2 2 2 2 2 2 2 2 2 2 2 2 2 2 2 2 2 2 2 2 2 2 2 2 2 2 2 2 2 2 2 2
left_child=1 5 6 10 7 8 13 16 -1 14 31 26 25 20 -6 23 -4 -10 29 -11 -2 -13 35 24 -8 -7 27 -5 -9 -12 -31 -3 -33 -22 -35 -23
right_child=2 3 4 11 9 12 15 28 17 19 18 21 -14 -15 -16 -17 -18 -19 -20 -21 33 22 -24 -25 -26 -27 -28 -29 -30 30 -32 32 -34 34 -36 -37
leaf_value=-0.0015795863392408648 0.00050166621681950886 -0.00043538784119422042 0.0012926650209889631 -3.819811062147814e-05 0.0019765381338457807 -0.00065807074669032716 0.00072927679144083773 0.0016931138187703551 -0.001104344892776644 0.002852554328100726 -0.00053689562792035874 -0.00016786550181685113 -0.00088125734612486334 0.00029569364488015213 0.0023816285977622444 0.00068729279218460539 0.0011150151134185307 -0.0012554674978999835 -0.00053563810036289438 0.004118046635109722 0.0002981462565003167 2.9168689285114076e-05 -0.00016570041448671832 0.00072913297741710717 0.00091791981041095048 -0.00076449932304281046 -3.8113090334063945e-05 0.00012476300450503015 0.0015101415806711383 -0.00038026306650232517 -0.00053580702108414063 -0.00027284431252906969 -0.00043520427800543786 0.00046144248870507636 0.00029779682591982978 -6.9395839551475021e-05
leaf_weight=3705 8265 2121 4867 2864 2635 5889 3249 2422 7054 526 2341 3742 11983 9672 1071 6390 7256 7874 5976 57 2656 9422 3601 3389 8260 11792 2932 11960 3658 13334 2379 11596 2123 8495 2553 5097
leaf_count=3705 8265 2121 4867 2864 2635 5889 3249 2422 7054 526 2341 3742 11983 9672 1071 6390 7256 7874 5976 57 2656 9422 3601 3389 8260 11792 2932 11960 3658 13334 2379 11596 2123 8495 2553 5097
internal_value=5.02015e-08 -0.000491899 0.000833539 -0.000199505 0.00149184 -0.000973077 0.000553718 0.00131965 -0.0012632 0.00222095 -0.000396883 -8.53894e-07 -0.000790713 0.000394532 0.00209572 0.000790218 0.00118669 -0.00118433 -0.000449783 0.0029999 0.000437993 -5.9684e-05 -3.73154e-05 0.000834194 0.000864901 -0.000729187 7.1578e-05 9.32773e-05 0.00158395 -0.000421267 -0.000403926 -0.000316551 -0.000298073 0.000399474 0.000423732 -5.44141e-06
internal_weight=203206 127785 75421 79488 22492 48297 52929 18203 18633 4289 39870 39618 29664 31641 3706 21288 12123 14928 24030 583 21969 21862 18120 14898 11509 17681 17756 14824 6080 18054 15713 15840 13719 13704 11048 14519
internal_count=203206 127785 75421 79488 22492 48297 52929 18203 18633 4289 39870 39618 29664 31641 3706 21288 12123 14928 24030 583 21969 21862 18120 14898 11509 17681 17756 14824 6080 18054 15713 15840 13719 13704 11048 14519
is_linear=0
shrinkage=0.0750012


Tree=26
num_leaves=37
num_cat=0
split_feature=55 56 27 27 44 27 26 27 44 56 26 44 27 44 27 26 27 44 27 44 26 27 27 26 44 27 44 26 27 27 26 27 44 27 27 26
split_gain=0.652272 0.153054 0.0615423 0.0335505 0.0264503 0.0271438 0.019115 0.0277255 0.0185614 0.0185198 0.018194 0.018168 0.0196836 0.0144608 0.0194757 0.0136994 0.018691 0.0129348 0.0203083 0.0107978 0.00956023 0.00961712 0.00929514 0.00833465 0.00826555 0.0129337 0.00759977 0.00718704 0.00697041 0.0067829 0.00910141 0.00644037 0.00779864 0.00626415 0.00599527 0.005753
threshold=1.0000000180025095e-35 0.0029999999096617107 0.066812500357627883 0.065375003963708891 0.12587500363588336 0.068125005811452879 0.12562500685453418 0.065749999135732665 0.1278750076889992 0.0050000001210719356 0.12400000169873239 0.12887500226497653 0.06943750381469728 0.12350000068545343 0.06487500295042993 0.12312500178813936 0.067437499761581435 0.12162500247359277 0.063562501221895232 0.12462500482797624 0.1266250088810921 0.072750005871057524 0.068125005811452879 0.12175000086426736 0.13137500733137134 0.0704999975860119 0.12312500178813936 0.13087499886751178 0.067187502980232253 0.063875000923872008 0.12062500417232515 0.066312499344348921 0.12637499719858172 0.066374998539686217 0.069125000387430205 0.11850000545382501
decision_type=2 2 2 2 2 2 2 2 2 2 2 2 2 2 2 2 2 2 2 2 2 2 2 2 2 2 2 2 2 2 2 2 2 2 2 2
left_child=2 3 6 26 -4 8 7 13 28 22 -9 -7 27 14 17 -5 19 18 -1 33 -18 34 -3 -16 -14 -26 29 -13 -6 35 -31 -21 -33 -17 -22 -2
right_child=1 9 4 15 5 11 -8 10 -10 -11 -12 12 24 -15 23 16 20 -19 -20 31 21 -23 -24 -25 25 -27 -28 -29 -30 30 -32 32 -34 -35 -36 -37
leaf_value=-0.00021075439141629451 4.7210505662648313e-05 0.00028659043102365127 0.00010532414916193765 0.00030109090111212828 -0.00017630397796372188 9.435655063687765e-05 -0.00028717874548977643 4.2225110992309347e-05 -0.00024441700435606697 0.00053561901462517247 -0.0001255604998159596 -9.8576147083903934e-05 9.6432989074980122e-05 -0.00029002242511322725 5.1614561293547649e-05 9.3076123729934367e-05 0.00032763356426836605 -0.00028596410328696745 -8.4632471175436367e-05 -8.8976329833251026e-05 0.00011370184827335624 0.00043762839305084742 0.00041213779847695022 -0.00010513075472741519 -0.00013996030549857382 2.5646628810870867e-05 -0.00012096418540047748 -0.00024910723716591423 -4.2863828997540203e-05 0.00019779139775730981 3.9603513626322118e-05 0.00011974309064074954 -3.4798134146763218e-05 0.00026521145528662004 0.00019507454222770219 -7.2548991576494115e-05
leaf_weight=18112 6010 10728 5743 3127 3096 5964 5547 6485 6215 2799 8266 7015 3805 4994 2788 2990 2220 5494 11911 2138 10172 696 4847 6032 4014 7807 1659 2394 7617 3066 6143 4605 3052 1978 10244 3608
leaf_count=18112 6010 10728 5743 3127 3096 5964 5547 6485 6215 2799 8266 7015 3805 4994 2788 2990 2220 5494 11911 2138 10172 696 4847 6032 4014 7807 1659 2394 7617 3066 6143 4605 3052 1978 10244 3608
internal_value=1.15184e-06 0.000167811 -0.000107094 0.00011122 -4.67358e-05 -6.49631e-05 -0.000153613 -0.000142037 -0.000141334 0.000357811 -5.18041e-05 -2.32473e-05 -5.12728e-05 -0.000169013 -0.000155361 0.000150204 0.000137792 -0.000180131 -0.000160734 7.1723e-05 0.00017958 0.00016396 0.000325744 -5.55828e-05 3.38341e-07 -3.06123e-05 3.27645e-05 -0.000136955 -8.14719e-05 4.63306e-05 9.23244e-05 2.60212e-05 5.81567e-05 0.000161749 0.000154558 2.27518e-06
internal_weight=203381 80082 123299 61708 53670 47927 69629 64082 16928 18374 14751 30999 25035 49331 44337 41222 38095 35517 30023 14763 23332 21112 15575 8820 15626 11821 20486 9409 10713 18827 9209 9795 7657 4968 20416 9618
internal_count=203381 80082 123299 61708 53670 47927 69629 64082 16928 18374 14751 30999 25035 49331 44337 41222 38095 35517 30023 14763 23332 21112 15575 8820 15626 11821 20486 9409 10713 18827 9209 9795 7657 4968 20416 9618
is_linear=0
shrinkage=0.0750012


Tree=27
num_leaves=37
num_cat=0
split_feature=38 38 38 38 38 38 38 38 56 38 56 38 56 56 56 56 56 41 41 56 56 56 56 56 56 41 41 41 38 38 56 41 56 41 41 41
split_gain=12.4757 2.67838 2.08261 0.46288 0.421699 0.381263 0.300939 0.0963762 0.0687133 0.0678287 0.0656357 0.0602695 0.0571598 0.0524104 0.0503314 0.0427469 0.028822 0.0238018 0.0206727 0.0200917 0.0193201 0.0192596 0.0184736 0.0183877 0.0183838 0.0181358 0.0133688 0.0126291 0.0114953 0.0102889 0.0102351 0.00971687 0.00931644 0.00907726 0.00898222 0.00751734
threshold=0.0011250000097788873 0.00062500001513399195 0.0016250000335276129 0.00087500002700835477 0.0021249999990686779 0.00037500001781154429 0.0013750000507570805 0.0018750000745058062 1.0000000180025095e-35 1.0000000180025095e-35 1.0000000180025095e-35 0.0026250000810250644 1.0000000180025095e-35 1.0000000180025095e-35 1.0000000180025095e-35 1.0000000180025095e-35 1.0000000180025095e-35 0.0073750000447034844 0.0073750000447034844 0.0029999999096617107 0.0029999999096617107 1.0000000180025095e-35 0.0029999999096617107 0.0029999999096617107 1.0000000180025095e-35 0.0073750000447034844 0.0081250001676380652 0.0076250000856816777 0.0023750000400468711 0.0031250000465661292 0.0029999999096617107 0.0076250000856816777 0.0029999999096617107 0.0068750001955777415 0.009000000078231098 0.0077500001061707744
decision_type=2 2 2 2 2 2 2 2 2 2 2 2 2 2 2 2 2 2 2 2 2 2 2 2 2 2 2 2 2 2 2 2 2 2 2 2
left_child=1 5 6 12 7 9 10 14 25 -1 27 24 18 35 -4 17 -9 -7 -3 34 -16 26 -15 31 -6 -5 -11 -2 -26 -13 33 -10 -18 -14 -12 -8
right_child=2 3 4 8 11 15 13 16 23 21 19 29 30 22 20 -17 32 -19 -20 -21 -22 -23 -24 -25 28 -27 -28 -29 -30 -31 -32 -33 -34 -35 -36 -37
leaf_value=-0.0014483079584488017 0.00056111843054030132 -0.00021834566102787995 0.0012786328321424314 0.00017648786016173786 0.002197011697983467 -0.00059344266353023674 0.00095875346133637862 0.0016826567546820335 -4.8603293204938426e-07 -0.0010081171265541907 0.00033933610773323887 0.0026202191554638675 -0.00035223313255686124 0.00068021317013275547 0.0010533647406371647 -0.00088799786156282365 0.0014293771197164346 -0.00074792964703169834 -0.00035370968375617414 0.00010092621608397865 0.0007954279490519563 -0.0013144821565047567 0.00047353480992057289 -0.00028064827502405175 0.001694954791079383 3.516429806535923e-05 -0.0011888561048340822 0.00041975878902315454 0.0020632600801346259 0.0038861760815476396 -0.00066240641699807608 -0.00013196666154332198 0.0011810612846187445 -0.00050514190045438279 0.00018962483095694727 0.00081017887523989894
leaf_weight=3681 5319 10500 4764 7601 1078 10756 2905 2112 5228 9757 8453 516 2995 8238 4823 6977 2394 12011 16141 3830 2578 1883 3511 3187 1857 15566 3214 11052 798 55 1728 7997 1569 8488 3096 6723
leaf_count=3681 5319 10500 4764 7601 1078 10756 2905 2112 5228 9757 8453 516 2995 8238 4823 6977 2394 12011 16141 3830 2578 1883 3511 3187 1857 15566 3214 11052 798 55 1728 7997 1569 8488 3096 6723
internal_value=1.06689e-06 -0.000451096 0.000764168 -0.000183302 0.00136815 -0.000891639 0.000507801 0.00121013 -1.6207e-06 -0.00115871 0.000361264 0.00203632 -0.000363723 0.00072535 0.0010875 -0.000725095 0.00145492 -0.000675046 -0.000300394 0.000249909 0.000963932 -0.00108663 0.000618609 -0.000119018 0.00192241 8.15515e-05 -0.00105321 0.000465796 0.0018082 0.00276488 -0.000491317 -8.00046e-05 0.00133218 -0.000465379 0.000299271 0.000855336
internal_weight=203381 127710 75671 79431 22544 48279 53127 18240 39579 18535 31750 4304 39852 21377 12165 29744 6075 22767 26641 15379 7401 14854 11749 16412 3733 23167 12971 16371 2655 571 13211 13225 3963 11483 11549 9628
internal_count=203381 127710 75671 79431 22544 48279 53127 18240 39579 18535 31750 4304 39852 21377 12165 29744 6075 22767 26641 15379 7401 14854 11749 16412 3733 23167 12971 16371 2655 571 13211 13225 3963 11483 11549 9628
is_linear=0
shrinkage=0.0750012


Tree=28
num_leaves=37
num_cat=0
split_feature=5 5 5 5 5 5 5 5 58 5 58 5 58 58 58 58 58 25 5 25 58 58 25 58 58 58 25 25 58 25 25 58 25 25 25 58
split_gain=10.6725 2.3125 1.78839 0.399349 0.35649 0.327015 0.255354 0.0814063 0.0588805 0.057834 0.0558657 0.0506421 0.0494073 0.0445074 0.0430499 0.0371419 0.0245069 0.0206779 0.0203094 0.0179964 0.0169266 0.0168837 0.0157247 0.0156597 0.0154095 0.015358 0.0119915 0.0110513 0.010458 0.00965005 0.008432 0.00796663 0.00766536 0.00725905 0.00716716 0.00690612
threshold=4.5000000000000009 2.5000000000000004 6.5000000000000009 3.5000000000000004 8.5000000000000018 1.5000000000000002 5.5000000000000009 7.5000000000000009 1.0000000180025095e-35 1.0000000180025095e-35 1.0000000180025095e-35 9.5000000000000018 1.0000000180025095e-35 1.0000000180025095e-35 1.0000000180025095e-35 1.0000000180025095e-35 1.0000000180025095e-35 0.0081250001676380652 11.500000000000002 0.0078750003594905155 1.0000000180025095e-35 0.0049746807198971519 0.0081250001676380652 0.0049746807198971519 0.0049746807198971519 0.0049746807198971519 0.0066250001545995483 0.0081250001676380652 0.0049746807198971519 0.0083750002086162584 0.0088749998249113577 0.0049746807198971519 0.0076250000856816777 0.0066250001545995483 0.0076250000856816777 0.0049746807198971519
decision_type=2 2 2 2 2 2 2 2 2 2 2 2 2 2 2 2 2 2 2 2 2 2 2 2 2 2 2 2 2 2 2 2 2 2 2 2
left_child=1 5 6 12 7 9 10 14 22 -1 27 28 19 -8 -4 17 -9 33 35 -3 26 32 -5 34 30 -16 -11 -2 -6 -14 -10 -18 -12 -7 -15 -13
right_child=2 3 4 8 11 15 13 16 24 20 21 18 29 23 25 -17 31 -19 -20 -21 -22 -23 -24 -25 -26 -27 -28 -29 -30 -31 -32 -33 -34 -35 -36 -37
leaf_value=-0.0013404787378249333 0.00049637561700503069 -0.0002213184999633611 0.0011837636144913749 0.00013138121622232075 0.0017826664661448849 -0.00050906591097001042 0.00079030820524058222 0.0015548880745602947 -3.9976965291847138e-05 -0.00086733542529008234 0.00036438733066599017 0.0022582614282983856 -0.00041162721077327982 0.00074588258138755226 0.00097274925133507479 -0.00082273121532912665 0.0013208001985124968 -0.00073213410829164524 0.0030435976588752281 -0.00034529565847560951 -0.0012157306129494854 9.5183304475119677e-05 7.1714416751907528e-06 0.0004384935149464193 -0.00025897369016856207 0.00074085879982005692 -0.0010249718124538151 0.00037222331702548977 0.0014403903860553556 -0.00055101086878092719 -0.00017887921145733873 0.0010902336591071728 0.00023423275092996471 -0.00061604762880593451 0.00058531493442740251 0.0018624616773037293
leaf_weight=3666 7739 14561 4795 12972 1806 5855 9575 2129 10111 4184 3809 919 9097 2206 4762 7005 2426 6996 166 12078 1951 3822 10273 3520 3115 2539 8891 8599 861 4106 3246 1535 7799 9809 6025 552
leaf_count=3666 7739 14561 4795 12972 1806 5855 9575 2129 10111 4184 3809 919 9097 2206 4762 7005 2426 6996 166 12078 1951 3822 10273 3520 3115 2539 8891 8599 861 4106 3246 1535 7799 9809 6025 552
internal_value=2.05125e-07 -0.000417306 0.000706775 -0.000168675 0.00126729 -0.000826324 0.000469281 0.0011216 -3.72076e-07 -0.0010721 0.000334455 0.00188146 -0.000336435 0.000670036 0.00100826 -0.00067135 0.00134601 -0.000624434 0.00221492 -0.000277567 -0.00100633 0.000232024 7.64966e-05 0.000571831 -0.000108841 0.000892497 -0.000974771 0.000431125 0.00167418 -0.000455107 -7.37705e-05 0.00123248 0.000277037 -0.000576181 0.000628645 0.00211446
internal_weight=203500 127916 75584 79559 22490 48357 53094 18186 39717 18692 31768 4304 39842 21326 12096 29665 6090 22660 1637 26639 15026 15430 23245 11751 16472 7301 13075 16338 2667 13203 13357 3961 11608 15664 8231 1471
internal_count=203500 127916 75584 79559 22490 48357 53094 18186 39717 18692 31768 4304 39842 21326 12096 29665 6090 22660 1637 26639 15026 15430 23245 11751 16472 7301 13075 16338 2667 13203 13357 3961 11608 15664 8231 1471
is_linear=0
shrinkage=0.0750012


Tree=29
num_leaves=37
num_cat=0
split_feature=5 38 5 5 38 5 5 38 58 5 58 5 58 58 58 58 58 41 41 58 58 58 41 58 58 58 41 41 58 38 41 38 41 41 58 41
split_gain=9.13325 1.97884 1.53093 0.341709 0.305482 0.27986 0.218512 0.0697011 0.0503848 0.0494972 0.047801 0.0442597 0.0422809 0.0380748 0.0368353 0.0317827 0.020973 0.0178064 0.0157017 0.0144994 0.0144472 0.0142581 0.0139468 0.0134003 0.0131874 0.0131378 0.0109103 0.0100022 0.00902209 0.00851419 0.00790111 0.00766332 0.00733046 0.00708647 0.00681315 0.00670922
threshold=4.5000000000000009 0.00062500001513399195 6.5000000000000009 3.5000000000000004 0.0021249999990686779 1.5000000000000002 5.5000000000000009 0.0018750000745058062 1.0000000180025095e-35 1.0000000180025095e-35 1.0000000180025095e-35 10.500000000000002 1.0000000180025095e-35 1.0000000180025095e-35 1.0000000180025095e-35 1.0000000180025095e-35 1.0000000180025095e-35 0.0078750003594905155 0.0081250001676380652 1.0000000180025095e-35 0.0049746807198971519 1.0000000180025095e-35 0.0086250002495944517 0.0049746807198971519 0.0049746807198971519 0.0049746807198971519 0.0081250001676380652 0.0073750000447034844 0.0049746807198971519 0.0023750000400468711 0.0073750000447034844 0.0031250000465661292 0.0066250001545995483 0.0091250003315508383 0.0049746807198971519 0.0091250003315508383
decision_type=2 2 2 2 2 2 2 2 2 2 2 2 2 2 2 2 2 2 2 2 2 2 2 2 2 2 2 2 2 2 2 2 2 2 2 2
left_child=1 5 6 12 7 9 10 14 22 -1 27 21 18 -8 -4 17 -9 -7 -3 26 33 -6 -5 -15 30 35 -11 -2 32 -23 -10 -13 -14 -12 -18 -16
right_child=2 3 4 8 11 15 13 16 24 19 20 31 28 23 25 -17 34 -19 -20 -21 -22 29 -24 -25 -26 -27 -28 -29 -30 -31 -32 -33 -34 -35 -36 -37
