tree
version=v4
num_class=1
num_tree_per_iteration=1
label_index=0
max_feature_idx=61
objective=regression
feature_names=Column_0 Column_1 Column_2 Column_3 Column_4 Column_5 Column_6 Column_7 Column_8 Column_9 Column_10 Column_11 Column_12 Column_13 Column_14 Column_15 Column_16 Column_17 Column_18 Column_19 Column_20 Column_21 Column_22 Column_23 Column_24 Column_25 Column_26 Column_27 Column_28 Column_29 Column_30 Column_31 Column_32 Column_33 Column_34 Column_35 Column_36 Column_37 Column_38 Column_39 Column_40 Column_41 Column_42 Column_43 Column_44 Column_45 Column_46 Column_47 Column_48 Column_49 Column_50 Column_51 Column_52 Column_53 Column_54 Column_55 Column_56 Column_57 Column_58 Column_59 Column_60 Column_61
feature_infos=[502.84750366210938:502.8475341796875] none none [310:24628] none [0:14] [310:24628] none none none none none none none none none none none none none none none [310:24628] none none [0.0030000000260770321:0.014500000514090061] [0.10525000840425491:0.14724999666213989] [0.056125003844499588:0.078499995172023773] [996:999] [482.13052368164062:517.87078857421875] [0:2] [278.31594848632812:297.03094482421875] [317.80801391601562:345.47927856445312] [950:999] [-20.717000961303711:15.023250579833984] [391.48910522460938:420.97940063476562] [0.58931982517242432:0.7066771388053894] [0.4150734543800354:0.69687139987945557] [0:0.0035000001080334187] [0.95505648851394653:0.98223823308944702] [0.018082946538925171:0.04705849289894104] [0.0030000000260770321:0.014500000514090061] [0.99583250284194946:0.99989533424377441] [0.00010469567496329546:0.0041850171983242035] [0.10525000840425491:0.14724999666213989] [310:24628] none none [10:242] none [5:10] [5:232] none none none [0:0.029999999329447746] [0:0.0099999997764825821] none [0:0.013416407629847527] [-0.0070000002160668373:0.0060000000521540642] none none
tree_sizes=3030 3083 3089 3061

Tree=0
num_leaves=31
num_cat=0
split_feature=34 31 37 32 26 33 26 56 40 5 40 40 43 56 31 33 33 37 34 29 40 31 39 33 33 35 26 35 32 39
split_gain=6.36501e-06 8.2176e-06 7.65638e-06 8.00998e-06 1.36295e-05 7.24059e-06 7.13282e-06 9.10009e-06 6.7625e-06 1.0437e-05 9.38579e-06 1.16389e-05 8.56552e-06 8.56479e-06 7.94922e-06 7.93242e-06 7.52617e-06 7.23353e-06 9.69138e-06 1.30279e-05 1.00134e-05 1.0194e-05 8.02914e-06 7.18108e-06 1.06849e-05 7.09449e-06 6.78399e-06 1.01624e-05 8.46677e-06 6.64406e-06
threshold=-4.7046251296997061 291.19496154785162 0.61090561747550975 329.84512329101568 0.12687500566244128 976.50000000000011 0.13700000196695331 0.0029999999096617107 0.030945241451263431 6.5000000000000009 0.033302014693617828 0.034979650750756271 0.00057625205954536806 0.0039999999571591624 290.94549560546881 995.50000000000011 990.50000000000011 0.53636351227760326 -8.2355003356933576 494.28063964843756 0.024866092018783096 289.28746032714849 0.97017848491668712 992.50000000000011 989.50000000000011 408.19708251953131 0.11850000545382501 407.52346801757818 334.65188598632818 0.97600960731506359
decision_type=2 2 2 2 2 2 2 2 2 2 2 2 2 2 2 2 2 2 2 2 2 2 2 2 2 2 2 2 2 2
left_child=1 8 3 4 -3 -5 -2 -8 14 10 -10 12 16 15 17 -11 -12 18 19 29 -21 -22 25 24 -16 -19 27 -20 -29 -1
right_child=6 2 -4 5 -6 -7 7 -9 9 13 11 -13 -14 -15 23 -17 -18 22 26 20 21 -23 -24 -25 -26 -27 -28 28 -30 -31
leaf_value=0.00099294635892778894 0.00099177812037464278 0.00098511476952438609 0.0009675484909215502 0.00099939386699516197 0.0010175313410753131 0.00098376510485365153 0.0009976650288882579 0.0010325529866210682 0.0009872652188677286 0.0009802346878331153 0.00099332679353567738 0.00098748038132992879 0.0010004433280329662 0.0009583267921745367 0.001001488555479228 0.0010093844871878835 0.00095636250616209964 0.00099889498205362869 0.00096732931695187063 0.0010420767997244887 0.00099207679377833358 0.0010325529861576592 0.00099248052040921638 0.00098270179330784443 0.0010399028830377448 0.0010277910807337763 0.0009880318497463552 0.0010127664508854696 0.00097421965010182265 0.00097828368958415403
leaf_weight=690 15234 79 53 82 55 770 170 21 1486 228 40 446 502 40 85 26 21 88 99 20 60 21 3220 32 23 28 1335 29 28 87
leaf_count=690 15234 79 53 82 55 770 170 21 1486 228 40 446 502 40 85 26 21 88 99 20 60 21 3220 32 23 28 1335 29 28 87
internal_value=0.000991268 0.000990262 0.000986061 0.000987057 0.00099842 0.000985269 0.000991899 0.0010015 0.000990768 0.000988742 0.000989792 0.000993514 0.000998293 0.000979832 0.000991735 0.000983219 0.000980601 0.000991446 0.000989333 0.0009935 0.00101039 0.00100257 0.000992946 0.00100351 0.00100967 0.00100587 0.000986879 0.000977013 0.000993831 0.000991305
internal_weight=25098 9673 1039 986 134 852 15425 191 8634 2789 2495 1009 563 294 5845 254 61 5705 2369 878 101 81 3336 140 108 116 1491 156 57 777
internal_count=25098 9673 1039 986 134 852 15425 191 8634 2789 2495 1009 563 294 5845 254 61 5705 2369 878 101 81 3336 140 108 116 1491 156 57 777
is_linear=0
shrinkage=1


Tree=1
num_leaves=31
num_cat=0
split_feature=34 31 37 31 50 31 40 37 33 32 29 44 44 44 44 6 37 39 31 44 48 44 38 39 41 3 39 39 44 25
split_gain=5.74442e-06 7.41638e-06 7.12145e-06 8.28625e-06 8.13301e-06 8.16137e-06 7.23504e-06 8.46999e-06 6.65989e-06 8.62846e-06 7.66323e-06 1.18289e-05 1.02509e-05 1.40199e-05 9.71081e-06 9.00356e-06 8.40395e-06 7.87084e-06 6.81721e-06 6.72863e-06 6.46248e-06 6.43737e-06 8.70105e-06 6.56217e-06 7.02363e-06 6.97436e-06 8.947e-06 9.66712e-06 1.29421e-05 1.55603e-05
threshold=-4.7046251296997061 291.19496154785162 0.5383613407611848 291.32838439941412 9.5000000000000018 292.71232604980474 0.026590956375002864 0.51250946521759044 971.50000000000011 325.56388854980474 496.52400207519537 0.11512500047683717 0.12912500649690631 0.11887500435113908 0.11412500217556955 21670.500000000004 0.56375750899314891 0.97053754329681408 290.10443115234381 0.1147500015795231 149.50000000000003 0.13700000196695331 0.0016250000335276129 0.97629389166831981 0.0052500001620501289 18609.500000000004 0.9770542085170747 0.97773471474647533 0.12562500685453418 0.0075000000651925811
decision_type=2 2 2 2 2 2 2 2 2 2 2 2 2 2 2 2 2 2 2 2 2 2 2 2 2 2 2 2 2 2
left_child=1 8 3 -3 5 20 7 -6 9 -1 11 14 13 -12 15 -10 -15 -14 -11 -16 -5 23 -23 24 -2 -25 -27 -28 29 -29
right_child=21 2 -4 4 6 -7 -8 -9 10 18 12 -13 17 16 19 -17 -18 -19 -20 -21 -22 22 -24 25 -26 26 27 28 -30 -31
leaf_value=2.0469607130451094e-05 -7.9519044697482791e-06 -2.0165595916021333e-05 -8.3070214110875554e-06 6.5371237356192163e-07 -8.0256764101210603e-06 -1.0340529933194416e-05 -7.0450428037951325e-06 3.2924286162077418e-05 2.0034682327255262e-05 -1.2988486525396669e-05 -1.0330043391666299e-05 1.0923399302612105e-07 -1.5922215045571246e-05 -1.6110201320474136e-06 4.4585822444573485e-05 -1.0921088850561016e-05 5.8170962263745209e-06 -4.0449319581292785e-06 8.9093404456922678e-06 1.0415426688268781e-05 3.3706209569118073e-05 4.6516167574850443e-06 3.3593823460368221e-05 -1.5323681123820035e-06 3.0841610328398181e-08 1.5848884903525392e-05 -9.5889052664417616e-06 5.2077752758729437e-05 -6.6201537322285736e-06 7.0148698556157845e-06
leaf_weight=25 281 43 683 21 23 23 168 28 46 267 347 5409 225 1253 34 48 547 367 41 25 50 160 31 283 14201 217 105 30 64 53
leaf_count=25 281 43 683 21 23 23 168 28 46 267 347 5409 225 1253 34 48 547 367 41 25 50 160 31 283 14201 217 105 30 64 53
internal_value=-3.72226e-07 -1.32745e-06 -5.31847e-06 4.15191e-07 3.24258e-06 1.55447e-05 -2.0378e-06 1.44567e-05 -8.47179e-07 -7.78049e-06 -5.69044e-07 4.97039e-07 -2.73391e-06 -1.1277e-06 1.42071e-05 4.22748e-06 6.46302e-07 -8.5591e-06 -1.00735e-05 3.01068e-05 2.39301e-05 2.26795e-07 9.34904e-06 1.12422e-07 -1.24051e-07 4.66641e-06 8.40683e-06 1.9984e-06 1.0275e-05 2.33027e-05
internal_weight=25098 9673 1039 356 313 94 219 51 8634 333 8301 5562 2739 2147 153 94 1800 592 308 59 71 15425 191 15234 14482 752 469 252 147 83
internal_count=25098 9673 1039 356 313 94 219 51 8634 333 8301 5562 2739 2147 153 94 1800 592 308 59 71 15425 191 15234 14482 752 469 252 147 83
is_linear=0
shrinkage=0.05


Tree=2
num_leaves=31
num_cat=0
split_feature=33 44 5 32 40 27 32 22 43 34 34 31 33 27 32 33 40 29 44 44 44 44 43 3 40 31 40 35 0 42
split_gain=5.37716e-06 1.51486e-05 1.21763e-05 7.42145e-06 5.20277e-06 1.48008e-05 1.5126e-05 8.27926e-06 8.18355e-06 5.34875e-06 5.21341e-06 7.7339e-06 7.93109e-06 7.18148e-06 1.35591e-05 1.11514e-05 8.37884e-06 6.67033e-06 1.14647e-05 1.01091e-05 1.22771e-05 9.6473e-06 8.19891e-06 8.12571e-06 7.84002e-06 7.10485e-06 6.88282e-06 6.94464e-06 6.69938e-06 9.13619e-06
threshold=963.50000000000011 0.12162500247359277 3.5000000000000004 331.84689331054693 0.022794097661972049 0.066687501966953291 328.84112548828131 18609.500000000004 0.0019544956739991908 -3.0283751487731929 -4.7046251296997061 291.19496154785162 971.50000000000011 0.066999997943639769 329.84512329101568 976.50000000000011 0.027509029954671863 496.52400207519537 0.11512500047683717 0.11887500435113908 0.12912500649690631 0.11412500217556955 0.0015266649425029757 21670.500000000004 0.030372694134712223 288.57290649414068 0.028608321212232116 411.43516540527349 502.84751892089849 0.99949884414672863
decision_type=2 2 2 2 2 2 2 2 2 2 2 2 2 2 2 2 2 2 2 2 2 2 2 2 2 2 2 2 2 2
left_child=1 -1 -3 -4 5 6 -2 9 -7 -8 11 12 -6 -13 16 -16 -15 18 21 26 22 23 -21 -14 -22 -23 -19 -28 29 -20
right_child=4 2 3 -5 10 8 7 -9 -10 -11 -12 13 17 14 15 -17 -18 19 28 20 24 25 -24 -25 -26 -27 27 -29 -30 -31
leaf_value=-2.155259637656623e-05 4.0680300286443196e-05 -9.2865817511183736e-07 5.6145256548216616e-05 1.5632521167390221e-05 -9.1012033503734626e-06 -9.7472503823694386e-07 -2.3417376367736628e-05 1.6841177259333988e-05 -3.3474541234309898e-05 6.2020026520518257e-06 8.4418567415614107e-08 -9.2142815094279208e-06 1.9032941643993201e-05 4.7089256661365659e-05 2.3295291986979659e-05 -7.1521013458303614e-06 8.4493996237529733e-06 -1.9701874218285172e-05 -3.1199954022712664e-06 -1.4497832678464691e-06 -3.1764898710403859e-06 5.0775905656526757e-05 6.3048740972866969e-06 -1.0375033768165547e-05 -1.5126102711898664e-05 1.5244167974180848e-05 -8.1264221621256052e-06 2.2174070316049483e-05 1.5004037823993511e-06 7.7399549239846043e-06
leaf_weight=27 44 34 26 20 286 162 27 94 22 35 15129 575 46 20 33 339 47 131 2038 1316 352 24 460 48 225 34 190 21 3079 214
leaf_count=27 44 34 26 20 286 162 27 94 22 35 15129 575 46 20 33 339 47 131 2038 1316 352 24 460 48 225 34 190 21 3079 214
internal_value=-3.53614e-07 1.08311e-05 2.17607e-05 3.8531e-05 -4.01502e-07 5.37359e-06 1.4789e-05 7.48636e-06 -4.86057e-06 -6.69676e-06 -4.91624e-07 -1.41112e-06 -9.16759e-07 -5.5376e-06 -7.21892e-07 -4.45112e-06 1.99837e-05 -6.30533e-07 3.70596e-07 -2.66734e-06 -1.49986e-06 1.39108e-05 5.58743e-07 4.0161e-06 -7.83622e-06 2.9947e-05 -1.06997e-05 -5.11073e-06 -1.54675e-08 -2.08801e-06
internal_weight=25098 107 80 46 24991 384 200 156 184 62 24607 9478 8464 1014 439 372 67 8178 5483 2695 2353 152 1776 94 577 58 342 211 5331 2252
internal_count=25098 107 80 46 24991 384 200 156 184 62 24607 9478 8464 1014 439 372 67 8178 5483 2695 2353 152 1776 94 577 58 342 211 5331 2252
is_linear=0
shrinkage=0.05


Tree=3
num_leaves=31
num_cat=0
split_feature=39 27 32 43 42 27 31 43 3 25 33 44 31 32 39 31 32 35 40 44 32 32 35 37 59 31 26 35 44 36
split_gain=4.88297e-06 1.4119e-05 1.35156e-05 6.62766e-06 6.12545e-06 6.65392e-06 6.47431e-06 5.65329e-06 5.65222e-06 5.26446e-06 6.52191e-06 1.41448e-05 9.10996e-06 7.9382e-06 6.18232e-06 6.26452e-06 6.09768e-06 9.60096e-06 5.66925e-06 8.46596e-06 8.25671e-06 1.26355e-05 1.0011e-05 9.49144e-06 9.0695e-06 8.95754e-06 8.00827e-06 9.35623e-06 8.14069e-06 7.73032e-06
threshold=0.97773471474647533 0.066687501966953291 333.15313720703131 0.0019544956739991908 0.99914115667343151 0.064624998718500151 288.33261108398443 0.0016489196568727495 18609.500000000004 0.0051250001415610322 963.50000000000011 0.12162500247359277 289.73243713378912 331.47462463378912 0.96830189228057872 290.90847778320318 332.44789123535162 408.23484802246099 0.033365234732627876 0.11787500232458116 333.81326293945318 336.62402343750006 408.10632324218756 0.5454905927181245 -1.0000000180025095e-35 288.47506713867193 0.12650000303983691 411.33592224121099 0.12100000306963922 0.646396964788437
decision_type=2 2 2 2 2 2 2 2 2 2 2 2 2 2 2 2 2 2 2 2 2 2 2 2 2 2 2 2 2 2
left_child=9 2 4 -3 5 -2 -7 8 -4 14 11 -11 13 -13 -1 16 -16 -18 -12 -20 22 -22 23 24 -21 -24 28 -28 -23 -25
right_child=1 3 7 -5 -6 6 -8 -9 -10 10 18 12 -14 -15 15 -17 17 -19 19 20 21 26 25 29 -26 -27 27 -29 -30 -31
leaf_value=-1.9411710009582036e-05 3.3366534698696065e-05 -1.2123842675129619e-06 -1.1959850256645318e-05 -3.1056294756126593e-05 4.2627898639914432e-05 2.2379585874432451e-05 -1.301068903956093e-05 -2.5449689082961413e-05 2.2067409414078683e-05 -1.9430225015289931e-05 -6.7566357184719075e-07 2.7792340335619168e-05 5.1310324163620997e-05 -1.1531979439063262e-05 -5.4105080311220991e-06 -2.0707851907983159e-05 3.6745182309914528e-05 -4.5821924999711245e-08 -6.9690894378351427e-06 1.2454645907087913e-05 -6.4570735276880955e-06 2.0245586927447938e-05 3.4594858069349936e-05 5.3297249068038998e-06 -3.0919922846901537e-06 8.0870271167349531e-06 4.8174637778347898e-05 1.0470417164828848e-05 -9.063138187890392e-06 3.147754846513008e-05
leaf_weight=72 39 163 23 21 34 28 24 20 26 26 21125 33 21 21 189 44 25 61 263 108 512 33 47 1117 714 99 21 76 84 29
leaf_count=72 39 163 23 21 34 28 24 20 26 26 21125 33 21 21 189 44 25 61 263 108 512 33 47 1117 714 99 21 76 84 29
internal_value=-3.35933e-07 5.30396e-06 1.47149e-05 -4.61848e-06 2.45201e-05 1.77546e-05 6.04561e-06 -3.04808e-06 6.09543e-06 -4.22175e-07 -3.29673e-07 1.23496e-05 2.33666e-05 1.24995e-05 -6.17785e-06 -3.1909e-06 -3.88188e-07 1.06492e-05 -3.82529e-07 1.61311e-06 2.40787e-06 -2.19256e-06 3.98777e-06 3.05059e-06 -1.04937e-06 1.66204e-05 8.01037e-06 1.86332e-05 -7.96575e-07 5.99141e-06
internal_weight=25098 378 194 184 125 91 52 69 49 24720 24329 101 75 54 391 319 275 86 24228 3103 2840 726 2114 1968 822 146 214 97 117 1146
internal_count=25098 378 194 184 125 91 52 69 49 24720 24329 101 75 54 391 319 275 86 24228 3103 2840 726 2114 1968 822 146 214 97 117 1146
is_linear=0
shrinkage=0.05


end of trees

feature_importances:
Column_44=15
Column_31=13
Column_32=11
Column_33=10
Column_40=10
Column_39=8
Column_35=6
Column_37=6
Column_34=5
Column_43=5
Column_26=4
Column_27=4
Column_3=3
Column_29=3
Column_5=2
Column_25=2
Column_42=2
Column_56=2
Column_0=1
Column_6=1
Column_22=1
Column_36=1
Column_38=1
Column_41=1
Column_48=1
Column_50=1
Column_59=1

parameters:
[boosting: gbdt]
[objective: regression]
[metric: l2]
[tree_learner: serial]
[device_type: gpu]
[data_sample_strategy: bagging]
[data: ]
[valid: ]
[num_iterations: 100]
[learning_rate: 0.05]
[num_leaves: 31]
[num_threads: 0]
[seed: 0]
[deterministic: 0]
[force_col_wise: 1]
[force_row_wise: 0]
[histogram_pool_size: -1]
[max_depth: -1]
[min_data_in_leaf: 20]
[min_sum_hessian_in_leaf: 0.001]
[bagging_fraction: 0.8]
[pos_bagging_fraction: 1]
[neg_bagging_fraction: 1]
[bagging_freq: 5]
[bagging_seed: 3]
[bagging_by_query: 0]
[feature_fraction: 0.8]
[feature_fraction_bynode: 1]
[feature_fraction_seed: 2]
[extra_trees: 0]
[extra_seed: 6]
[early_stopping_round: 0]
[early_stopping_min_delta: 0]
[first_metric_only: 0]
[max_delta_step: 0]
[lambda_l1: 0]
[lambda_l2: 0]
[linear_lambda: 0]
[min_gain_to_split: 0]
[drop_rate: 0.1]
[max_drop: 50]
[skip_drop: 0.5]
[xgboost_dart_mode: 0]
[uniform_drop: 0]
[drop_seed: 4]
[top_rate: 0.2]
[other_rate: 0.1]
[min_data_per_group: 100]
[max_cat_threshold: 32]
[cat_l2: 10]
[cat_smooth: 10]
[max_cat_to_onehot: 4]
[top_k: 20]
[monotone_constraints: ]
[monotone_constraints_method: basic]
[monotone_penalty: 0]
[feature_contri: ]
[forcedsplits_filename: ]
[refit_decay_rate: 0.9]
[cegb_tradeoff: 1]
[cegb_penalty_split: 0]
[cegb_penalty_feature_lazy: ]
[cegb_penalty_feature_coupled: ]
[path_smooth: 0]
[interaction_constraints: ]
[verbosity: -1]
[saved_feature_importance_type: 0]
[use_quantized_grad: 0]
[num_grad_quant_bins: 4]
[quant_train_renew_leaf: 0]
[stochastic_rounding: 1]
[linear_tree: 0]
[max_bin: 255]
[max_bin_by_feature: ]
[min_data_in_bin: 3]
[bin_construct_sample_cnt: 200000]
[data_random_seed: 1]
[is_enable_sparse: 1]
[enable_bundle: 1]
[use_missing: 1]
[zero_as_missing: 0]
[feature_pre_filter: 1]
[pre_partition: 0]
[two_round: 0]
[header: 0]
[label_column: ]
[weight_column: ]
[group_column: ]
[ignore_column: ]
[categorical_feature: ]
[forcedbins_filename: ]
[precise_float_parser: 0]
[parser_config_file: ]
[objective_seed: 5]
[num_class: 1]
[is_unbalance: 0]
[scale_pos_weight: 1]
[sigmoid: 1]
[boost_from_average: 1]
[reg_sqrt: 0]
[alpha: 0.9]
[fair_c: 1]
[poisson_max_delta_step: 0.7]
[tweedie_variance_power: 1.5]
[lambdarank_truncation_level: 30]
[lambdarank_norm: 1]
[label_gain: ]
[lambdarank_position_bias_regularization: 0]
[eval_at: ]
[multi_error_top_k: 1]
[auc_mu_weights: ]
[num_machines: 1]
[local_listen_port: 12400]
[time_out: 120]
[machine_list_filename: ]
[machines: ]
[gpu_platform_id: 0]
[gpu_device_id: 0]
[gpu_use_dp: 0]
[num_gpu: 1]

end of parameters

pandas_categorical:null
