tree
version=v4
num_class=1
num_tree_per_iteration=1
label_index=0
max_feature_idx=61
objective=regression
feature_names=Column_0 Column_1 Column_2 Column_3 Column_4 Column_5 Column_6 Column_7 Column_8 Column_9 Column_10 Column_11 Column_12 Column_13 Column_14 Column_15 Column_16 Column_17 Column_18 Column_19 Column_20 Column_21 Column_22 Column_23 Column_24 Column_25 Column_26 Column_27 Column_28 Column_29 Column_30 Column_31 Column_32 Column_33 Column_34 Column_35 Column_36 Column_37 Column_38 Column_39 Column_40 Column_41 Column_42 Column_43 Column_44 Column_45 Column_46 Column_47 Column_48 Column_49 Column_50 Column_51 Column_52 Column_53 Column_54 Column_55 Column_56 Column_57 Column_58 Column_59 Column_60 Column_61
feature_infos=[502.84750366210938:502.8475341796875] none none [156:63508] none [0:15] [156:63508] none none none none none none none none none none none none none none none [156:63508] none none [0.0025000001769512892:0.014500000514090061] [0.10400000214576721:0.14724999666213989] [0.054875001311302185:0.078499995172023773] [996:999] [479.72601318359375:517.87078857421875] [0:2] [280.6795654296875:296.7630615234375] [317.74127197265625:346.16900634765625] [949:999] [-23.121501922607422:15.023250579833984] [391.48907470703125:420.97940063476562] [0.58931982517242432:0.71408814191818237] [0.40038743615150452:0.69687139987945557] [0:0.0037500001490116119] [0.95465350151062012:0.98273473978042603] [0.017568571493029594:0.047500532120466232] [0.0025000001769512892:0.014500000514090061] [0.99577254056930542:0.99988842010498047] [0.0001115407794713974:0.0042453482747077942] [0.10400000214576721:0.14724999666213989] [156:63508] none none [185:250] none [0:10] [177:250] none none none [0:0.039999999105930328] [0:0.0099999997764825821] none [0:0.017320508137345314] [-0.0070000002160668373:0.0070000002160668373] none none
tree_sizes=613 649 933 928 937 935 830 641 934 918 928 834 925 936 939 918 912 924 933 923 931 930 931 938 918 930 927 639 835 939 932 935 935 929 912 930 944 827 939 921 933 920 939 923 919 929 912 920 935 737 834 932 930 835 925 824 644 938 932 908 942 922 925 932 940 926 926 941 924 921 930 923 836 933 926 840 934 946 907 830 821 941 909 925 936 945 920 943 647 929 932 822 921 920 630 929 924 945 942 932 937 836 932 937 927 907 824 940 914 932 924 628 938 916 955 912 907 927 940 927 917 826 919 940 942 929 921 922 928 934 937 928 947 922 929 935 931 937 924 828 918 823 843 924 827 928 939 818 930 928 821 947 930 832 949 928 640 911 719 935 928 833

Tree=0
num_leaves=5
num_cat=0
split_feature=30 33 32 29
split_gain=1.22528e-05 8.54499e-06 1.68829e-05 8.42722e-06
threshold=1.5000000000000002 964.50000000000011 325.02763366699224 496.00288391113287
decision_type=2 2 2 2
left_child=1 2 -1 -3
right_child=-2 3 -4 -5
leaf_value=0.0012041221205432899 0.001128984979160425 0.0010092282134662879 0.001024363757442723 0.0010039144836039122
leaf_weight=20 29 13872 351 48950
leaf_count=20 29 13872 351 48950
internal_value=0.00100531 0.00100526 0.00103405 0.00100509
internal_weight=63222 63193 371 62822
internal_count=63222 63193 371 62822
is_linear=0
shrinkage=1


Tree=1
num_leaves=5
num_cat=0
split_feature=30 43 32 40
split_gain=8.03301e-06 7.66136e-06 1.03023e-05 7.44994e-06
threshold=1.5000000000000002 0.00074323225999251019 325.02763366699224 0.029177043586969379
decision_type=2 2 2 2
left_child=1 3 -3 -1
right_child=-2 2 -4 -5
leaf_value=8.1405779257213171e-06 0.00010013541730954382 1.427193996175347e-05 -1.7259351277650953e-06 -3.0330187514976458e-07
leaf_weight=7163 29 1505 46503 8022
leaf_count=7163 29 1505 46503 8022
internal_value=-1.46251e-12 -4.59548e-08 -1.22442e-06 3.67981e-06
internal_weight=63222 63193 48008 15185
internal_count=63222 63193 48008 15185
is_linear=0
shrinkage=0.190304


Tree=2
num_leaves=8
num_cat=0
split_feature=37 31 26 26 27 59 34
split_gain=7.42943e-06 9.68605e-06 9.26306e-06 8.81047e-06 9.42051e-06 8.4147e-06 8.07474e-06
threshold=0.51746565103530895 285.06465148925787 0.12812500447034839 0.13812500238418582 0.074250001460313811 0.0024999998277053241 -6.8208751678466788
decision_type=2 2 2 2 2 2 2
left_child=1 2 -1 6 -5 -3 -2
right_child=3 5 -4 4 -6 -7 -8
leaf_value=3.9888427553746972e-05 3.7056450196610784e-06 2.3309707432506541e-06 -1.3436396848804757e-05 -5.4898243949360267e-05 1.212319972237128e-05 4.8136385172838754e-05 -2.128505649660377e-06
leaf_weight=484 11026 12162 156 220 116 147 38911
leaf_count=484 11026 12162 156 220 116 147 38911
internal_value=1.13852e-12 4.06481e-06 2.68905e-05 -1.04699e-06 -3.17599e-05 2.878e-06 -8.40336e-07
internal_weight=63222 12949 640 50273 336 12309 49937
internal_count=63222 12949 640 50273 336 12309 49937
is_linear=0
shrinkage=0.190304


Tree=3
num_leaves=8
num_cat=0
split_feature=43 43 26 34 35 33 26
split_gain=5.96122e-06 1.16143e-05 9.09596e-06 8.57613e-06 6.67852e-06 8.42262e-06 6.38749e-06
threshold=0.00047005666419863706 0.00043521705083549028 0.11512500047683717 -11.19425058364868 396.78874206542974 984.50000000000011 0.13537500053644183
decision_type=2 2 2 2 2 2 2
left_child=1 3 -3 -1 5 -2 -6
right_child=4 2 -4 -5 6 -7 -8
leaf_value=-4.1904535901514168e-05 -6.2255747425995759e-06 0.00012977291794032624 2.1607401590218773e-05 3.5385943549465427e-06 -3.4357829161464523e-07 6.5602620656256058e-05 -1.3396168791173343e-05
leaf_weight=157 113 29 967 3578 56863 124 1391
leaf_count=157 113 29 967 3578 56863 124 1391
internal_value=1.93373e-12 6.49754e-06 2.47568e-05 1.6284e-06 -5.25546e-07 3.13554e-05 -6.55251e-07
internal_weight=63222 4731 996 3735 58491 237 58254
internal_count=63222 4731 996 3735 58491 237 58254
is_linear=0
shrinkage=0.190304


Tree=4
num_leaves=8
num_cat=0
split_feature=33 32 42 25 32 34 27
split_gain=5.82138e-06 8.5848e-06 9.09493e-06 8.54874e-06 8.78442e-06 8.43059e-06 6.28215e-06
threshold=989.50000000000011 338.91149902343756 0.99817854166030895 0.0077500001061707744 338.41238403320318 4.535874843597413 0.063312500715255751
decision_type=2 2 2 2 2 2 2
left_child=1 6 -3 4 -2 -5 -1
right_child=3 2 -4 5 -6 -7 -8
leaf_value=-8.3654585004171057e-06 7.585538028223559e-06 6.8603458402817922e-05 9.9647647364161531e-06 -1.830655909734293e-06 -2.4506333372873451e-05 2.2308028032680256e-05 -8.9152328717452144e-07
leaf_weight=4613 9756 113 629 12458 319 547 34787
leaf_count=4613 9756 113 629 12458 319 547 34787
internal_value=-1.33129e-12 -1.38467e-06 1.88949e-05 2.40828e-06 6.56943e-06 -8.15365e-07 -1.76658e-06
internal_weight=63222 40142 742 23080 10075 13005 39400
internal_count=63222 40142 742 23080 10075 13005 39400
is_linear=0
shrinkage=0.190304


Tree=5
num_leaves=8
num_cat=0
split_feature=39 31 43 27 43 26 37
split_gain=5.53916e-06 1.12745e-05 1.22002e-05 7.89233e-06 5.05171e-06 8.00114e-06 7.30663e-06
threshold=0.97566860914230358 285.32502746582037 0.00045192148536443716 0.062625002115964903 0.0011769740376621487 0.11187500506639482 0.5036543905735017
decision_type=2 2 2 2 2 2 2
left_child=4 3 -3 -2 5 -1 -6
right_child=1 2 -4 -5 6 -7 -8
leaf_value=3.8271821687370821e-05 -6.6573216809047293e-05 4.0421986489962524e-05 1.4152086240315257e-06 5.5235663444240838e-05 6.9629933709493786e-06 8.2693189774751669e-07 -3.5759382021239398e-06
leaf_weight=208 21 311 4382 233 2654 32131 23282
leaf_count=208 21 311 4382 233 2654 32131 23282
internal_value=5.20714e-13 6.11372e-06 4.00015e-06 4.51649e-05 -5.18997e-07 1.06777e-06 -2.4975e-06
internal_weight=63222 4947 4693 254 58275 32339 25936
internal_count=63222 4947 4693 254 58275 32339 25936
is_linear=0
shrinkage=0.190304


Tree=6
num_leaves=7
num_cat=0
split_feature=33 32 31 59 39 39
split_gain=5.62044e-06 1.05879e-05 1.17058e-05 5.60958e-06 1.02607e-05 5.61633e-06
threshold=964.50000000000011 325.02763366699224 289.32791137695318 -0.00099999998928979018 0.97608637809753429 0.97574725747108471
decision_type=2 2 2 2 2 2
left_child=1 -1 -3 4 -2 -5
right_child=3 2 -4 5 -6 -7
leaf_value=0.00015801317400954872 -4.0667575269241672e-06 -5.7340125744648099e-06 7.193781003612696e-05 -1.2788797853859923e-07 -4.1015096772633668e-05 7.0355894390711621e-06
leaf_weight=20 4960 255 97 53320 288 4282
leaf_count=20 4960 255 97 53320 288 4282
internal_value=-6.23883e-15 2.33227e-05 1.56699e-05 -1.38044e-07 -6.09441e-06 4.04628e-07
internal_weight=63222 372 352 62850 5248 57602
internal_count=63222 372 352 62850 5248 57602
is_linear=0
shrinkage=0.190304


Tree=7
num_leaves=5
num_cat=0
split_feature=30 29 33 34
split_gain=5.29441e-06 5.00252e-06 1.61028e-05 5.92829e-06
threshold=1.5000000000000002 498.82575988769537 960.50000000000011 1.3648750185966494
decision_type=2 2 2 2
left_child=1 2 -1 -3
right_child=-2 3 -4 -5
leaf_value=0.00011436860020592995 8.1293804554603721e-05 -3.0442370204340515e-06 1.6806073391059631e-06 2.5110956336485114e-06
leaf_weight=46 29 25749 27866 9532
leaf_count=46 29 25749 27866 9532
internal_value=-2.43683e-13 -3.73069e-08 1.86632e-06 -1.54333e-06
internal_weight=63222 63193 27912 35281
internal_count=63222 63193 27912 35281
is_linear=0
shrinkage=0.190304


Tree=8
num_leaves=8
num_cat=0
split_feature=37 32 39 25 40 26 56
split_gain=4.59347e-06 1.21758e-05 7.6853e-06 7.27009e-06 7.09442e-06 5.25817e-06 5.25051e-06
threshold=0.60619774460792553 330.38888549804693 0.97743645310401928 0.010500000324100258 0.037522818893194206 0.12037500366568567 0.0019999999785795812
decision_type=2 2 2 2 2 2 2
left_child=4 3 -3 -2 5 -1 -6
right_child=1 2 -4 -5 6 -7 -8
leaf_value=-3.0970434714673962e-06 -1.9282445158865688e-05 2.8304896118504519e-06 -8.9682976971319558e-05 -9.7244326307926296e-05 -9.1471647074507802e-06 1.4791233693092326e-06 -4.7835363871552449e-05
leaf_weight=11226 1159 2234 33 45 486 47867 172
leaf_count=11226 1159 2234 33 45 486 47867 172
internal_value=1.67729e-13 -6.73021e-06 1.4838e-06 -2.21963e-05 3.90966e-07 6.09781e-07 -1.92602e-05
internal_weight=63222 3471 2267 1204 59751 59093 658
internal_count=63222 3471 2267 1204 59751 59093 658
is_linear=0
shrinkage=0.190304


Tree=9
num_leaves=8
num_cat=0
split_feature=33 35 32 35 36 5 39
split_gain=3.99805e-06 7.91722e-06 8.99386e-06 6.38595e-06 1.22189e-05 5.41826e-06 3.05741e-06
threshold=989.50000000000011 396.78874206542974 324.03425598144537 413.70918273925787 0.61956045031547557 4.5000000000000009 0.9705638885498048
decision_type=2 2 2 2 2 2 2
left_child=3 6 -3 5 -5 -1 -2
right_child=1 2 -4 4 -6 -7 -8
leaf_value=-3.1365703492259525e-06 9.7102505947162055e-06 -3.4315583463698213e-05 2.1947034176699052e-06 -0.00011110169384218319 2.4992042044310965e-05 1.478055381346508e-06 9.4688078820830002e-05
leaf_weight=24976 23 247 22764 25 539 14602 46
leaf_count=24976 23 247 22764 25 539 14602 46
internal_value=2.97772e-13 1.99581e-06 1.8028e-06 -1.14751e-06 1.89595e-05 -1.43404e-06 6.63621e-05
internal_weight=63222 23080 23011 40142 564 39578 69
internal_count=63222 23080 23011 40142 564 39578 69
is_linear=0
shrinkage=0.190304


Tree=10
num_leaves=8
num_cat=0
split_feature=31 25 36 33 35 27 43
split_gain=3.81563e-06 7.73871e-06 6.57741e-06 6.25521e-06 5.02503e-06 1.30454e-05 4.93685e-06
threshold=285.06465148925787 0.0096250004135072249 0.65497171878814708 963.50000000000011 396.78874206542974 0.064250003546476378 0.00095040322048589598
decision_type=2 2 2 2 2 2 2
left_child=1 3 -3 -1 5 -2 -6
right_child=4 2 -4 -5 6 -7 -8
leaf_value=0.00011464162835255502 -7.7290337416799674e-05 -4.2099479640668747e-05 1.5765739210727595e-05 1.0275959084903287e-05 1.7171574783050165e-06 5.4790429679453526e-05 -1.7929620917912226e-06
leaf_weight=21 33 195 112 2162 24118 151 36430
leaf_count=21 33 195 112 2162 24118 151 36430
internal_value=4.87224e-13 7.30139e-06 -2.0989e-05 1.12799e-05 -2.99355e-07 3.1102e-05 -3.94781e-07
internal_weight=63222 2490 307 2183 60732 184 60548
internal_count=63222 2490 307 2183 60732 184 60548
is_linear=0
shrinkage=0.190304


Tree=11
num_leaves=7
num_cat=0
split_feature=59 39 29 42 30 26
split_gain=3.77133e-06 6.73009e-06 6.42303e-06 6.30607e-06 4.94836e-06 4.64798e-06
threshold=-0.00099999998928979018 0.97608637809753429 493.80963134765631 0.99960517883300792 1.5000000000000002 0.13362500816583636
decision_type=2 2 2 2 2 2
left_child=1 3 -3 -1 5 -2
right_child=4 2 -4 -5 -6 -7
leaf_value=-1.840434778676961e-06 7.9235555562034528e-07 3.6739075810042822e-05 -4.4548543069228606e-05 -3.6168103383932407e-05 8.1893891195654745e-05 -7.1010355094587296e-06
leaf_weight=4777 55085 41 249 202 27 2841
leaf_count=4777 55085 41 249 202 27 2841
internal_value=3.78615e-16 -4.87455e-06 -3.30562e-05 -3.23312e-06 4.43187e-07 4.05222e-07
internal_weight=63222 5269 290 4979 57953 57926
internal_count=63222 5269 290 4979 57953 57926
is_linear=0
shrinkage=0.190304


Tree=12
num_leaves=8
num_cat=0
split_feature=31 40 34 5 34 33 31
split_gain=3.57279e-06 7.71897e-06 8.20347e-06 7.94898e-06 4.07544e-06 7.29431e-06 5.98376e-06
threshold=291.79557800292974 0.033858627080917365 -13.190749645233153 1.5000000000000002 -3.6783750057220455 961.50000000000011 290.63088989257818
decision_type=2 2 2 2 2 2 2
left_child=4 2 -2 -3 5 -1 -6
right_child=1 3 -4 -5 6 -7 -8
leaf_value=6.7240605836954687e-05 8.2944723492194185e-05 6.4949860301743612e-05 -3.7237909765672212e-06 -3.8597261017920545e-05 -2.0640390084554493e-06 1.893683038913671e-06 6.2381919639943477e-06
leaf_weight=62 40 29 3532 362 27731 27920 3546
leaf_count=62 40 29 3532 362 27731 27920 3546
internal_value=1.20843e-13 -5.532e-06 -2.75326e-06 -3.09173e-05 3.69957e-07 2.03847e-06 -1.12278e-06
internal_weight=63222 3963 3572 391 59259 27982 31277
internal_count=63222 3963 3572 391 59259 27982 31277
is_linear=0
shrinkage=0.190304


Tree=13
num_leaves=8
num_cat=0
split_feature=37 56 43 43 36 3 39
split_gain=3.46986e-06 7.25893e-06 9.37435e-06 6.75509e-06 5.06339e-06 6.60181e-06 4.10783e-06
threshold=0.51746565103530895 0.0039999999571591624 0.00037626561243087059 0.00042706949170678859 0.65838536620140087 34254.000000000007 0.97559282183647167
decision_type=2 2 2 2 2 2 2
left_child=1 2 -1 -3 6 -6 -2
right_child=4 3 -4 -5 5 -7 -8
leaf_value=2.8590737204748492e-05 -9.8054692014384115e-07 -5.2758769347279391e-05 6.0128555506065992e-07 2.4834846426617418e-05 7.3864918088667477e-05 -2.0424266997484739e-05 5.5973126263237026e-06
leaf_weight=450 45848 43 11718 738 28 680 3717
leaf_count=450 45848 43 11718 738 28 680 3717
internal_value=-4.0449e-14 2.77791e-06 1.6364e-06 2.05627e-05 -7.15517e-07 -1.66953e-05 -4.87257e-07
internal_weight=63222 12949 12168 781 50273 708 49565
internal_count=63222 12949 12168 781 50273 708 49565
is_linear=0
shrinkage=0.190304


Tree=14
num_leaves=8
num_cat=0
split_feature=32 35 43 26 25 35 3
split_gain=2.99352e-06 8.60711e-06 9.44528e-06 8.9825e-06 7.42858e-06 8.14588e-06 6.47544e-06
threshold=333.98352050781256 407.87669372558599 0.0014829098945483567 0.12037500366568567 0.0058750002644956121 410.15969848632818 14167.000000000002
decision_type=2 2 2 2 2 2 2
left_child=1 3 -3 -1 5 -2 -6
right_child=4 2 -4 -5 6 -7 -8
leaf_value=-5.8220434466563961e-06 -3.5295581909858739e-05 1.3478299937402399e-05 -5.3678573376840346e-06 1.2193419067478283e-06 9.9688681944103615e-05 -7.5055391215114081e-07 -1.3668523051006913e-06
leaf_weight=8092 501 3533 1324 34680 23 488 14581
leaf_count=8092 501 3533 1324 34680 23 488 14581
internal_value=2.68497e-14 7.49262e-07 8.34091e-06 -1.12812e-07 -2.28863e-06 -1.82501e-05 -1.2077e-06
internal_weight=63222 47629 4857 42772 15593 989 14604
internal_count=63222 47629 4857 42772 15593 989 14604
is_linear=0
shrinkage=0.190304


Tree=15
num_leaves=8
num_cat=0
split_feature=30 48 34 27 35 31 37
split_gain=3.33145e-06 1.01507e-05 1.09196e-05 7.76563e-06 3.25811e-06 5.76697e-06 3.25206e-06
threshold=1.0000000180025095e-35 227.00000000000003 2.4726251363754277 0.064687497913837447 398.10194396972662 288.54396057128912 0.46369671821594244
decision_type=2 2 2 2 2 2 2
left_child=4 3 -3 -2 5 -1 -6
right_child=1 2 -4 -5 6 -7 -8
leaf_value=1.9115725629932161e-05 -6.7478556545221347e-05 1.3703068374441377e-05 8.2776409080709758e-05 -5.4217502253751832e-07 -1.5873669852782683e-05 -3.027635405171287e-05 -2.1254608050660723e-07
leaf_weight=633 85 701 94 240 484 99 60886
leaf_count=633 85 701 94 240 484 99 60886
internal_value=-1.1897e-13 1.02866e-05 2.18702e-05 -1.80486e-05 -1.85518e-07 1.24356e-05 -3.36059e-07
internal_weight=63222 1120 795 325 62102 732 61370
internal_count=63222 1120 795 325 62102 732 61370
is_linear=0
shrinkage=0.190304


Tree=16
num_leaves=8
num_cat=0
split_feature=26 42 26 36 26 26 41
split_gain=3.01148e-06 9.19864e-06 1.08699e-05 4.90085e-06 4.49488e-06 8.32722e-06 6.67166e-06
threshold=0.13812500238418582 0.9985637664794923 0.1383750066161156 0.63180607557296764 0.13675000518560412 0.13550000637769702 0.0098749999888241308
decision_type=2 2 2 2 2 2 2
left_child=4 3 -3 -2 5 -1 -6
right_child=1 2 -4 -5 6 -7 -8
leaf_value=1.9898259390779243e-07 1.033878193596258e-05 -8.7899683280985902e-05 1.5334815989318841e-05 -8.564252439855498e-05 1.3105395887499831e-05 -2.1895662302172045e-05 0.00010504274108474728
leaf_weight=61786 25 43 262 84 367 624 31
leaf_count=61786 25 43 262 84 367 624 31
internal_value=-2.61902e-13 -1.61775e-05 7.80444e-07 -6.36285e-05 1.06634e-07 -2.19285e-08 2.02663e-05
internal_weight=63222 414 305 109 62808 62410 398
internal_count=63222 414 305 109 62808 62410 398
is_linear=0
shrinkage=0.190304


Tree=17
num_leaves=8
num_cat=0
split_feature=36 35 33 5 39 37 36
split_gain=2.8768e-06 8.89292e-06 8.76027e-06 7.27558e-06 4.91392e-06 5.05065e-06 4.46904e-06
threshold=0.62540239095687877 402.97567749023443 972.50000000000011 2.5000000000000004 0.9642581343650819 0.57897675037384044 0.63575175404548656
decision_type=2 2 2 2 2 2 2
left_child=1 2 -1 -3 5 -2 -6
right_child=4 3 -4 -5 6 -7 -8
leaf_value=4.2990943306554769e-05 -6.9158313453413259e-06 1.312449236359877e-05 -2.714569813297547e-05 -5.3185938252738789e-06 4.3000721773271232e-06 -4.4500188022676297e-05 -1.7256169781169883e-07
leaf_weight=70 679 1038 820 3053 9745 160 47657
leaf_count=70 679 1038 820 3053 9745 160 47657
internal_value=1.03698e-14 -4.38959e-06 -2.16293e-05 -6.39072e-07 3.75415e-07 -1.40833e-05 5.86747e-07
internal_weight=63222 4981 890 4091 58241 839 57402
internal_count=63222 4981 890 4091 58241 839 57402
is_linear=0
shrinkage=0.190304


Tree=18
num_leaves=8
num_cat=0
split_feature=33 41 58 35 34 37 31
split_gain=2.79267e-06 6.95875e-06 1.01846e-05 6.51268e-06 6.30915e-06 1.19979e-05 5.98584e-06
threshold=982.50000000000011 0.010875000152736904 0.0054772256407886752 413.70918273925787 4.0107500553131112 0.48051589727401739 292.46766662597662
decision_type=2 2 2 2 2 2 2
left_child=1 3 -3 -1 6 -6 -2
right_child=4 2 -4 -5 5 -7 -8
leaf_value=-1.8067371189065219e-06 6.9811392040816255e-07 -3.3710342841758429e-05 9.4006976348082495e-05 3.0630157670710441e-05 9.6648554117268495e-05 8.2630821394361629e-06 -1.2067542494825783e-05
leaf_weight=17975 40874 391 24 227 57 2299 1375
leaf_count=17975 40874 391 24 227 57 2299 1375
internal_value=5.31079e-15 -1.95776e-06 -2.63243e-05 -1.40221e-06 8.1712e-07 1.04014e-05 2.82654e-07
internal_weight=63222 18617 415 18202 44605 2356 42249
internal_count=63222 18617 415 18202 44605 2356 42249
is_linear=0
shrinkage=0.190304


Tree=19
num_leaves=8
num_cat=0
split_feature=59 36 40 5 41 38 32
split_gain=2.62859e-06 4.90844e-06 4.83216e-06 3.91439e-06 1.08903e-05 3.82524e-06 2.87916e-06
threshold=-0.00099999998928979018 0.61248689889907848 0.032629624009132392 10.500000000000002 0.010375000070780517 0.0025000000605359678 331.80938720703131
decision_type=2 2 2 2 2 2 2
left_child=1 6 -3 5 -5 -2 -1
right_child=3 2 -4 4 -6 -7 -8
leaf_value=-2.126369858021255e-05 3.8128504304509636e-07 -6.1921759071943658e-06 8.9588444684127418e-06 -8.8951274130699903e-06 0.00010424497247055337 -2.7559344837904212e-05 -0.00011288988935845629
leaf_weight=27 57643 4292 927 83 49 178 23
leaf_count=27 57643 4292 927 83 49 178 23
internal_value=1.49078e-14 -4.06957e-06 -3.50105e-06 3.69999e-07 3.31038e-05 2.95271e-07 -6.34117e-05
internal_weight=63222 5269 5219 57953 132 57821 50
internal_count=63222 5269 5219 57953 132 57821 50
is_linear=0
shrinkage=0.190304


Tree=20
num_leaves=8
num_cat=0
split_feature=38 40 5 36 34 3 3
split_gain=2.57937e-06 8.63103e-06 1.01309e-05 8.52057e-06 4.92127e-06 8.14587e-06 4.51393e-06
threshold=0.0012500000302679839 0.029240244999527935 5.5000000000000009 0.63291612267494213 -14.470625877380369 42271.500000000007 14193.500000000002
decision_type=2 2 2 2 2 2 2
left_child=4 2 -2 -3 5 -1 -6
right_child=1 3 -4 -5 6 -7 -8
leaf_value=8.2469072644284359e-05 1.573897554059342e-05 -1.2979761279763614e-05 1.966703864475876e-06 7.5450933468847168e-07 3.1637552833081832e-05 7.7876302389084449e-06 -1.1075102004943777e-06
leaf_weight=65 2732 2052 6625 8067 153 284 43244
leaf_count=65 2732 2052 6625 8067 153 284 43244
internal_value=3.35156e-14 1.82175e-06 5.98785e-06 -2.03062e-06 -8.11056e-07 2.16968e-05 -9.92065e-07
internal_weight=63222 19476 9357 10119 43746 349 43397
internal_count=63222 19476 9357 10119 43746 349 43397
is_linear=0
shrinkage=0.190304


Tree=21
num_leaves=8
num_cat=0
split_feature=43 25 35 42 25 55 31
split_gain=2.36947e-06 8.43498e-06 1.54569e-05 6.36804e-06 3.28318e-06 5.21363e-06 3.13008e-06
threshold=0.00047005666419863706 0.0056250002235174188 402.86651611328131 0.99965220689773571 0.01262499997392297 1.0000000180025095e-35 285.06465148925787
decision_type=2 2 2 2 2 2 2
left_child=1 2 -1 -3 6 -6 -2
right_child=4 3 -4 -5 5 -7 -8
leaf_value=0.00018618501166974572 6.5969146124985775e-06 7.7401135684130987e-06 2.2732318447541908e-05 -7.1541122047246592e-06 -0.00010909142189482699 -1.1418626334903964e-06 -5.6439290098019068e-07
leaf_weight=24 2301 2931 165 1611 26 43 56121
leaf_count=24 2301 2931 165 1611 26 43 56121
internal_value=6.26475e-15 4.09644e-06 4.34882e-05 2.45729e-06 -3.31338e-07 -4.18185e-05 -2.82339e-07
internal_weight=63222 4731 189 4542 58491 69 58422
internal_count=63222 4731 189 4542 58491 69 58422
is_linear=0
shrinkage=0.190304


Tree=22
num_leaves=8
num_cat=0
split_feature=39 37 26 37 29 32 32
split_gain=2.28713e-06 9.70883e-06 1.09251e-05 7.54545e-06 3.83891e-06 8.82615e-06 4.44198e-06
threshold=0.9766199290752412 0.57948106527328502 0.11987500265240671 0.58116456866264354 495.74914550781256 325.02763366699224 336.58950805664068
decision_type=2 2 2 2 2 2 2
left_child=4 2 -2 -3 5 -1 -6
right_child=1 3 -4 -5 6 -7 -8
leaf_value=3.2032348452067982e-05 -1.915506622956956e-05 -0.00012766419264470221 1.6113270750037197e-05 -1.8032156999959633e-05 -1.5257003872566017e-06 1.8744029815023815e-06 5.3055686288381507e-06
leaf_weight=362 386 25 1808 251 44596 12058 3736
leaf_count=362 386 25 1808 251 44596 12058 3736
internal_value=-1.11572e-13 5.67662e-06 9.90836e-06 -2.79626e-05 -2.30795e-07 2.7534e-06 -9.97652e-07
internal_weight=63222 2470 2194 276 60752 12420 48332
internal_count=63222 2470 2194 276 60752 12420 48332
is_linear=0
shrinkage=0.190304


Tree=23
num_leaves=8
num_cat=0
split_feature=32 32 58 25 25 42 31
split_gain=2.37248e-06 7.09424e-06 1.16157e-05 5.02096e-06 5.01855e-06 8.29259e-06 5.71201e-06
threshold=333.98352050781256 333.60162353515631 0.0049746807198971519 0.012124999891966583 0.0058750002644956121 0.99921375513076793 286.42973327636724
decision_type=2 2 2 2 2 2 2
left_child=1 3 -3 -1 5 -2 -6
right_child=4 2 -4 -5 6 -7 -8
leaf_value=2.6434362712314395e-07 -2.5672124107010216e-05 6.8440828167992897e-06 5.5013778189378838e-05 -3.5327385663021167e-05 1.4684667204315448e-05 1.3720905455082596e-05 -2.0435947370091751e-06
leaf_weight=45248 725 2038 199 144 781 264 13823
leaf_count=45248 725 2038 199 144 781 264 13823
internal_value=5.7644e-14 6.67028e-07 1.11292e-05 1.51434e-07 -2.03744e-06 -1.51567e-05 -1.14899e-06
internal_weight=63222 47629 2237 45392 15593 989 14604
internal_count=63222 47629 2237 45392 15593 989 14604
is_linear=0
shrinkage=0.190304


Tree=24
num_leaves=8
num_cat=0
split_feature=37 42 26 31 36 34 36
split_gain=2.25389e-06 4.85996e-06 6.9037e-06 5.7735e-06 4.67679e-06 9.74918e-06 3.23929e-06
threshold=0.46369671821594244 0.99921935796737682 0.12525000423192981 288.81219482421881 0.67768684029579174 -7.7673749923706046 0.67182374000549328
decision_type=2 2 2 2 2 2 2
left_child=1 2 -1 -3 6 -6 -2
right_child=4 3 -4 -5 5 -7 -8
leaf_value=-4.9613476890210814e-05 1.5510520968907433e-07 -1.2028001892463905e-05 2.6720394727087976e-06 7.0351020684573742e-05 -3.1540801403462336e-05 2.5339602844593915e-05 -8.1829669636077283e-06
leaf_weight=187 60247 83 179 49 133 608 1736
leaf_count=187 60247 83 179 49 133 608 1736
internal_value=-6.95046e-14 -1.27521e-05 -2.40421e-05 1.85521e-05 1.01246e-07 1.51303e-05 -7.84248e-08
internal_weight=63222 498 366 132 62724 741 61983
internal_count=63222 498 366 132 62724 741 61983
is_linear=0
shrinkage=0.190304


Tree=25
num_leaves=8
num_cat=0
split_feature=37 50 29 30 3 35 26
split_gain=2.2534e-06 6.5839e-06 7.76239e-06 7.20698e-06 3.6935e-06 1.51712e-05 4.97995e-06
threshold=0.51746565103530895 4.0000000000000009 488.36677551269537 1.0000000180025095e-35 34146.000000000007 399.10523986816412 0.13512500375509265
decision_type=2 2 2 2 2 2 2
left_child=1 3 -3 -1 5 -2 -6
right_child=4 2 -4 -5 6 -7 -8
leaf_value=-1.3628156700005368e-06 0.00010646471378366893 9.7719300097209863e-05 7.7186703525711191e-06 4.5027960862904793e-05 4.7727653836782188e-08 -1.2151612122004917e-05 -1.1851543056215257e-05
leaf_weight=8666 40 35 4125 123 47279 1645 1309
leaf_count=8666 40 35 4125 123 47279 1645 1309
internal_value=2.8368e-14 2.23863e-06 8.47589e-06 -7.13588e-07 -5.76611e-07 -9.33579e-06 -2.72848e-07
internal_weight=63222 12949 4160 8789 50273 1685 48588
internal_count=63222 12949 4160 8789 50273 1685 48588
is_linear=0
shrinkage=0.190304


Tree=26
num_leaves=8
num_cat=0
split_feature=33 55 42 36 3 29 48
split_gain=2.15602e-06 6.27872e-06 1.3412e-05 6.07289e-06 4.21187e-06 1.01458e-05 4.05335e-06
threshold=989.50000000000011 0.014999999664723875 0.99745965003967296 0.62937548756599437 14193.500000000002 496.95449829101568 215.50000000000003
decision_type=2 2 2 2 2 2 2
left_child=4 3 -3 -2 5 -1 -6
right_child=1 2 -4 -5 6 -7 -8
leaf_value=0.00010775092337756461 -6.2787704406254248e-06 0.00011945897115467374 -2.6273081419316094e-05 3.1234541311570704e-06 -9.1924001421101331e-06 -3.35569310114843e-06 -5.1081191565758489e-07
leaf_weight=44 2847 24 486 19723 2053 92 37953
leaf_count=44 2847 24 486 19723 2053 92 37953
internal_value=-1.80495e-14 1.46562e-06 -1.94151e-05 1.93745e-06 -8.42672e-07 3.25906e-05 -9.56328e-07
internal_weight=63222 23080 510 22570 40142 136 40006
internal_count=63222 23080 510 22570 40142 136 40006
is_linear=0
shrinkage=0.190304


Tree=27
num_leaves=5
num_cat=0
split_feature=30 33 38 43
split_gain=1.93721e-06 1.9598e-06 7.39979e-06 2.00333e-06
threshold=1.5000000000000002 964.50000000000011 0.0012500000302679839 0.0019959243945777421
decision_type=2 2 2 2
left_child=1 2 -1 -3
right_child=-2 3 -4 -5
leaf_value=-2.5580257543372893e-06 4.917415134253639e-05 -5.0393528394668652e-07 5.8012184864471732e-05 2.7837092500847427e-06
leaf_weight=271 29 55180 100 7642
leaf_count=271 29 55180 100 7642
internal_value=1.6085e-14 -2.25666e-08 1.37682e-05 -1.04009e-07
internal_weight=63222 63193 371 62822
internal_count=63222 63193 371 62822
is_linear=0
shrinkage=0.190304


Tree=28
num_leaves=7
num_cat=0
split_feature=43 50 59 43 31 39
split_gain=1.98325e-06 1.4061e-05 7.62687e-06 4.0192e-06 1.02024e-05 3.87182e-06
threshold=0.0027404585853219037 9.5000000000000018 0.0029999999096617107 0.0019959243945777421 293.04495239257818 0.9766199290752412
decision_type=2 2 2 2 2 2
left_child=3 2 -2 5 -5 -1
right_child=1 -3 -4 4 -6 -7
leaf_value=-6.2137826300637384e-07 -9.4938411995882649e-06 0.00010721709048843725 0.00010074626080403183 6.0534922976291888e-06 -5.6513801112461158e-05 7.6136134460191481e-06
leaf_weight=53380 1922 39 23 5611 96 2151
leaf_count=53380 1922 39 23 5611 96 2151
internal_value=-1.64462e-14 -5.92164e-06 -8.19023e-06 1.9185e-07 5.00102e-06 -3.02395e-07
internal_weight=63222 1984 1945 61238 5707 55531
internal_count=63222 1984 1945 61238 5707 55531
is_linear=0
shrinkage=0.190304


Tree=29
num_leaves=8
num_cat=0
split_feature=43 30 32 39 43 27 50
split_gain=1.79361e-06 5.80961e-06 9.92931e-06 5.13418e-06 4.52011e-06 1.30305e-05 4.24153e-06
threshold=0.00095040322048589598 1.0000000180025095e-35 336.22389221191412 0.97907397150993358 0.00098145264200866244 0.062125002965331085 9.5000000000000018
decision_type=2 2 2 2 2 2 2
left_child=1 3 -3 -1 5 -2 -6
right_child=4 2 -4 -5 6 -7 -8
leaf_value=1.0377281703507546e-06 -8.0868752884389041e-05 1.5074296300009629e-05 0.0001254313825297027 -4.4752233859101132e-05 -6.7995603172230587e-07 -6.5576534797512007e-06 1.4854714640573464e-05
leaf_weight=24646 91 382 32 89 35931 1403 648
leaf_count=24646 91 382 32 89 35931 1403 648
internal_value=-6.85321e-14 1.24717e-06 2.36043e-05 8.72969e-07 -8.23814e-07 -1.1084e-05 -4.04758e-07
internal_weight=63222 25149 414 24735 38073 1494 36579
internal_count=63222 25149 414 24735 38073 1494 36579
is_linear=0
shrinkage=0.190304


Tree=30
num_leaves=8
num_cat=0
split_feature=59 39 39 42 39 39 5
split_gain=1.79521e-06 5.57756e-06 4.76534e-06 4.58668e-06 2.75814e-06 6.47812e-06 3.25647e-06
threshold=-0.00099999998928979018 0.97608637809753429 0.97628474235534679 0.99667304754257213 0.96632078289985668 0.96594145894050609 10.500000000000002
decision_type=2 2 2 2 2 2 2
left_child=1 3 -3 -1 5 -2 -6
right_child=4 2 -4 -5 6 -7 -8
leaf_value=6.4884915346555332e-05 -8.1764407519418497e-07 -0.00010220251570816655 -2.0886892331890321e-05 -2.3686276278135883e-06 5.6422885366788546e-07 -2.1609973459016733e-05 3.1563979439565323e-05
leaf_weight=37 2735 29 261 4942 54418 677 123
leaf_count=37 2735 29 261 4942 54418 677 123
internal_value=-1.69314e-14 -3.36314e-06 -2.90185e-05 -1.86885e-06 3.05771e-07 -4.9432e-06 6.34139e-07
internal_weight=63222 5269 290 4979 57953 3412 54541
internal_count=63222 5269 290 4979 57953 3412 54541
is_linear=0
shrinkage=0.190304


Tree=31
num_leaves=8
num_cat=0
split_feature=44 35 32 42 31 25 3
split_gain=1.76342e-06 5.88625e-06 6.64108e-06 5.42159e-06 4.38744e-06 7.41546e-06 5.66373e-06
threshold=0.1278750076889992 415.46919250488287 335.99913024902349 0.9986284375190736 286.76330566406256 0.0072500000242143878 34146.000000000007
decision_type=2 2 2 2 2 2 2
left_child=4 2 -2 -3 5 -1 -6
right_child=1 3 -4 -5 6 -7 -8
leaf_value=5.5429581423957407e-06 -2.6010279181325048e-06 -0.00013327201271550566 9.4838105328934311e-06 -1.7317709119187849e-05 -1.0987485380201257e-05 -7.204189660562007e-06 1.9492185209689042e-06
leaf_weight=2349 16294 23 1832 40 1269 5576 35839
leaf_count=2349 16294 23 1832 40 1269 5576 35839
internal_value=-3.01207e-14 -1.58144e-06 -1.37961e-06 -5.96502e-05 6.38749e-07 -3.42589e-06 1.50682e-06
internal_weight=63222 18189 18126 63 45033 7925 37108
internal_count=63222 18189 18126 63 45033 7925 37108
is_linear=0
shrinkage=0.190304


Tree=32
num_leaves=8
num_cat=0
split_feature=32 37 25 26 35 31 26
split_gain=2.00575e-06 5.13455e-06 9.47049e-06 9.02915e-06 4.88343e-06 8.39932e-06 5.68122e-06
threshold=333.98352050781256 0.54650101065635692 0.0096250004135072249 0.11100000515580179 407.87669372558599 293.25457763671881 0.12037500366568567
decision_type=2 2 2 2 2 2 2
left_child=4 2 -2 -3 6 -6 -1
right_child=1 3 -4 -5 5 -7 -8
leaf_value=-4.5764982941961187e-06 -8.0109662755565707e-06 9.6552235646878644e-05 1.2372568400894263e-05 1.0332314809556429e-06 7.4965110367496105e-06 -4.7432925050477627e-05 1.0234027667723806e-06
leaf_weight=8092 6575 36 944 8038 4754 103 34680
leaf_count=8092 6575 36 944 8038 4754 103 34680
internal_value=3.76358e-14 -1.87337e-06 -5.45184e-06 1.45913e-06 6.13311e-07 6.33165e-06 -3.6038e-08
internal_weight=63222 15593 7519 8074 47629 4857 42772
internal_count=63222 15593 7519 8074 47629 4857 42772
is_linear=0
shrinkage=0.190304


Tree=33
num_leaves=8
num_cat=0
split_feature=34 32 55 31 29 34 26
split_gain=1.65522e-06 6.15509e-06 6.13569e-06 4.93618e-06 2.23535e-06 8.79187e-06 5.08206e-06
threshold=5.1868751049041757 336.90539550781256 1.0000000180025095e-35 289.61213684082037 498.82575988769537 -4.2688751220703116 0.13675000518560412
decision_type=2 2 2 2 2 2 2
left_child=4 2 -2 -3 5 -1 -6
right_child=1 3 -4 -5 6 -7 -8
leaf_value=3.1935130894481876e-07 1.1691309276071943e-05 -8.7951861533310871e-07 -1.0833832575772088e-05 7.5718136805422143e-05 -1.494147686572146e-06 1.6023580582510672e-05 1.9305354776863543e-05
leaf_weight=26564 1088 50 733 78 32921 1357 431
leaf_count=26564 1088 50 733 78 32921 1357 431
internal_value=4.57886e-14 5.45971e-06 2.62435e-06 4.57972e-05 -1.73665e-07 1.0826e-06 -1.22536e-06
internal_weight=63222 1949 1821 128 61273 27921 33352
internal_count=63222 1949 1821 128 61273 27921 33352
is_linear=0
shrinkage=0.190304


Tree=34
num_leaves=8
num_cat=0
split_feature=26 35 39 42 27 0 26
split_gain=2.17057e-06 8.0766e-06 8.55922e-06 6.51188e-06 4.84661e-06 1.12347e-05 6.35571e-06
threshold=0.13812500238418582 407.53485107421881 0.96851569414138805 0.9985637664794923 0.072625000029802336 502.84751892089849 0.13550000637769702
decision_type=2 2 2 2 2 2 2
left_child=4 3 -3 -2 6 -6 -1
right_child=1 2 -4 -5 5 -7 -8
leaf_value=1.4617696145644167e-07 -4.494498362886994e-05 5.6669031368361355e-05 -7.6527514402966181e-05 2.0505714077125952e-05 5.7262852764930442e-05 -4.5780518595212406e-06 -1.8799484986927789e-05
leaf_weight=61715 74 21 104 215 176 269 648
leaf_count=61715 74 21 104 215 176 269 648
internal_value=-1.67656e-14 -1.37343e-05 -5.41505e-05 3.74671e-06 9.053e-08 1.98804e-05 -5.06832e-08
internal_weight=63222 414 125 289 62808 445 62363
internal_count=63222 414 125 289 62808 445 62363
is_linear=0
shrinkage=0.190304


Tree=35
num_leaves=8
num_cat=0
split_feature=38 34 5 33 35 39 27
split_gain=1.69905e-06 7.22637e-06 7.38808e-06 6.09638e-06 4.10563e-06 6.36944e-06 4.51509e-06
threshold=0.0012500000302679839 -13.190749645233153 7.5000000000000009 992.50000000000011 398.10194396972662 0.96760287880897533 0.068250004202127471
decision_type=2 2 2 2 2 2 2
left_child=4 2 -2 -3 5 -1 -6
right_child=1 3 -4 -5 6 -7 -8
leaf_value=-3.9393057349173506e-05 -4.0135537912707616e-05 3.740052414558871e-06 3.971686224827206e-05 -4.474035252759112e-06 1.8095593708613968e-07 2.4964948227440994e-05 -4.5040288010495025e-06
leaf_weight=64 261 14978 50 4187 33688 429 9565
leaf_count=64 261 14978 50 4187 33688 429 9565
internal_value=3.83553e-14 1.47855e-06 -2.72975e-05 1.94551e-06 -6.58259e-07 1.66102e-05 -8.55085e-07
internal_weight=63222 19476 311 19165 43746 493 43253
internal_count=63222 19476 311 19165 43746 493 43253
is_linear=0
shrinkage=0.190304


Tree=36
num_leaves=8
num_cat=0
split_feature=33 25 42 40 40 37 58
split_gain=1.92157e-06 5.37495e-06 6.20498e-06 5.92946e-06 3.784e-06 7.6196e-06 5.67618e-06
threshold=989.50000000000011 0.0077500001061707744 0.99973005056381237 0.029240244999527935 0.029899070039391521 0.47816103696823126 0.010477225296199323
decision_type=2 2 2 2 2 2 2
left_child=4 2 -2 -3 6 -6 -1
right_child=1 3 -4 -5 5 -7 -8
leaf_value=-2.5636831928589729e-06 5.1906207135826968e-06 3.0144163811141977e-06 -3.9268561401206058e-05 -5.116208837227375e-06 3.089710912952753e-05 7.5070607722343394e-07 7.5251884993961362e-05
leaf_weight=22302 9960 6308 115 6697 309 17497 34
leaf_count=22302 9960 6308 115 6697 309 17497 34
internal_value=-2.89115e-14 1.38364e-06 4.68315e-06 -1.1725e-06 -7.95536e-07 1.27386e-06 -2.44523e-06
internal_weight=63222 23080 10075 13005 40142 17806 22336
internal_count=63222 23080 10075 13005 40142 17806 22336
is_linear=0
shrinkage=0.190304


Tree=37
num_leaves=7
num_cat=0
split_feature=37 26 25 36 33 36
split_gain=1.83208e-06 4.48696e-06 4.72526e-06 2.34632e-06 6.96015e-06 2.57548e-06
threshold=0.46369671821594244 0.13337500393390658 0.0068750001955777415 0.67768684029579174 981.50000000000011 0.67182374000549328
decision_type=2 2 2 2 2 2
left_child=1 2 -1 5 -5 -2
right_child=3 -3 -4 4 -6 -7
leaf_value=-5.3500047779712681e-05 1.7225194861869899e-07 5.5234018303971078e-05 -6.4494388172128349e-06 -2.112295675903355e-05 2.1413617921276338e-05 -7.2625623197514943e-06
leaf_weight=98 60247 34 366 186 555 1736
leaf_count=98 60247 34 366 186 555 1736
internal_value=4.48093e-15 -1.14971e-05 -1.63869e-05 9.12815e-08 1.07364e-05 -3.59799e-08
internal_weight=63222 498 464 62724 741 61983
internal_count=63222 498 464 62724 741 61983
is_linear=0
shrinkage=0.190304


Tree=38
num_leaves=8
num_cat=0
split_feature=37 43 39 50 36 39 43
split_gain=1.65657e-06 4.8005e-06 6.95682e-06 4.90526e-06 3.26952e-06 6.38751e-06 2.84886e-06
threshold=0.51746565103530895 0.0027979495935142045 0.97127395868301403 4.0000000000000009 0.65838536620140087 0.96999618411064159 0.0011769740376621487
decision_type=2 2 2 2 2 2 2
left_child=1 3 -3 -1 6 -6 -2
right_child=4 2 -4 -5 5 -7 -8
leaf_value=-1.2127504595117989e-07 9.9240035475408848e-07 1.5010136677155076e-05 -4.7725186508873593e-05 7.8951849703886743e-06 1.7855447639417485e-05 -2.3810556634900761e-05 -1.90803473024282e-06
leaf_weight=8608 27292 105 164 4072 178 530 22273
leaf_count=8608 27292 105 164 4072 178 530 22273
internal_value=-1.63536e-14 1.91941e-06 -2.32374e-05 2.4531e-06 -4.94388e-07 -1.33352e-05 -3.10967e-07
internal_weight=63222 12949 269 12680 50273 708 49565
internal_count=63222 12949 269 12680 50273 708 49565
is_linear=0
shrinkage=0.190304


Tree=39
num_leaves=8
num_cat=0
split_feature=31 25 29 25 31 32 35
split_gain=1.52387e-06 5.68277e-06 5.20561e-06 4.75539e-06 4.33627e-06 9.78554e-06 2.6903e-06
threshold=285.06465148925787 0.0051250001415610322 499.00288391113287 0.0061250000726431617 285.52766418457037 331.74137878417974 396.78874206542974
decision_type=2 2 2 2 2 2 2
left_child=1 2 -1 -3 5 -2 -6
right_child=4 3 -4 -5 6 -7 -8
leaf_value=1.2644681919418173e-05 -1.3195442818077648e-06 -2.711518658425431e-05 0.00014410321811596217 5.7025645400575296e-06 2.4556547428325489e-05 -3.6685109871963638e-05 -9.6828427918147617e-10
leaf_weight=24 1114 172 20 2274 162 380 59076
leaf_count=24 1114 172 20 2274 162 380 59076
internal_value=1.01233e-14 4.6142e-06 7.23986e-05 3.39486e-06 -1.89181e-07 -1.03148e-05 6.61899e-08
internal_weight=63222 2490 44 2446 60732 1494 59238
internal_count=63222 2490 44 2446 60732 1494 59238
is_linear=0
shrinkage=0.190304


Tree=40
num_leaves=8
num_cat=0
split_feature=29 31 3 37 39 43 39
split_gain=1.44062e-06 1.1139e-05 6.46847e-06 6.44817e-06 4.03118e-06 8.01688e-06 3.30868e-06
threshold=495.74914550781256 290.53958129882818 14197.000000000002 0.58228746056556713 0.9766199290752412 0.00045192148536443716 0.9761875867843629
decision_type=2 2 2 2 2 2 2
left_child=1 2 -1 -3 6 -6 -2
right_child=4 3 -4 -5 5 -7 -8
leaf_value=7.1359038289483298e-05 -5.9822730330434274e-07 -1.4963047534631264e-05 4.0750425611362517e-06 1.0522474616321874e-05 5.548845740758734e-05 4.8941686852742204e-06 -1.2969783844222362e-05
leaf_weight=52 47536 1890 10572 444 121 1811 796
leaf_count=52 47536 1890 10572 444 121 1811 796
internal_value=1.01555e-14 1.78915e-06 4.40437e-06 -1.01149e-05 -4.61241e-07 8.06286e-06 -8.0198e-07
internal_weight=63222 12958 10624 2334 50264 1932 48332
internal_count=63222 12958 10624 2334 50264 1932 48332
is_linear=0
shrinkage=0.190304


Tree=41
num_leaves=8
num_cat=0
split_feature=26 35 25 39 27 50 26
split_gain=1.37604e-06 5.20231e-06 6.13017e-06 5.57114e-06 4.00541e-06 8.80137e-06 7.12393e-06
threshold=0.13812500238418582 407.53485107421881 0.0077500001061707744 0.96851569414138805 0.072125006467103972 7.5000000000000009 0.13550000637769702
decision_type=2 2 2 2 2 2 2
left_child=4 2 -2 -3 6 -6 -1
right_child=1 3 -4 -5 5 -7 -8
leaf_value=7.7776646730625681e-08 -2.6303176905184815e-05 4.6034596435782761e-05 2.9225481489871359e-05 -6.1425660771275087e-05 2.0398540511481967e-05 -4.6994608126070901e-05 -2.3744519265224113e-05
leaf_weight=61572 136 21 153 104 700 78 458
leaf_count=61572 136 21 153 104 700 78 458
internal_value=-4.41774e-14 -1.09354e-05 3.09435e-06 -4.33723e-05 7.20811e-08 1.36419e-05 -9.81158e-08
internal_weight=63222 414 289 125 62808 778 62030
internal_count=63222 414 289 125 62808 778 62030
is_linear=0
shrinkage=0.190304


Tree=42
num_leaves=8
num_cat=0
split_feature=43 39 29 34 43 40 59
split_gain=1.42593e-06 7.63299e-06 6.69281e-06 5.72036e-06 4.18038e-06 8.22966e-06 3.35422e-06
threshold=0.0018279189243912699 0.97722387313842785 493.01962280273443 -9.57550001144409 0.0014011161401867869 0.024949794635176662 -0.00050000001210719406
decision_type=2 2 2 2 2 2 2
left_child=4 3 -3 -2 6 -6 -1
right_child=1 2 -4 -5 5 -7 -8
leaf_value=-3.4559590172704304e-06 1.7417399255637675e-05 5.7249995657479546e-05 -4.1385903320191439e-05 1.4592287651356419e-06 1.5568921507293863e-05 -5.5351333941914629e-06 1.1302899668066083e-06
leaf_weight=6862 894 28 226 9033 723 8990 36466
leaf_count=6862 894 28 226 9033 723 8990 36466
internal_value=-2.70933e-14 2.06288e-06 -3.05127e-05 2.89638e-06 -3.95961e-07 -3.96423e-06 4.0395e-07
internal_weight=63222 10181 254 9927 53041 9713 43328
internal_count=63222 10181 254 9927 53041 9713 43328
is_linear=0
shrinkage=0.190304


Tree=43
num_leaves=8
num_cat=0
split_feature=33 39 36 39 26 35 39
split_gain=1.35695e-06 4.72991e-06 1.12116e-05 4.71798e-06 8.23554e-06 4.65452e-06 4.53953e-06
threshold=982.50000000000011 0.97722387313842785 0.62937548756599437 0.97649601101875316 0.1200000010430813 411.74111938476568 0.97686129808425914
decision_type=2 2 2 2 2 2 2
left_child=3 6 -3 5 -5 -1 -2
right_child=1 2 -4 4 -6 -7 -8
leaf_value=-2.69104995666705e-06 6.9968180567927777e-07 -8.6265992311349167e-05 -6.85451519799322e-06 -2.788269614628718e-05 2.1918456302024641e-05 1.1887430234352522e-05 2.287264058737982e-05
leaf_weight=16977 43236 69 963 147 661 832 337
leaf_count=16977 43236 69 963 147 661 832 337
internal_value=1.4962e-14 5.69583e-07 -1.2164e-05 -1.36468e-06 1.28581e-05 -2.00997e-06 8.71171e-07
internal_weight=63222 44605 1032 18617 808 17809 43573
internal_count=63222 44605 1032 18617 808 17809 43573
is_linear=0
shrinkage=0.190304


Tree=44
num_leaves=8
num_cat=0
split_feature=43 32 35 26 35 35 32
split_gain=1.35013e-06 7.92019e-06 8.70296e-06 3.19144e-06 1.34095e-06 9.01331e-06 8.47506e-06
threshold=0.00356680213008076 329.10289001464849 404.40664672851568 0.12275000289082529 409.22146606445318 408.78562927246099 335.31790161132818
decision_type=2 2 2 2 2 2 2
left_child=4 3 -3 -2 5 -1 -6
right_child=1 2 -4 -5 6 -7 -8
leaf_value=-6.1794032308183357e-08 -0.00013689281223150723 0.00011365827111116047 -1.0985292689426143e-05 -4.1416917494662199e-05 -9.5122557977538043e-06 1.2304454979053034e-05 1.5735876667102094e-06
leaf_weight=48881 21 23 172 32 3575 2232 8286
leaf_count=48881 21 23 172 32 3575 2232 8286
internal_value=2.88771e-14 -1.40138e-05 3.71626e-06 -7.9247e-05 5.51882e-08 4.78215e-07 -1.76777e-06
internal_weight=63222 248 195 53 62974 51113 11861
internal_count=63222 248 195 53 62974 51113 11861
is_linear=0
shrinkage=0.190304


Tree=45
num_leaves=8
num_cat=0
split_feature=36 34 36 37 34 35 26
split_gain=1.36987e-06 8.88368e-06 1.30959e-05 5.62071e-06 8.621e-06 5.01431e-06 3.82459e-06
threshold=0.63575175404548656 -14.470625877380369 0.63222378492355358 0.57022497057914745 -11.394000530242918 413.70918273925787 0.14262500405311587
decision_type=2 2 2 2 2 2 2
left_child=1 2 -1 6 -5 -3 -2
right_child=3 5 -4 4 -6 -7 -8
leaf_value=1.1732508973388787e-05 -9.1447881719976117e-08 1.6663821591958023e-06 0.00015836464031752232 -7.8268633111769814e-05 -8.8793689070754749e-06 -2.5356168422920442e-05 -7.7713060664537703e-05
leaf_weight=71 46791 14587 32 68 1397 253 23
leaf_count=71 46791 14587 32 68 1397 253 23
internal_value=-1.69429e-14 1.59226e-06 5.72881e-05 -4.92825e-07 -1.21002e-05 1.20569e-06 -1.29584e-07
internal_weight=63222 14943 103 48279 1465 14840 46814
internal_count=63222 14943 103 48279 1465 14840 46814
is_linear=0
shrinkage=0.190304


Tree=46
num_leaves=8
num_cat=0
split_feature=39 27 33 27 39 29 33
split_gain=1.34323e-06 5.63296e-06 7.21036e-06 5.39432e-06 2.6692e-06 8.58767e-06 2.15452e-06
threshold=0.9642581343650819 0.063687503337860121 978.50000000000011 0.063312500715255751 0.96459433436393749 493.49002075195318 965.50000000000011
decision_type=2 2 2 2 2 2 2
left_child=1 3 -3 -1 5 -2 -6
right_child=4 2 -4 -5 6 -7 -8
leaf_value=7.1991159413330859e-06 -8.6013881645525782e-05 -5.2469362585348819e-05 -5.1762717916594293e-06 9.2271050521687702e-05 1.2705673214933398e-05 3.1581551492486147e-05 -6.7361746492766284e-08
leaf_weight=118 25 140 703 35 482 224 61495
leaf_count=118 25 140 703 35 482 224 61495
internal_value=-4.7451e-14 -6.93338e-06 -1.30304e-05 2.666e-05 1.10977e-07 1.97748e-05 3.19752e-08
internal_weight=63222 996 843 153 62226 249 61977
internal_count=63222 996 843 153 62226 249 61977
is_linear=0
shrinkage=0.190304


Tree=47
num_leaves=8
num_cat=0
split_feature=25 26 0 42 5 36 25
split_gain=1.32124e-06 6.50209e-06 1.4199e-05 6.76759e-06 2.6194e-06 7.31997e-06 2.58207e-06
threshold=0.010125000495463611 0.13462500274181369 502.84751892089849 0.99692982435226452 9.5000000000000018 0.66014257073402416 0.0096250004135072249
decision_type=2 2 2 2 2 2 2
left_child=4 3 -3 -2 6 -6 -1
right_child=1 2 -4 -5 5 -7 -8
leaf_value=1.3544438177465017e-08 -6.4579669366771612e-05 0.00010559046299228688 -1.2497210433499635e-05 -3.6134130872536713e-06 -2.5887363688170404e-06 -7.4488933011653907e-05 5.3536233772874409e-06
leaf_weight=55025 67 62 91 4168 258 64 3487
leaf_count=55025 67 62 91 4168 258 64 3487
internal_value=1.09494e-14 -3.18555e-06 3.53553e-05 -4.57793e-06 2.37587e-07 -1.68795e-05 3.31784e-07
internal_weight=63222 4388 153 4235 58834 322 58512
internal_count=63222 4388 153 4235 58834 322 58512
is_linear=0
shrinkage=0.190304


Tree=48
num_leaves=8
num_cat=0
split_feature=38 51 26 33 39 39 26
split_gain=1.34219e-06 5.61118e-06 9.24731e-06 6.63823e-06 3.64241e-06 8.10281e-06 5.75561e-06
threshold=0.0012500000302679839 208.50000000000003 0.13137500733137134 964.50000000000011 0.97100609540939342 0.97220623493194591 0.11262500286102296
decision_type=2 2 2 2 2 2 2
left_child=4 2 -2 -3 6 -6 -1
right_child=1 3 -4 -5 5 -7 -8
leaf_value=3.4222431934534925e-05 1.0853370015845545e-05 5.0104780982248896e-05 8.4417771171975292e-05 4.4614761560930959e-07 -7.7920311881783582e-06 8.4006977232644422e-10 1.0244761559324216e-06
leaf_weight=191 600 98 69 18709 6667 17557 19331
leaf_count=191 600 98 69 18709 6667 17557 19331
internal_value=4.33441e-14 1.31413e-06 1.84407e-05 7.0491e-07 -5.85061e-07 -2.14394e-06 1.34928e-06
internal_weight=63222 19476 669 18807 43746 24224 19522
internal_count=63222 19476 669 18807 43746 24224 19522
is_linear=0
shrinkage=0.190304


Tree=49
num_leaves=6
num_cat=0
split_feature=27 59 42 26 26
split_gain=1.38791e-06 6.46681e-06 5.06524e-06 3.15376e-06 2.30311e-06
threshold=0.071437500417232527 -0.0019999999785795804 0.99755090475082409 0.13637500256299975 0.13562500476837161
decision_type=2 2 2 2 2
left_child=3 -2 -3 4 -1
right_child=1 2 -4 -5 -6
leaf_value=1.7869574375187162e-07 7.3110127219819812e-05 3.1090935024500475e-05 -8.3825230042012845e-06 6.0852269645259259e-05 -3.341456789592831e-05
leaf_weight=60930 38 125 2024 31 74
leaf_count=60930 38 125 2024 31 74
internal_value=-1.33906e-14 -4.71041e-06 -6.08649e-06 1.68783e-07 1.37946e-07
internal_weight=63222 2187 2149 61035 61004
internal_count=63222 2187 2149 61035 61004
is_linear=0
shrinkage=0.190304


Tree=50
num_leaves=7
num_cat=0
split_feature=37 29 43 36 56 36
split_gain=1.27412e-06 3.90416e-06 4.87615e-06 1.70606e-06 6.34621e-06 3.36188e-06
threshold=0.46369671821594244 491.82164001464849 0.00056571909226477157 0.65879762172698986 0.0039999999571591624 0.65838536620140087
decision_type=2 2 2 2 2 2
left_child=1 -1 -3 5 -5 -2
right_child=3 2 -4 4 -6 -7
leaf_value=6.2204969049954961e-05 -2.6667695744874644e-07 4.027281863236228e-05 -2.0494729054179214e-05 9.7301061157859031e-07 1.8909602562199801e-05 -1.5980959476331051e-05
leaf_weight=26 49565 54 418 11901 760 498
leaf_count=26 49565 54 418 11901 760 498
internal_value=1.07132e-14 -9.58782e-06 -1.35425e-05 7.6123e-08 2.04969e-06 -4.22994e-07
internal_weight=63222 498 472 62724 12661 50063
internal_count=63222 498 472 62724 12661 50063
is_linear=0
shrinkage=0.190304


Tree=51
num_leaves=8
num_cat=0
split_feature=5 26 32 26 42 34 34
split_gain=1.29364e-06 1.30933e-05 1.13034e-05 6.23695e-06 8.77895e-06 5.82373e-06 5.27695e-06
threshold=2.5000000000000004 0.11412500217556955 332.32151794433599 0.11537500470876695 0.99955224990844738 -10.827750205993651 5.1868751049041757
decision_type=2 2 2 2 2 2 2
left_child=1 2 -1 4 -2 -5 -3
right_child=3 6 -4 5 -6 -7 -8
leaf_value=-6.525879461181083e-05 8.0342455484334773e-06 1.7383549346591682e-06 6.2202371876990153e-06 -9.9206414638309729e-06 6.9734570483702846e-05 -3.6340000727023936e-07 2.253506582484674e-05
leaf_weight=195 1355 14253 136 2436 89 44302 456
leaf_count=195 1355 14253 136 2436 89 44302 456
internal_value=-4.54751e-16 1.54077e-06 -3.58898e-05 -4.80952e-07 1.18371e-05 -8.61527e-07 2.38308e-06
internal_weight=63222 15040 331 48182 1444 46738 14709
internal_count=63222 15040 331 48182 1444 46738 14709
is_linear=0
shrinkage=0.190304


Tree=52
num_leaves=8
num_cat=0
split_feature=32 32 59 29 31 58 26
split_gain=1.27892e-06 4.2661e-06 1.49818e-05 3.90461e-06 2.1506e-05 5.23108e-06 3.68892e-06
threshold=333.98352050781256 333.60162353515631 0.0029999999096617107 490.69665527343756 287.33901977539068 0.0083666001446545141 0.12037500366568567
decision_type=2 2 2 2 2 2 2
left_child=1 6 -3 4 -2 -5 -1
right_child=3 2 -4 5 -6 -7 -8
leaf_value=-3.4501260986461996e-06 0.0001263135131588266 6.849393530276597e-06 0.00014693217924881082 -1.4984105570152951e-06 3.5733623233851464e-07 -2.612884578521778e-05 9.2130622614065141e-07
leaf_weight=8633 56 2209 28 14820 398 319 36759
leaf_count=8633 56 2209 28 14820 398 319 36759
internal_value=-2.24391e-14 4.89739e-07 8.60278e-06 -1.49591e-06 1.58938e-05 -2.01741e-06 8.99136e-08
internal_weight=63222 47629 2237 15593 454 15139 45392
internal_count=63222 47629 2237 15593 454 15139 45392
is_linear=0
shrinkage=0.190304


Tree=53
num_leaves=7
num_cat=0
split_feature=42 56 34 43 29 34
split_gain=1.29251e-06 1.33266e-05 9.0647e-06 3.78429e-06 8.77747e-06 2.50213e-06
threshold=0.99965220689773571 0.0050000001210719356 -11.394000530242918 0.00047005666419863706 503.45713806152349 1.3648750185966494
decision_type=2 2 2 2 2 2
left_child=3 2 -2 4 -1 -5
right_child=1 -3 -4 5 -6 -7
leaf_value=1.1697965235296933e-05 -7.3594216637311335e-05 0.00014920975329239258 -4.0948246168137019e-06 -7.2406965263368706e-07 -1.4081522097862557e-05 2.74949166001528e-06
leaf_weight=2456 71 20 1590 49642 594 8849
leaf_count=2456 71 20 1590 49642 594 8849
internal_value=-1.51995e-14 -5.20629e-06 -7.0656e-06 1.4221e-07 6.6773e-06 -1.98561e-07
internal_weight=63222 1681 1661 61541 3050 58491
internal_count=63222 1681 1661 61541 3050 58491
is_linear=0
shrinkage=0.190304


Tree=54
num_leaves=8
num_cat=0
split_feature=29 34 3 42 34 44 29
split_gain=1.1972e-06 5.53834e-06 6.70749e-06 5.50886e-06 4.56894e-06 1.13164e-05 6.59606e-06
threshold=500.56825256347662 -2.4263751506805415 34643.500000000007 0.99968391656875621 -1.832125127315521 0.11225000396370889 501.02650451660162
decision_type=2 2 2 2 2 2 2
left_child=1 3 -3 -1 5 -2 -6
right_child=4 2 -4 -5 6 -7 -8
leaf_value=6.7313698590563034e-07 0.00013024885079015452 7.2532383883189196e-05 1.0914889781906206e-05 -1.6162138189989198e-05 6.0830315513162504e-05 -1.0056248306875351e-05 -3.4757726065104435e-07
leaf_weight=35865 21 70 744 718 64 2412 23328
leaf_count=35865 21 70 744 718 64 2412 23328
internal_value=7.20381e-15 6.88173e-07 1.62137e-05 3.42718e-07 -9.96538e-07 -8.84523e-06 -1.80196e-07
internal_weight=63222 37397 814 36583 25825 2433 23392
internal_count=63222 37397 814 36583 25825 2433 23392
is_linear=0
shrinkage=0.190304


Tree=55
num_leaves=7
num_cat=0
split_feature=31 29 29 31 31 35
split_gain=1.26153e-06 6.88099e-06 5.62373e-06 1.68297e-06 7.10591e-06 2.37041e-06
threshold=294.04386901855474 504.97439575195318 500.01277160644537 291.79557800292974 291.86337280273443 411.31144714355474
decision_type=2 2 2 2 2 2
left_child=3 2 -2 5 -5 -1
right_child=1 -3 -4 4 -6 -7
leaf_value=-1.0875254236481331e-07 2.5871679694727585e-05 0.00010822589331268281 -3.7047600277711347e-05 -3.5101397810743224e-05 -1.7564787169039308e-06 4.9920412698290753e-06
leaf_weight=55752 141 25 81 248 3468 3507
leaf_count=55752 141 25 81 248 3468 3507
internal_value=1.09354e-14 1.35737e-05 2.91465e-06 -5.32386e-08 -3.98187e-06 1.93117e-07
internal_weight=63222 247 222 62975 3716 59259
internal_count=63222 247 222 62975 3716 59259
is_linear=0
shrinkage=0.190304


Tree=56
num_leaves=5
num_cat=0
split_feature=30 36 44 40
split_gain=1.21097e-06 1.17641e-06 5.57928e-06 2.56506e-06
threshold=1.5000000000000002 0.62154304981231701 0.12712500244379046 0.037070278078317649
decision_type=2 2 2 2
left_child=1 2 -1 -3
right_child=-2 3 -4 -5
leaf_value=-9.7095841663694179e-06 3.8879070887072855e-05 3.176876512605317e-07 7.5642214999819828e-06 -9.9411361418511615e-06
leaf_weight=1948 29 59311 1038 896
leaf_count=1948 29 59311 1038 896
internal_value=-1.07963e-14 -1.78421e-08 -3.70483e-06 1.65016e-07
internal_weight=63222 63193 2986 60207
internal_count=63222 63193 2986 60207
is_linear=0
shrinkage=0.190304


Tree=57
num_leaves=8
num_cat=0
split_feature=27 41 26 41 0 27 37
split_gain=1.23716e-06 4.68821e-06 5.45801e-06 5.21396e-06 4.68338e-06 7.02133e-06 5.03315e-06
threshold=0.067000005394220366 0.012250000145286323 0.1200000010430813 0.011750000063329937 502.84751892089849 0.067999999970197691 0.58476489782333385
decision_type=2 2 2 2 2 2 2
left_child=1 3 -3 -1 5 -2 -6
right_child=4 2 -4 -5 6 -7 -8
leaf_value=6.8582888794924783e-07 -1.1220307560628699e-05 -0.00012276450318344828 8.4634615275523886e-06 5.0913527004042821e-05 -3.1765865951704305e-07 -7.8235647370142596e-07 9.2449969695124201e-06
leaf_weight=36723 3379 24 22 75 13102 7546 2351
leaf_count=36723 3379 24 22 75 13102 7546 2351
internal_value=-3.55758e-15 7.12302e-07 -6.00033e-05 7.88201e-07 -9.94922e-07 -4.01072e-06 1.13719e-06
internal_weight=63222 36844 46 36798 26378 10925 15453
internal_count=63222 36844 46 36798 26378 10925 15453
is_linear=0
shrinkage=0.190304


Tree=58
num_leaves=8
num_cat=0
split_feature=56 26 48 26 39 26 27
split_gain=1.10022e-06 7.21005e-06 6.91472e-06 6.82673e-06 6.89862e-06 6.02241e-06 4.81785e-06
threshold=1.0000000180025095e-35 0.13550000637769702 217.50000000000003 0.13587500900030139 0.97109606862068187 0.1345000043511391 0.071437500417232527
decision_type=2 2 2 2 2 2 2
left_child=1 5 -3 6 -5 -1 -2
right_child=3 2 -4 4 -6 -7 -8
leaf_value=7.6760855104194937e-07 -1.0538404302080333e-06 3.5059590288195938e-05 -2.2478997742565211e-05 4.2340587203406401e-05 -2.1284669724371229e-06 2.2916634457623841e-05 -2.0154031686333408e-05
leaf_weight=36950 23984 84 760 262 244 450 488
leaf_count=36950 23984 84 760 262 244 450 488
internal_value=5.24766e-15 6.4158e-07 -1.67524e-05 -9.82328e-07 2.0897e-05 1.03411e-06 -1.43472e-06
internal_weight=63222 38244 844 24978 506 37400 24472
internal_count=63222 38244 844 24978 506 37400 24472
is_linear=0
shrinkage=0.190304


Tree=59
num_leaves=8
num_cat=0
split_feature=27 27 33 27 26 36 27
split_gain=1.10027e-06 3.74437e-06 3.83276e-06 3.11104e-06 3.06376e-06 5.76742e-06 2.56938e-06
threshold=0.074250001460313811 0.074937500059604659 988.50000000000011 0.075375001877546324 0.13812500238418582 0.65444892644882213 0.072125006467103972
decision_type=2 2 2 2 2 2 2
left_child=4 2 -2 -3 6 -6 -1
right_child=1 3 -4 -5 5 -7 -8
leaf_value=-8.7416739953237142e-08 3.7854579141883861e-06 -6.7241473119572032e-05 8.8708209670691147e-05 1.3917290051630997e-05 -3.7561721706493018e-05 2.4239730258192339e-05 1.0987820109665005e-05
leaf_weight=62030 39 26 38 50 195 76 768
leaf_count=62030 39 26 38 50 195 76 768
internal_value=4.10288e-15 1.61185e-05 4.56954e-05 -1.38475e-05 -3.91021e-08 -2.02299e-05 4.803e-08
internal_weight=63222 153 77 76 63069 271 62798
internal_count=63222 153 77 76 63069 271 62798
is_linear=0
shrinkage=0.190304


Tree=60
num_leaves=8
num_cat=0
split_feature=32 25 39 25 32 34 25
split_gain=1.07632e-06 4.32411e-06 8.53421e-06 6.386e-06 3.84143e-06 1.04026e-05 3.54782e-06
threshold=333.89326477050787 0.0066250001545995483 0.96718251705169689 0.0071250000037252912 333.60162353515631 2.5651251077651982 0.0041250002104789027
decision_type=2 2 2 2 2 2 2
left_child=4 2 -2 -3 6 -6 -1
right_child=1 3 -4 -5 5 -7 -8
leaf_value=4.4896972220456239e-05 -4.2541450736301207e-05 1.0808213901477247e-05 -4.9485210574577126e-06 -1.5489209949649207e-06 4.5836905332171421e-06 5.5794397227797532e-05 5.9187901599768696e-08
leaf_weight=64 240 1741 2464 11645 1582 158 45328
leaf_count=64 240 1741 2464 11645 1582 158 45328
internal_value=-5.50721e-16 -1.34389e-06 -8.28517e-06 5.82635e-08 4.58779e-07 9.23386e-06 1.22406e-07
internal_weight=63222 16090 2704 13386 47132 1740 45392
internal_count=63222 16090 2704 13386 47132 1740 45392
is_linear=0
shrinkage=0.190304


Tree=61
num_leaves=8
num_cat=0
split_feature=34 29 3 31 34 42 36
split_gain=1.09491e-06 1.24675e-05 8.78784e-06 6.43583e-06 4.69743e-06 4.16859e-06 2.6384e-06
threshold=-6.1480000019073477 496.67987060546881 14167.000000000002 288.85479736328131 -6.0922501087188712 0.99940079450607311 0.65497171878814708
decision_type=2 2 2 2 2 2 2
left_child=1 2 -1 -3 5 -2 -6
right_child=4 3 -4 -5 6 -7 -8
leaf_value=0.00012698360386765326 -3.7751257368358631e-05 0.00012083641500902478 7.6315352804891524e-07 2.3116786769831634e-05 -1.2506994387035608e-06 2.6749816099960946e-05 1.9435165419339325e-06
leaf_weight=20 207 46 16928 52 32821 44 13104
leaf_count=20 207 46 16928 52 32821 44 13104
internal_value=-1.38627e-14 1.30347e-06 9.12104e-07 6.89852e-05 -4.81178e-07 -2.64443e-05 -3.39279e-07
internal_weight=63222 17046 16948 98 46176 251 45925
internal_count=63222 17046 16948 98 46176 251 45925
is_linear=0
shrinkage=0.190304


Tree=62
num_leaves=8
num_cat=0
split_feature=36 50 37 33 37 42 36
split_gain=1.09976e-06 5.00996e-06 6.54564e-06 6.36369e-06 4.99723e-06 1.2113e-05 6.67012e-06
threshold=0.67182374000549328 8.5000000000000018 0.48542857170104986 993.50000000000011 0.49531681835651403 0.99887001514434826 0.66757872700691234
decision_type=2 2 2 2 2 2 2
left_child=4 2 -2 -3 5 -1 -6
right_child=1 3 -4 -5 6 -7 -8
leaf_value=3.0015484705205283e-05 -1.9639876194210425e-06 3.2520424350473502e-05 -2.7387233856934557e-05 -4.777594284285643e-05 1.2546334098370439e-07 -4.3087991571015613e-06 -1.8241688815028552e-05
leaf_weight=672 2255 240 438 42 58015 835 725
leaf_count=672 2255 240 438 42 58015 835 725
internal_value=2.36559e-14 -3.57179e-06 -6.09892e-06 2.05614e-05 1.76375e-07 1.09971e-05 -1.01234e-07
internal_weight=63222 2975 2693 282 60247 1507 58740
internal_count=63222 2975 2693 282 60247 1507 58740
is_linear=0
shrinkage=0.190304


Tree=63
num_leaves=8
num_cat=0
split_feature=33 41 39 41 32 34 36
split_gain=1.0573e-06 4.54711e-06 1.10168e-05 4.68993e-06 3.39022e-06 7.6348e-06 3.85242e-06
threshold=989.50000000000011 0.011750000063329937 0.96856597065925609 0.0086250002495944517 338.91149902343756 -2.5237500667572017 0.63776186108589183
decision_type=2 2 2 2 2 2 2
left_child=4 3 -3 -2 6 -6 -1
right_child=1 2 -4 -5 5 -7 -8
leaf_value=2.190471047052747e-06 2.6636060050603522e-06 0.0001526548716817879 1.079605169485684e-05 -3.1947347021156352e-06 2.7791870353713422e-05 -1.1675245808890423e-05 -2.0024164378816778e-06
leaf_weight=11016 15719 24 114 7223 448 294 28384
leaf_count=11016 15719 24 114 7223 448 294 28384
internal_value=-4.13481e-14 1.02635e-06 3.54672e-05 8.19181e-07 -5.90108e-07 1.2154e-05 -8.30111e-07
internal_weight=63222 23080 138 22942 40142 742 39400
internal_count=63222 23080 138 22942 40142 742 39400
is_linear=0
shrinkage=0.190304


Tree=64
num_leaves=8
num_cat=0
split_feature=37 32 43 26 36 3 37
split_gain=1.13081e-06 6.42461e-06 5.47401e-06 4.84562e-06 1.71919e-06 6.07325e-06 3.95206e-06
threshold=0.60619774460792553 330.38888549804693 0.0020747336093336348 0.13287500292062762 0.63575175404548656 30522.000000000004 0.57022497057914745
decision_type=2 2 2 2 2 2 2
left_child=4 3 -3 -2 5 -1 -6
right_child=1 2 -4 -5 6 -7 -8
leaf_value=-3.2392583461171532e-05 -1.1225437388218207e-05 6.2159840328034327e-06 -2.1740714592051824e-05 -5.8103014441167428e-05 9.7356918671041633e-10 2.840901332748528e-06 -1.0036661424147535e-05
leaf_weight=180 1118 1976 291 86 46814 11292 1465
leaf_count=180 1118 1976 291 86 46814 11292 1465
internal_value=-1.94793e-14 -3.33929e-06 2.62737e-06 -1.45738e-05 1.93983e-07 2.28807e-06 -3.03613e-07
internal_weight=63222 3471 2267 1204 59751 11472 48279
internal_count=63222 3471 2267 1204 59751 11472 48279
is_linear=0
shrinkage=0.190304


Tree=65
num_leaves=8
num_cat=0
split_feature=43 35 50 34 43 32 42
split_gain=1.08285e-06 6.58293e-06 8.60287e-06 6.04869e-06 2.90014e-06 5.35733e-06 2.97e-06
threshold=0.0018279189243912699 412.88748168945318 7.5000000000000009 -9.57550001144409 0.0013938816264271738 326.70875549316412 0.99868857860565197
decision_type=2 2 2 2 2 2 2
left_child=4 3 -3 -2 6 -6 -1
right_child=1 2 -4 -5 5 -7 -8
leaf_value=6.5259449513728713e-06 1.5827697353989017e-05 4.46579905830201e-05 -6.0711069117771092e-05 -4.7626251027116744e-07 1.1049400624268213e-05 -4.6312732272352867e-06 -7.1441731471025508e-08
leaf_weight=2632 907 228 32 9014 864 9098 40447
leaf_count=2632 907 228 32 9014 864 9098 40447
internal_value=9.34532e-15 1.79766e-06 3.16895e-05 1.01428e-06 -3.45053e-07 -3.2713e-06 3.31639e-07
internal_weight=63222 10181 260 9921 53041 9962 43079
internal_count=63222 10181 260 9921 53041 9962 43079
is_linear=0
shrinkage=0.190304


Tree=66
num_leaves=8
num_cat=0
split_feature=32 32 34 29 31 33 25
split_gain=1.07966e-06 5.57804e-06 1.36501e-05 3.94811e-06 4.80613e-06 3.85553e-06 3.06291e-06
threshold=333.76477050781256 333.60162353515631 -9.0165004730224592 488.36677551269537 287.43659973144537 978.50000000000011 0.012124999891966583
decision_type=2 2 2 2 2 2 2
left_child=1 6 -3 4 -2 -5 -1
right_child=3 2 -4 5 -6 -7 -8
leaf_value=2.5316016475709106e-07 0.00011847319446424739 -4.9970827658434875e-05 2.2281044499610911e-05 5.5234789742424487e-06 1.6017288918462121e-05 -2.7299788268433341e-06 -2.7545464432706748e-05
leaf_weight=45248 20 106 888 2392 97 14327 144
leaf_count=45248 20 106 888 2392 97 14327 144
internal_value=1.43285e-16 4.73787e-07 1.45761e-05 -1.30536e-06 3.35311e-05 -1.54915e-06 1.64973e-07
internal_weight=63222 46386 994 16836 117 16719 45392
internal_count=63222 46386 994 16836 117 16719 45392
is_linear=0
shrinkage=0.190304


Tree=67
num_leaves=8
num_cat=0
split_feature=38 40 39 25 34 34 5
split_gain=1.06958e-06 5.2302e-06 6.75394e-06 6.40944e-06 3.61387e-06 6.47861e-06 5.21998e-06
threshold=0.0012500000302679839 0.029240244999527935 0.97266793251037609 0.010000000242143871 7.6543750762939462 5.1868751049041757 2.5000000000000004
decision_type=2 2 2 2 2 2 2
left_child=4 2 -2 -3 5 -1 -6
right_child=1 3 -4 -5 6 -7 -8
leaf_value=-7.3086927526360268e-07 1.2400658768062559e-05 2.6605824931199161e-07 1.1422631806908057e-06 -1.279193115397185e-05 1.2917070733745768e-05 1.4683603663247004e-05 -3.7709979229032795e-05
leaf_weight=42407 2721 8498 6636 1621 112 1011 216
leaf_count=42407 2721 8498 6636 1621 112 1011 216
internal_value=-1.05699e-15 1.17311e-06 4.41619e-06 -1.82575e-06 -5.22276e-07 -3.71939e-07 -2.04227e-05
internal_weight=63222 19476 9357 10119 43746 43418 328
internal_count=63222 19476 9357 10119 43746 43418 328
is_linear=0
shrinkage=0.190304


Tree=68
num_leaves=8
num_cat=0
split_feature=26 35 31 33 27 36 31
split_gain=1.04687e-06 5.71688e-06 1.04396e-05 5.90689e-06 4.31571e-06 5.30092e-06 3.38663e-06
threshold=0.1278750076889992 408.54856872558599 286.46568298339849 997.50000000000011 0.069249998778104796 0.63421177864074718 286.76330566406256
decision_type=2 2 2 2 2 2 2
left_child=4 3 -3 -2 6 -6 -1
right_child=1 2 -4 -5 5 -7 -8
leaf_value=-3.1781159845373845e-06 -2.438605933520185e-06 4.8512742796255391e-05 2.79291939037619e-06 -2.5794162901838958e-05 -3.6190303582830536e-05 6.0333333488568866e-05 1.161755188457241e-06
leaf_weight=7902 13391 189 4205 404 27 87 37017
leaf_count=7902 13391 189 4205 404 27 87 37017
internal_value=2.64938e-14 -1.21849e-06 4.75948e-06 -3.1226e-06 4.92152e-07 3.74725e-05 3.983e-07
internal_weight=63222 18189 4394 13795 45033 114 44919
internal_count=63222 18189 4394 13795 45033 114 44919
is_linear=0
shrinkage=0.190304


Tree=69
num_leaves=8
num_cat=0
split_feature=31 40 27 59 31 5 31
split_gain=1.10553e-06 4.96577e-06 7.01311e-06 4.79739e-06 2.83755e-06 6.27112e-06 1.95112e-06
threshold=285.06465148925787 0.024949794635176662 0.067625004798173918 0.0014999999548308553 285.25703430175787 6.5000000000000009 285.32502746582037
decision_type=2 2 2 2 2 2 2
left_child=1 2 -1 -3 5 -2 -6
right_child=4 3 -4 -5 6 -7 -8
leaf_value=5.8695196210401428e-05 -2.2295928885193904e-05 -1.2612133596558146e-06 -1.9185250327288097e-05 2.9043517531762318e-05 1.6767984167091712e-05 4.3785020631226852e-05 -1.126394561521506e-07
leaf_weight=129 439 2091 62 208 249 59 59985
leaf_count=129 439 2091 62 208 249 59 59985
internal_value=4.77583e-14 3.93014e-06 3.34146e-05 1.48058e-06 -1.61135e-07 -1.44671e-05 -4.2857e-08
internal_weight=63222 2490 191 2299 60732 498 60234
internal_count=63222 2490 191 2299 60732 498 60234
is_linear=0
shrinkage=0.190304


Tree=70
num_leaves=8
num_cat=0
split_feature=32 33 35 34 32 29 26
split_gain=1.12279e-06 4.20454e-06 7.34428e-06 5.36974e-06 3.5696e-06 9.66816e-06 2.86788e-06
threshold=333.76477050781256 991.50000000000011 408.45989990234381 -4.9188749790191642 333.60162353515631 506.99452209472662 0.12037500366568567
decision_type=2 2 2 2 2 2 2
left_child=4 3 -3 -2 6 -6 -1
right_child=1 2 -4 -5 5 -7 -8
leaf_value=-2.8852065300760463e-06 1.9830207614196893e-06 -1.4083006665593577e-05 6.7386677340109212e-06 -6.2872493581626975e-06 7.3997756378241693e-06 9.246878074674511e-05 9.6917347779726998e-07
leaf_weight=8633 4538 726 3959 7613 943 51 36759
leaf_count=8633 4538 726 3959 7613 943 51 36759
internal_value=-3.61881e-14 -1.33118e-06 3.51209e-06 -3.19857e-06 4.83158e-07 1.17645e-05 2.36118e-07
internal_weight=63222 16836 4685 12151 46386 994 45392
internal_count=63222 16836 4685 12151 46386 994 45392
is_linear=0
shrinkage=0.190304


Tree=71
num_leaves=8
num_cat=0
split_feature=30 51 34 25 27 34 26
split_gain=1.04624e-06 6.34333e-06 7.00394e-06 5.64958e-06 1.26912e-06 3.90345e-06 1.74895e-06
threshold=1.0000000180025095e-35 220.50000000000003 2.4726251363754277 0.0083750002086162584 0.07412500306963922 -8.5600004196166974 0.13362500816583636
decision_type=2 2 2 2 2 2 2
left_child=4 3 -3 -2 6 -6 -1
right_child=1 2 -4 -5 5 -7 -8
leaf_value=7.4989801472612943e-08 2.4352627699067629e-06 8.3807474105173329e-06 6.3700327325332939e-05 -4.9647022340760366e-05 -5.8061501095328899e-05 2.804466447466482e-05 -4.726843366615694e-06
leaf_weight=59056 206 701 94 119 22 143 2881
leaf_count=59056 206 701 94 119 22 143 2881
internal_value=-1.34806e-14 5.76465e-06 1.49217e-05 -1.66349e-05 -1.03965e-07 1.65638e-05 -1.48368e-07
internal_weight=63222 1120 795 325 62102 165 61937
internal_count=63222 1120 795 325 62102 165 61937
is_linear=0
shrinkage=0.190304


Tree=72
num_leaves=7
num_cat=0
split_feature=43 3 31 43 31 43
split_gain=9.32453e-07 9.42542e-06 7.06529e-06 2.21981e-06 6.77599e-06 3.9226e-06
threshold=0.0027404585853219037 30522.000000000004 286.53260803222662 0.0019959243945777421 293.04495239257818 0.0019597329664975409
decision_type=2 2 2 2 2 2
left_child=3 -2 -3 5 -5 -1
right_child=1 2 -4 4 -6 -7
leaf_value=-8.3610054049786429e-08 9.5275152734070127e-05 2.1071966879464027e-05 -1.067680734938598e-05 4.5632964882188546e-06 -4.6426319720686516e-05 -1.7049463175398994e-05
leaf_weight=55033 34 300 1650 5611 96 498
leaf_count=55033 34 300 1650 5611 96 498
internal_value=-2.74169e-14 -4.06038e-06 -5.79238e-06 1.31549e-07 3.70558e-06 -2.35759e-07
internal_weight=63222 1984 1950 61238 5707 55531
internal_count=63222 1984 1950 61238 5707 55531
is_linear=0
shrinkage=0.190304


Tree=73
num_leaves=8
num_cat=0
split_feature=33 41 35 59 39 36 29
split_gain=8.8157e-07 3.8344e-06 6.91608e-06 3.87768e-06 3.41384e-06 7.6388e-06 3.14789e-06
threshold=982.50000000000011 0.010875000152736904 410.44223022460943 0.0014999999548308553 0.97722387313842785 0.63048416376113903 489.15661621093756
decision_type=2 2 2 2 2 2 2
left_child=1 3 -3 -1 6 -6 -2
right_child=4 2 -4 -5 5 -7 -8
leaf_value=-1.5260148701021334e-06 1.5866801772484915e-05 -1.0726955921136352e-05 -9.0524187900924152e-05 8.5142857287558311e-06 -6.5721154532604503e-05 -5.5168708221929913e-06 5.426348713307171e-07
leaf_weight=16682 491 371 44 1520 83 949 43082
leaf_count=16682 491 371 44 1520 83 949 43082
internal_value=-2.70353e-14 -1.09996e-06 -1.91874e-05 -6.87576e-07 4.59097e-07 -1.03589e-05 7.15314e-07
internal_weight=63222 18617 415 18202 44605 1032 43573
internal_count=63222 18617 415 18202 44605 1032 43573
is_linear=0
shrinkage=0.190304


Tree=74
num_leaves=8
num_cat=0
split_feature=34 59 5 26 34 3 34
split_gain=1.09243e-06 9.39439e-06 8.21139e-06 7.67556e-06 5.41006e-06 9.78222e-06 3.39178e-06
threshold=-10.827750205993651 0.0014999999548308553 2.5000000000000004 0.11825000122189523 -10.198750495910643 42271.500000000007 -9.6876249313354474
decision_type=2 2 2 2 2 2 2
left_child=1 2 -1 -3 5 -2 -6
right_child=4 3 -4 -5 6 -7 -8
leaf_value=1.1216168571661264e-05 5.5496063837753028e-05 0.00013654001989960124 -1.1987593557452728e-05 2.1283816772562053e-05 -1.1001136846708392e-05 5.5257244038041527e-06 1.3892224579982727e-07
leaf_weight=729 171 23 2279 232 1007 833 57948
leaf_count=729 171 23 2279 232 1007 833 57948
internal_value=6.26337e-14 -3.39101e-06 -6.36408e-06 3.16795e-05 1.84541e-07 1.40366e-05 -5.13591e-08
internal_weight=63222 3263 3008 255 59959 1004 58955
internal_count=63222 3263 3008 255 59959 1004 58955
is_linear=0
shrinkage=0.190304


Tree=75
num_leaves=7
num_cat=0
split_feature=55 27 27 5 38 26
split_gain=1.00991e-06 5.47089e-06 5.7343e-06 5.45456e-06 5.20044e-06 4.68734e-06
threshold=1.0000000180025095e-35 0.072125006467103972 0.071562498807907118 4.5000000000000009 0.0027500001015141611 0.13550000637769702
decision_type=2 2 2 2 2 2
left_child=4 2 -2 -3 5 -1
right_child=1 3 -4 -5 -6 -7
leaf_value=8.7538426157941119e-07 -9.9914065154324507e-07 4.6287438595904359e-05 -2.5195903844357342e-05 4.9081203480347777e-06 8.917213373947153e-05 -1.3482539855405331e-05
leaf_weight=37378 24089 170 360 359 24 842
leaf_count=37378 24089 170 360 359 24 842
internal_value=1.27814e-14 -9.41146e-07 -1.35543e-06 1.82058e-05 6.14683e-07 5.59074e-07
internal_weight=63222 24978 24449 529 38244 38220
internal_count=63222 24978 24449 529 38244 38220
is_linear=0
shrinkage=0.190304


Tree=76
num_leaves=8
num_cat=0
split_feature=27 38 3 27 33 26 38
split_gain=8.76411e-07 8.25061e-06 7.67767e-06 7.37089e-06 1.34222e-05 5.18905e-06 1.82774e-06
threshold=0.061437500640749938 0.00062500001513399195 35519.000000000007 0.061687501147389419 982.50000000000011 0.11687500029802324 0.00062500001513399195
decision_type=2 2 2 2 2 2 2
left_child=1 5 -3 4 -2 -1 -5
right_child=3 2 -4 6 -6 -7 -8
leaf_value=-2.4927006207871047e-05 7.1305502263229348e-05 -3.9481464492597499e-05 1.027374077323401e-05 1.8313044987183205e-06 1.9987230233510712e-06 5.0337432208829303e-05 -6.3386701911138736e-07
leaf_weight=636 148 125 1107 14211 320 35 46640
leaf_count=636 148 125 1107 14211 320 35 46640
internal_value=-2.66385e-14 -4.02203e-06 5.22553e-06 1.24821e-07 2.39163e-05 -2.10011e-05 -5.81566e-08
internal_weight=63222 1903 1232 61319 468 671 60851
internal_count=63222 1903 1232 61319 468 671 60851
is_linear=0
shrinkage=0.190304


Tree=77
num_leaves=8
num_cat=0
split_feature=38 33 43 40 31 31 26
split_gain=1.00221e-06 4.6684e-06 6.31108e-06 6.26321e-06 2.95289e-06 1.07986e-05 3.3417e-06
threshold=0.0012500000302679839 992.50000000000011 0.00044392608106136327 0.035589491948485381 289.12623596191412 289.24830627441412 0.11112500354647638
decision_type=2 2 2 2 2 2 2
left_child=4 3 -3 -2 6 -6 -1
right_child=1 2 -4 -5 5 -7 -8
leaf_value=-3.4917271939996933e-05 3.4818359857157685e-06 2.3123917538580059e-05 -6.3871874777764275e-06 -1.619983378876421e-05 2.0506109412747905e-05 2.2722709962390132e-07 -1.6767140772087025e-06
leaf_weight=110 14612 281 3973 610 1007 17097 25532
leaf_count=110 14612 281 3973 610 1007 17097 25532
internal_value=6.26282e-14 1.13556e-06 -4.43782e-06 2.69312e-06 -5.0556e-07 1.3552e-06 -1.81931e-06
internal_weight=63222 19476 4254 15222 43746 18104 25642
internal_count=63222 19476 4254 15222 43746 18104 25642
is_linear=0
shrinkage=0.190304


Tree=78
num_leaves=8
num_cat=0
split_feature=26 5 25 32 26 31 27
split_gain=1.17943e-06 5.48462e-06 7.15227e-06 6.53933e-06 5.38197e-06 2.56209e-06 1.25354e-06
threshold=0.11187500506639482 2.5000000000000004 0.0096250004135072249 332.11599731445318 0.112125001847744 288.92007446289068 0.059437500312924392
decision_type=2 2 2 2 2 2 2
left_child=1 3 -3 -1 5 -2 -6
right_child=4 2 -4 -5 6 -7 -8
leaf_value=-6.6416748868021436e-05 -2.1684642545609965e-05 3.9744481748736475e-05 -3.7411688943629886e-05 2.6083278722073397e-05 -3.6025226125431911e-05 -0.00011801079318921512 -2.241898021222032e-10
leaf_weight=62 20 224 54 50 35 20 62757
leaf_count=62 20 224 54 50 35 20 62757
internal_value=-4.57665e-14 1.0433e-05 2.47573e-05 -2.51221e-05 -6.47578e-08 -6.98477e-05 -2.03044e-08
internal_weight=63222 390 278 112 62832 40 62792
internal_count=63222 390 278 112 62832 40 62792
is_linear=0
shrinkage=0.190304


Tree=79
num_leaves=7
num_cat=0
split_feature=37 26 26 36 43 36
split_gain=8.69468e-07 3.06713e-06 3.40315e-06 1.22141e-06 6.58801e-06 1.57898e-06
threshold=0.46369671821594244 0.13337500393390658 0.13062500208616259 0.67768684029579174 0.0016380734741687777 0.67182374000549328
decision_type=2 2 2 2 2 2
left_child=1 2 -1 5 -5 -2
right_child=3 -3 -4 4 -6 -7
leaf_value=-6.4915332650342492e-06 1.3410911458717567e-07 4.7251584953462701e-05 -6.0508476205208937e-05 -1.1831317448183102e-06 4.3813665991882115e-05 -5.6873199189647292e-06
leaf_weight=417 60247 34 47 594 147 1736
leaf_count=417 60247 34 47 594 147 1736
internal_value=-1.22291e-14 -7.92031e-06 -1.19631e-05 6.28836e-08 7.74336e-06 -2.89356e-08
internal_weight=63222 498 464 62724 741 61983
internal_count=63222 498 464 62724 741 61983
is_linear=0
shrinkage=0.190304


Tree=80
num_leaves=7
num_cat=0
split_feature=31 42 44 31 44 31
split_gain=8.74061e-07 5.26674e-06 5.51317e-06 1.2793e-06 5.83691e-06 2.18498e-06
threshold=294.04386901855474 0.99793243408203136 0.13162500411272052 292.46766662597662 0.11837500333786012 292.36955261230474
decision_type=2 2 2 2 2 2
left_child=3 -2 -3 5 -5 -1
right_child=1 2 -4 4 -6 -7
leaf_value=2.7447578960003018e-08 -6.2054149805661419e-05 3.2575128101856866e-05 -6.4167655726779269e-05 2.596113923917228e-05 -9.0683204042932462e-06 1.7926322868115098e-05
leaf_weight=60995 31 192 24 194 1538 248
leaf_count=60995 31 192 24 194 1538 248
internal_value=-6.41086e-15 1.12985e-05 2.18259e-05 -4.43148e-08 -5.1447e-06 9.9928e-08
internal_weight=63222 247 216 62975 1732 61243
internal_count=63222 247 216 62975 1732 61243
is_linear=0
shrinkage=0.190304


Tree=81
num_leaves=8
num_cat=0
split_feature=27 26 39 42 25 40 43
split_gain=9.07757e-07 1.66883e-05 7.11069e-06 6.83899e-06 4.02784e-06 6.69038e-06 3.23029e-06
threshold=0.063312500715255751 0.11925000324845315 0.97512388229370128 0.99932545423507702 0.0055000002030283221 0.033625274896621711 0.00021097436547279361
decision_type=2 2 2 2 2 2 2
left_child=1 2 -1 -3 5 -2 -6
right_child=4 3 -4 -5 6 -7 -8
leaf_value=3.6717456561267584e-06 1.4451905228412751e-05 -3.2477944798948333e-05 -1.6772145087544526e-05 7.1333783184597937e-06 2.3668379833263137e-05 -2.6973981409165765e-05 -9.3032932885668583e-08
leaf_weight=5899 1327 811 688 196 208 158 53935
leaf_count=5899 1327 811 688 196 208 158 53935
internal_value=2.64041e-14 -1.95168e-06 1.53642e-06 -2.47681e-05 2.66432e-07 1.00443e-05 -1.74922e-09
internal_weight=63222 7594 6587 1007 55628 1485 54143
internal_count=63222 7594 6587 1007 55628 1485 54143
is_linear=0
shrinkage=0.190304


Tree=82
num_leaves=8
num_cat=0
split_feature=25 39 39 35 25 32 27
split_gain=8.70326e-07 7.16164e-06 6.5216e-06 3.73201e-06 1.33495e-06 7.98621e-06 1.39344e-06
threshold=0.011750000063329937 0.97473901510238659 0.96747705340385448 405.49612426757818 0.011000000406056644 338.41238403320318 0.072125006467103972
decision_type=2 2 2 2 2 2 2
left_child=4 2 -2 -3 6 -6 -1
right_child=1 3 -4 -5 5 -7 -8
leaf_value=-6.9335131098966103e-08 6.8852755770212849e-05 2.7114651794334497e-05 -9.439480255780513e-06 0.00014337144325020381 -1.0247357613108318e-05 9.4784056507092699e-05 6.7863395099540825e-06
leaf_weight=60803 44 20 310 20 905 27 1093
leaf_count=60803 44 20 310 20 905 27 1093
internal_value=4.26254e-15 8.91625e-06 2.91758e-07 8.5243e-05 -5.59146e-08 -7.2046e-06 5.17269e-08
internal_weight=63222 394 354 40 62828 932 61896
internal_count=63222 394 354 40 62828 932 61896
is_linear=0
shrinkage=0.190304


Tree=83
num_leaves=8
num_cat=0
split_feature=35 32 30 32 35 32 3
split_gain=8.8796e-07 5.4924e-06 5.98069e-06 5.01116e-06 8.81765e-06 6.4153e-06 4.98337e-06
threshold=409.22146606445318 335.31790161132818 1.0000000180025095e-35 335.31790161132818 408.50360107421881 335.71362304687506 34146.000000000007
decision_type=2 2 2 2 2 2 2
left_child=3 2 -2 4 -1 -5 -3
right_child=1 6 -4 5 -6 -7 -8
leaf_value=-6.7485782595405561e-08 -8.6043774699478795e-06 -2.3752009257577163e-05 5.9023276242438789e-05 -3.1621799990386863e-05 1.0298483434583162e-05 2.0121997764056504e-06 2.0745257603765282e-06
leaf_weight=47321 3543 280 48 401 3171 421 8037
leaf_count=47321 3543 280 48 401 3171 421 8037
internal_value=-9.645e-15 -1.4805e-06 -7.70042e-06 3.43567e-07 5.83518e-07 -1.43956e-05 1.20505e-06
internal_weight=63222 11908 3591 51314 50492 822 8317
internal_count=63222 11908 3591 51314 50492 822 8317
is_linear=0
shrinkage=0.190304


Tree=84
num_leaves=8
num_cat=0
split_feature=3 27 31 25 43 32 40
split_gain=9.38673e-07 7.69893e-06 8.9709e-06 8.70262e-06 2.32148e-06 7.14047e-06 3.2485e-06
threshold=35519.000000000007 0.068375002592802062 283.24684143066412 0.010625000577419998 0.0027404585853219037 337.98814392089849 0.028595628216862682
decision_type=2 2 2 2 2 2 2
left_child=1 2 -1 -3 6 -6 -2
right_child=4 3 -4 -5 5 -7 -8
leaf_value=-0.00011078921164864597 1.7503393244903255e-06 9.9989586967531431e-06 -8.1287178717261094e-07 6.6471694769285473e-05 -4.8810455246528141e-06 -7.3961239066944293e-05 -1.2415658180693586e-06
leaf_weight=27 21989 1460 5240 106 1676 56 32668
leaf_count=27 21989 1460 5240 106 1676 56 32668
internal_value=6.00533e-16 2.1065e-06 -1.37664e-06 1.38215e-05 -2.55258e-07 -7.11459e-06 -3.78956e-08
internal_weight=63222 6833 5267 1566 56389 1732 54657
internal_count=63222 6833 5267 1566 56389 1732 54657
is_linear=0
shrinkage=0.190304


Tree=85
num_leaves=8
num_cat=0
split_feature=32 37 43 42 55 39 26
split_gain=8.48339e-07 6.17661e-06 9.88243e-06 5.79015e-06 1.92523e-06 5.40967e-06 4.01273e-06
threshold=327.36215209960943 0.50765189528465282 0.00044392608106136327 0.99966716766357433 1.0000000180025095e-35 0.97608637809753429 0.13562500476837161
decision_type=2 2 2 2 2 2 2
left_child=1 2 -1 -3 6 -6 -2
right_child=4 3 -4 -5 5 -7 -8
leaf_value=8.9616068611572658e-05 9.4801020938462733e-07 4.9693191687354265e-07 1.075929672801536e-05 -3.8790161558243942e-05 -8.9468729428331913e-07 -1.3624161964089318e-05 -1.3560507979085569e-05
leaf_weight=61 33291 6010 1019 139 20713 1284 705
leaf_count=61 33291 6010 1019 139 20713 1284 705
internal_value=-3.44888e-15 1.94011e-06 1.52132e-05 -3.91165e-07 -2.50478e-07 -1.63773e-06 6.47136e-07
internal_weight=63222 7229 1080 6149 55993 21997 33996
internal_count=63222 7229 1080 6149 55993 21997 33996
is_linear=0
shrinkage=0.190304


Tree=86
num_leaves=8
num_cat=0
split_feature=39 32 38 29 44 32 27
split_gain=8.55522e-07 5.94684e-06 1.17435e-05 5.86129e-06 1.81435e-06 5.93375e-06 3.46266e-06
threshold=0.97566860914230358 337.67974853515631 0.0012500000302679839 492.00276184082037 0.11187500506639482 328.51576232910162 0.059437500312924392
decision_type=2 2 2 2 2 2 2
left_child=4 3 -3 -2 5 -1 -6
right_child=1 2 -4 -5 6 -7 -8
leaf_value=6.2986845142038719e-05 -2.4124612751943133e-05 -5.8143227253596565e-05 3.6720179989829452e-05 5.4292002621549223e-06 -5.6260191332998476e-05 1.315655392230085e-06 -2.4934845892909023e-07
leaf_weight=70 257 150 69 4471 40 293 57872
leaf_count=70 257 150 69 4471 40 293 57872
internal_value=2.76408e-14 2.4027e-06 -2.82548e-05 3.82274e-06 -2.03966e-07 1.32082e-05 -2.88035e-07
internal_weight=63222 4947 219 4728 58275 363 57912
internal_count=63222 4947 219 4728 58275 363 57912
is_linear=0
shrinkage=0.190304


Tree=87
num_leaves=8
num_cat=0
split_feature=37 37 29 32 34 36 32
split_gain=8.68215e-07 5.54133e-06 4.63136e-06 4.25837e-06 3.43316e-06 6.47407e-06 5.23136e-06
threshold=0.54194104671478283 0.54119524359703075 500.78825378417974 334.69750976562506 -5.3082499504089347 0.64810782670974743 335.71362304687506
decision_type=2 2 2 2 2 2 2
left_child=1 3 -3 -1 5 -2 -6
right_child=4 2 -4 -5 6 -7 -8
leaf_value=6.8224683211586633e-07 2.6647805091375859e-06 -5.8986079501854994e-06 -4.3463726094730267e-05 -5.4498473590037145e-06 -1.7525759365471883e-06 3.457648516420911e-05 6.9036198176491555e-06
leaf_weight=22632 11355 302 196 5009 20611 235 2882
leaf_count=22632 11355 302 196 5009 20611 235 2882
internal_value=2.13345e-14 -7.87446e-07 -2.06833e-05 -4.28989e-07 6.31586e-07 3.31183e-06 -6.90679e-07
internal_weight=63222 28139 498 27641 35083 11590 23493
internal_count=63222 28139 498 27641 35083 11590 23493
is_linear=0
shrinkage=0.190304


Tree=88
num_leaves=5
num_cat=0
split_feature=28 33 33 59
split_gain=8.55649e-07 8.55962e-07 3.33318e-06 2.51063e-06
threshold=997.50000000000011 982.50000000000011 979.50000000000011 0.0034999998752027754
decision_type=2 2 2 2
left_child=-1 2 -2 -3
right_child=1 3 -4 -5
leaf_value=-3.8407242890646696e-05 8.7765348893076366e-07 5.5331755476562228e-07 -4.3991575064668354e-06 -2.2685800460453262e-05
leaf_weight=21 11738 44420 6874 169
leaf_count=21 11738 44420 6874 169
internal_value=2.14765e-14 1.27617e-08 -1.07124e-06 4.65237e-07
internal_weight=63222 63201 18612 44589
internal_count=63222 63201 18612 44589
is_linear=0
shrinkage=0.190304


Tree=89
num_leaves=8
num_cat=0
split_feature=34 33 41 31 34 36 40
split_gain=8.44357e-07 5.9071e-06 1.10398e-05 6.03292e-06 3.95979e-06 1.16939e-05 2.13803e-06
threshold=-8.7406253814697248 995.50000000000011 0.0071250000037252912 291.23606872558599 -8.4746251106262189 0.64781197905540477 0.024699319154024128
decision_type=2 2 2 2 2 2 2
left_child=1 3 -3 -1 5 -2 -6
right_child=4 2 -4 -5 6 -7 -8
leaf_value=1.7323611672375379e-06 3.7375606633249663e-05 -5.4016782094025528e-05 -2.9401367405140811e-06 -1.7313040799104866e-05 4.520413582491359e-06 -1.0155929719614253e-05 -2.4829997287934124e-07
leaf_weight=6128 381 218 516 668 3647 369 51295
leaf_count=6128 381 218 516 668 3647 369 51295
internal_value=-2.82867e-14 -1.89136e-06 -1.811e-05 -1.39671e-07 2.55727e-07 1.39901e-05 6.82429e-08
internal_weight=63222 7530 734 6796 55692 750 54942
internal_count=63222 7530 734 6796 55692 750 54942
is_linear=0
shrinkage=0.190304


Tree=90
num_leaves=8
num_cat=0
split_feature=39 28 35 26 40 48 25
split_gain=8.47851e-07 5.56245e-06 7.87661e-06 4.36985e-06 3.72558e-06 1.1654e-05 5.71546e-06
threshold=0.97088176012039196 998.50000000000011 409.32391357421881 0.11262500286102296 0.029146122746169571 217.50000000000003 0.0091250003315508383
decision_type=2 2 2 2 2 2 2
left_child=1 2 -1 -3 6 -6 -2
right_child=4 3 -4 -5 5 -7 -8
leaf_value=-2.9412713026938212e-05 -1.0580010647338693e-06 2.6567669065095466e-05 4.2897262921284488e-05 9.3090058484453976e-07 2.044914779818892e-05 -7.363500808096252e-06 5.4551300136429785e-06
leaf_weight=407 23471 243 63 26451 602 5825 6160
leaf_count=407 23471 243 63 26451 602 5825 6160
internal_value=1.5432e-14 8.02928e-07 -1.97201e-05 1.16428e-06 -6.0488e-07 -4.75836e-06 2.96016e-07
internal_weight=63222 27164 470 26694 36058 6427 29631
internal_count=63222 27164 470 26694 36058 6427 29631
is_linear=0
shrinkage=0.190304


Tree=91
num_leaves=7
num_cat=0
split_feature=26 29 34 26 3 27
split_gain=9.90806e-07 6.4638e-06 6.91181e-06 3.6542e-06 8.89504e-06 3.20701e-06
threshold=0.11412500217556955 489.64125061035162 -6.576000213623046 0.11537500470876695 35519.000000000007 0.061437500640749938
decision_type=2 2 2 2 2 2
left_child=1 -1 -3 4 -2 -5
right_child=3 2 -4 5 -6 -7
leaf_value=0.00010169435707501801 7.2405200442136761e-05 -3.4258563746059732e-05 8.4265244352277197e-07 -1.7077266660634196e-05 6.1835995760619847e-06 3.9869724950100191e-08
leaf_weight=20 81 266 860 399 789 60807
leaf_count=20 81 266 860 399 789 60807
internal_value=8.78257e-15 -5.54469e-06 -7.44946e-06 1.02362e-07 1.23491e-05 -7.17164e-08
internal_weight=63222 1146 1126 62076 870 61206
internal_count=63222 1146 1126 62076 870 61206
is_linear=0
shrinkage=0.190304


Tree=92
num_leaves=8
num_cat=0
split_feature=37 33 44 35 37 32 36
split_gain=8.32876e-07 6.33993e-06 9.75598e-06 6.51879e-06 2.51841e-06 7.00513e-06 3.53649e-06
threshold=0.59797760844230663 971.50000000000011 0.11950000002980234 403.19282531738287 0.59611916542053234 330.31689453125006 0.62655341625213634
decision_type=2 2 2 2 2 2 2
left_child=4 2 -2 -3 6 -6 -1
right_child=1 3 -4 -5 5 -7 -8
leaf_value=-7.2945509090955373e-05 -7.424915331970795e-05 -1.8130033652169092e-05 4.6504124067273193e-05 -3.9664825340191783e-07 4.5596423104352093e-05 -2.3311024862932491e-06 1.2100633772100506e-07
leaf_weight=24 28 920 180 4080 166 330 57494
leaf_count=24 28 920 180 4080 166 330 57494
internal_value=-1.92516e-14 -2.30534e-06 3.02489e-05 -3.65959e-06 2.06953e-07 1.37092e-05 9.05186e-08
internal_weight=63222 5208 208 5000 58014 496 57518
internal_count=63222 5208 208 5000 58014 496 57518
is_linear=0
shrinkage=0.190304


Tree=93
num_leaves=8
num_cat=0
split_feature=33 36 26 35 33 32 30
split_gain=8.41413e-07 6.88426e-06 7.1267e-06 5.30012e-06 1.87369e-06 5.23101e-06 2.43732e-06
threshold=970.50000000000011 0.63154989480972301 0.12237500399351121 407.01953125000006 972.50000000000011 337.98814392089849 1.5000000000000002
decision_type=2 2 2 2 2 2 2
left_child=1 2 -1 -3 5 -2 -6
right_child=4 3 -4 -5 6 -7 -8
leaf_value=-2.3670723479111745e-05 1.0527286883306271e-05 -1.6398449158191856e-05 3.9986057602820483e-05 7.1613905596096908e-06 -4.6645722578859699e-08 -5.3674164860759899e-05 5.8232215871307945e-05
leaf_weight=89 1082 1097 224 505 60151 48 26
leaf_count=89 1082 1097 224 505 60151 48 26
internal_value=2.00514e-14 -3.92815e-06 2.18856e-05 -8.97166e-06 1.22701e-07 7.80015e-06 -2.14658e-08
internal_weight=63222 1915 313 1602 61307 1130 60177
internal_count=63222 1915 313 1602 61307 1130 60177
is_linear=0
shrinkage=0.190304


Tree=94
num_leaves=5
num_cat=0
split_feature=33 33 50 33
split_gain=8.47352e-07 1.44176e-06 1.2001e-05 8.07796e-07
threshold=955.50000000000011 959.50000000000011 4.0000000000000009 989.50000000000011
decision_type=2 2 2 2
left_child=-1 2 -2 -3
right_child=1 3 -4 -5
leaf_value=-3.1975356732530558e-05 9.5931962919494426e-05 -5.2934592410632974e-07 -8.1556004866797059e-05 8.8413778986112377e-07
leaf_weight=30 37 40053 22 23080
leaf_count=30 37 40053 22 23080
internal_value=-3.62099e-14 1.51801e-08 2.975e-05 -1.26082e-08
internal_weight=63222 63192 59 63133
internal_count=63222 63192 59 63133
is_linear=0
shrinkage=0.190304


Tree=95
num_leaves=8
num_cat=0
split_feature=43 39 27 32 42 39 32
split_gain=8.14639e-07 4.25778e-06 5.77649e-06 4.1797e-06 2.10741e-06 4.73936e-06 1.88326e-06
threshold=0.0018279189243912699 0.97722387313842785 0.063875000923872008 330.01287841796881 0.99821013212203991 0.97545099258422863 327.36215209960943
decision_type=2 2 2 2 2 2 2
left_child=4 3 -3 -2 5 -1 -6
right_child=1 2 -4 -5 6 -7 -8
leaf_value=-1.6204820489330004e-05 -3.4410307761569633e-06 -9.3392317343769768e-05 -1.1108090389611138e-05 4.8936231899028153e-06 2.9987455595264767e-06 6.03655632930774e-05 -5.8507290368132544e-07
leaf_weight=526 3230 36 218 6697 5995 31 46489
leaf_count=526 3230 36 218 6697 5995 31 46489
internal_value=4.13304e-15 1.55922e-06 -2.27704e-05 2.18173e-06 -2.99285e-07 -1.19433e-05 -1.7571e-07
internal_weight=63222 10181 254 9927 53041 557 52484
internal_count=63222 10181 254 9927 53041 557 52484
is_linear=0
shrinkage=0.190304


Tree=96
num_leaves=8
num_cat=0
split_feature=31 42 29 31 38 31 31
split_gain=7.68807e-07 4.53383e-06 3.8335e-06 2.68848e-06 6.21407e-06 2.49436e-06 2.26771e-06
threshold=285.06465148925787 0.99970334768295299 506.22062683105474 286.00758361816412 0.00037500001781154429 286.09846496582037 284.46684265136724
decision_type=2 2 2 2 2 2 2
left_child=1 2 -1 4 -2 -5 -3
right_child=3 6 -4 5 -6 -7 -8
leaf_value=2.0944572561344631e-06 -3.0481739780124314e-05 -0.00010484637046596089 2.9464650360859132e-05 1.3599062120444618e-05 -2.7085221644332958e-06 7.1557060509801367e-08 -1.7227741168773463e-05
leaf_weight=2245 319 20 202 498 3416 56499 23
leaf_count=2245 319 20 202 498 3416 56499 23
internal_value=-1.50126e-14 3.27741e-06 4.35387e-06 -1.34373e-07 -5.08059e-06 1.89751e-07 -5.79806e-05
internal_weight=63222 2490 2447 60732 3735 56997 43
internal_count=63222 2490 2447 60732 3735 56997 43
is_linear=0
shrinkage=0.190304


Tree=97
num_leaves=8
num_cat=0
split_feature=25 5 48 36 36 37 37
split_gain=7.8423e-07 6.8144e-06 5.31432e-06 5.17541e-06 3.64351e-06 1.06828e-05 1.03578e-05
threshold=0.0083750002086162584 1.0000000180025095e-35 230.00000000000003 0.64349529147148143 0.64560878276824962 0.52518564462661754 0.54896801710128795
decision_type=2 2 2 2 2 2 2
left_child=4 2 -2 -3 6 -6 -1
right_child=1 3 -4 -5 5 -7 -8
leaf_value=0.00012486139310671331 -8.0538103186508932e-05 -3.8346436886613207e-06 -1.4306950715985234e-05 1.8209033463500295e-06 2.971671500358177e-06 -5.7569662023189783e-06 2.2860975962563509e-06
leaf_weight=25 65 10117 135 13926 10542 9797 18615
leaf_count=25 65 10117 135 13926 10542 9797 18615
internal_value=-9.42805e-15 -8.49879e-07 -3.58321e-05 -5.58882e-07 5.28582e-07 -1.23279e-06 2.4505e-06
internal_weight=63222 24243 200 24043 38979 20339 18640
internal_count=63222 24243 200 24043 38979 20339 18640
is_linear=0
shrinkage=0.190304


Tree=98
num_leaves=8
num_cat=0
split_feature=26 35 32 56 27 39 25
split_gain=7.46667e-07 4.20688e-06 6.60004e-06 5.11483e-06 3.24807e-06 5.15971e-06 3.67675e-06
threshold=0.1278750076889992 408.54856872558599 332.64038085937506 0.0029999999096617107 0.067999999970197691 0.96693018078804027 0.010875000152736904
decision_type=2 2 2 2 2 2 2
left_child=4 3 -3 -2 6 -6 -1
right_child=1 2 -4 -5 5 -7 -8
leaf_value=2.5317058573451202e-07 -3.8738041026667885e-06 5.3713953335782765e-05 3.0026138509346669e-06 8.4224674275796475e-06 -2.3354887497959265e-05 9.7129506452699871e-06 -1.3977393423308837e-05
leaf_weight=41940 12436 95 4299 1359 185 2240 668
leaf_count=41940 12436 95 4299 1359 185 2240 668
internal_value=-1.98886e-14 -1.02905e-06 4.09901e-06 -2.66245e-06 4.15638e-07 7.19025e-06 3.00665e-08
internal_weight=63222 18189 4394 13795 45033 2425 42608
internal_count=63222 18189 4394 13795 45033 2425 42608
is_linear=0
shrinkage=0.190304


Tree=99
num_leaves=8
num_cat=0
split_feature=32 36 27 43 35 27 35
split_gain=7.52636e-07 3.74448e-06 8.62658e-06 3.57876e-06 2.75324e-06 8.0589e-06 3.91861e-06
threshold=333.76477050781256 0.61430126428604137 0.062874998897314086 0.0011296859011054041 409.37440490722662 0.06581249833106996 408.45989990234381
decision_type=2 2 2 2 2 2 2
left_child=4 2 -2 -3 6 -6 -1
right_child=1 3 -4 -5 5 -7 -8
leaf_value=2.1989750629053692e-07 7.7414500044629403e-05 -3.3815733831267391e-06 -3.3885484141796611e-05 2.2215557979317884e-06 -4.3734271526873805e-05 6.5813106302041009e-06 1.005273044667441e-05
leaf_weight=44391 28 8689 254 7865 195 282 1518
leaf_count=44391 28 8689 254 7865 195 282 1518
internal_value=-1.20606e-15 -1.08988e-06 -2.28344e-05 -7.19461e-07 3.95578e-07 -1.3988e-05 5.45024e-07
internal_weight=63222 16836 282 16554 46386 477 45909
internal_count=63222 16836 282 16554 46386 477 45909
is_linear=0
shrinkage=0.190304


Tree=100
num_leaves=8
num_cat=0
split_feature=42 43 27 27 32 36 55
split_gain=9.16866e-07 6.08397e-06 1.16452e-05 5.0731e-06 9.93341e-06 3.97219e-06 3.33451e-06
threshold=0.9988226890563966 0.0011296859011054041 0.06087500415742398 0.061375001445412643 327.77087402343756 0.61248689889907848 0.014999999664723875
decision_type=2 2 2 2 2 2 2
left_child=3 6 -3 4 -1 -5 -2
right_child=1 2 -4 5 -6 -7 -8
leaf_value=3.8672122065989219e-05 3.1341316590222682e-07 0.00011646638898956297 8.7351765024604237e-06 -2.0227353710667338e-05 -2.381050807217005e-05 -1.0396040244253452e-07 -1.2480322733269195e-05
leaf_weight=106 32363 37 2030 360 705 26866 755
leaf_count=106 32363 37 2030 360 705 26866 755
internal_value=8.81556e-15 6.46924e-07 1.06636e-05 -8.11856e-07 -1.56439e-05 -3.70045e-07 2.17509e-08
internal_weight=63222 35185 2067 28037 811 27226 33118
internal_count=63222 35185 2067 28037 811 27226 33118
is_linear=0
shrinkage=0.190304


Tree=101
num_leaves=7
num_cat=0
split_feature=36 59 29 37 42 36
split_gain=7.78963e-07 3.98276e-06 3.75756e-06 2.79763e-06 7.81644e-06 4.81606e-06
threshold=0.67182374000549328 -0.0019999999785795804 489.15661621093756 0.49531681835651403 0.99887001514434826 0.66757872700691234
decision_type=2 2 2 2 2 2
left_child=3 -2 -3 4 -1 -5
right_child=1 2 -4 5 -6 -7
leaf_value=2.3522262711268138e-05 7.9577084284538537e-05 6.1264339266677457e-05 -4.3034112252549109e-06 1.3335587412078389e-07 -4.0505119881287273e-06 -1.5473702572964449e-05
leaf_weight=672 21 32 2922 58015 835 725
leaf_count=672 21 32 2922 58015 835 725
internal_value=-4.27198e-15 -3.00605e-06 -3.59313e-06 1.48439e-07 8.24471e-06 -5.92747e-08
internal_weight=63222 2975 2954 60247 1507 58740
internal_count=63222 2975 2954 60247 1507 58740
is_linear=0
shrinkage=0.190304


Tree=102
num_leaves=8
num_cat=0
split_feature=43 33 27 31 51 42 39
split_gain=8.39269e-07 5.0711e-06 7.06877e-06 4.03079e-06 3.90048e-06 8.56268e-06 3.1915e-06
threshold=0.00095040322048589598 968.50000000000011 0.069874998182058348 293.54728698730474 181.00000000000003 0.99871426820755016 0.97907397150993358
decision_type=2 2 2 2 2 2 2
left_child=1 2 -1 -3 5 -2 -6
right_child=4 3 -4 -5 6 -7 -8
leaf_value=-2.6960730850421123e-05 3.1773308089059119e-06 1.0121119975604707e-06 5.4181118773203026e-05 2.9996713108748645e-05 -4.8242816428119527e-07 -5.5504418008228206e-05 2.7058716713685017e-05
leaf_weight=406 230 24525 43 175 37542 148 153
leaf_count=406 230 24525 43 175 37542 148 153
internal_value=1.02932e-14 8.53124e-07 -1.91899e-05 1.21747e-06 -5.63528e-07 -1.97986e-05 -3.70642e-07
internal_weight=63222 25149 449 24700 38073 378 37695
internal_count=63222 25149 449 24700 38073 378 37695
is_linear=0
shrinkage=0.190304


Tree=103
num_leaves=8
num_cat=0
split_feature=27 27 33 26 42 42 33
split_gain=7.24677e-07 3.56798e-06 1.19737e-05 7.58606e-06 3.32521e-06 9.06386e-06 5.31063e-06
threshold=0.067000005394220366 0.0665625035762787 998.50000000000011 0.12650000303983691 0.99952620267868053 0.99958598613739025 957.50000000000011
decision_type=2 2 2 2 2 2 2
left_child=1 3 -3 -1 6 -6 -2
right_child=4 2 -4 -5 5 -7 -8
leaf_value=-5.2226139643124565e-07 -9.7041400708100064e-05 4.6194855646986227e-06 0.00010439012608409741 2.2455128629025662e-05 2.4060607611854463e-05 -2.5427139032936646e-06 -1.3003415858938184e-06
leaf_weight=31884 21 4387 44 529 706 1352 24299
leaf_count=31884 21 4387 44 529 706 1352 24299
internal_value=-6.84594e-15 5.45159e-07 5.61021e-06 -1.47256e-07 -7.61461e-07 6.5836e-06 -1.38301e-06
internal_weight=63222 36844 4431 32413 26378 2058 24320
internal_count=63222 36844 4431 32413 26378 2058 24320
is_linear=0
shrinkage=0.190304


Tree=104
num_leaves=8
num_cat=0
split_feature=33 37 31 26 26 26 43
split_gain=8.45889e-07 7.02044e-06 9.50014e-06 4.87709e-06 1.01773e-06 5.42754e-06 4.34698e-06
threshold=998.50000000000011 0.55262523889541637 290.44892883300787 0.11912500113248826 0.1226250007748604 0.12350000068545343 0.0025930083356797699
decision_type=2 2 2 2 2 2 2
left_child=4 2 -2 -3 6 -6 -1
right_child=1 3 -4 -5 5 -7 -8
leaf_value=1.7743746177722978e-06 -8.867418997022228e-06 -4.4153507815959831e-05 -8.0659614748169919e-05 2.2236498428721533e-05 -7.4199066461336962e-06 2.1494710731806054e-07 -1.1737785457968943e-05
leaf_weight=19565 359 46 82 311 3698 38259 902
leaf_count=19565 359 46 82 311 3698 38259 902
internal_value=2.11576e-14 -6.15664e-06 -2.22165e-05 1.3682e-05 7.87038e-08 -4.57973e-07 1.17888e-06
internal_weight=63222 798 441 357 62424 41957 20467
internal_count=63222 798 441 357 62424 41957 20467
is_linear=0
shrinkage=0.190304


Tree=105
num_leaves=8
num_cat=0
split_feature=33 31 42 35 33 42 33
split_gain=7.70444e-07 5.74202e-06 7.26984e-06 6.88178e-06 1.12588e-06 8.30099e-06 1.52427e-06
threshold=964.50000000000011 289.32791137695318 0.99896246194839489 399.10523986816412 968.50000000000011 0.99920141696929943 969.50000000000011
decision_type=2 2 2 2 2 2 2
left_child=1 3 -3 -1 5 -2 -6
right_child=4 2 -4 -5 6 -7 -8
leaf_value=9.4011673588584424e-05 4.9566579624760792e-06 8.519406755120081e-05 -2.3406218735036336e-05 -1.476733739600775e-05 1.3329103436291361e-05 -3.8583467165192862e-05 -2.7280620041248105e-08
leaf_weight=23 568 65 34 250 311 220 61751
leaf_count=23 568 65 34 250 311 220 61751
internal_value=2.60073e-14 8.63505e-06 4.7897e-05 -5.60281e-06 -5.11096e-08 -7.19921e-06 3.96498e-08
internal_weight=63222 372 99 273 62850 788 62062
internal_count=63222 372 99 273 62850 788 62062
is_linear=0
shrinkage=0.190304


Tree=106
num_leaves=7
num_cat=0
split_feature=35 25 29 35 36 35
split_gain=7.60676e-07 7.0521e-06 3.78095e-06 1.90209e-06 6.51327e-06 1.31746e-06
threshold=415.46919250488287 0.006375000113621355 492.63127136230474 414.10551452636724 0.63776186108589183 412.50531005859381
decision_type=2 2 2 2 2 2
left_child=3 -2 -3 5 -5 -1
right_child=1 2 -4 4 -6 -7
leaf_value=8.4649289805123433e-08 7.7622954935634416e-05 -9.9029754560704612e-05 -1.4085623404903471e-05 -2.087217600792972e-05 2.6344433063604353e-05 -5.6465839914085057e-06
leaf_weight=60991 29 21 197 153 343 1488
leaf_count=60991 29 21 197 153 343 1488
internal_value=-2.36708e-14 -1.05402e-05 -2.22683e-05 4.13406e-08 1.17796e-05 -5.18458e-08
internal_weight=63222 247 218 62975 496 62479
internal_count=63222 247 218 62975 496 62479
is_linear=0
shrinkage=0.190304


Tree=107
num_leaves=8
num_cat=0
split_feature=43 35 26 34 42 43 42
split_gain=7.07685e-07 5.10503e-06 7.69756e-06 4.02627e-06 1.81184e-06 5.30303e-06 5.294e-06
threshold=0.0018279189243912699 412.88748168945318 0.12487500160932542 -9.57550001144409 0.99875229597091686 0.0012794821523129942 0.99875968694686901
decision_type=2 2 2 2 2 2 2
left_child=4 3 -3 -2 5 -1 -6
right_child=1 2 -4 -5 6 -7 -8
leaf_value=-1.4433894978343331e-05 1.2849227084479982e-05 5.9773953301279467e-05 -5.7322962700300938e-06 -4.5268763897839348e-07 2.8136120818161424e-05 -1.0156296122225788e-06 2.4041451561937165e-07
leaf_weight=1155 907 133 127 9014 248 13946 37692
leaf_count=1155 907 133 127 9014 248 13946 37692
internal_value=-1.00561e-14 1.45326e-06 2.77767e-05 7.63403e-07 -2.78948e-07 -2.04193e-06 4.22759e-07
internal_weight=63222 10181 260 9921 53041 15101 37940
internal_count=63222 10181 260 9921 53041 15101 37940
is_linear=0
shrinkage=0.190304


Tree=108
num_leaves=8
num_cat=0
split_feature=32 25 27 42 35 33 35
split_gain=7.66955e-07 4.20379e-06 5.25566e-06 4.7775e-06 9.08368e-07 8.11219e-06 1.46009e-06
threshold=340.91062927246099 0.0088749998249113577 0.064312502741813674 0.9990447759628297 413.70918273925787 987.50000000000011 412.50531005859381
decision_type=2 2 2 2 2 2 2
left_child=4 2 -2 -3 6 -6 -1
right_child=1 3 -4 -5 5 -7 -8
leaf_value=9.3065596625492656e-08 -5.3024908476281805e-05 -6.6932674731614326e-06 2.2573647448624873e-05 -0.00011150438373121924 2.7351277597803783e-05 -1.2225047912821813e-05 -6.5162524406236585e-06
leaf_weight=60990 44 36 137 28 358 394 1235
leaf_count=60990 44 36 137 28 358 394 1235
